0.04647455 0.05121514 0.12934041 -0.025463073 0.14444657 0.115188025 0.08017644 -0.1225284 0.06851121 0.0036430927 0.21293728 -0.12204385 0.119791396 0.19311704 0.08523385 0.12760027 0.01907833 0.17378885 0.14499792 -0.027419386 -0.10057268 0.070357725 -0.11703255 0.17553686 0.0150917275 0.0048104096 0.18373555 -0.07431688 -0.02039125 -0.16576114 -0.15107253 0.07161066 -0.05806398 -0.16498981 -0.05478967 -0.095461436 0.025056347 0.1751271 -0.022139272 -0.030515216 0.12121179 0.05441781 0.011097016 0.15777813 -0.16308354 -0.050983295 -0.06938358 -0.09019721 0.18411754 -0.00947554 0.1642624 0.15090634 0.1416214 0.18200837 -0.030350026 0.16740635 0.1291079 -0.08839292 0.042963408 0.17761849 0.14768249 0.012897291 0.042737894 -0.1359138 0.15985186 -0.029082686 0.17426418 -0.13912226 0.0049819164 0.037960783 0.1874498 0.089156516 -0.027961062 0.18587169 0.063506335 -0.080793165 0.03934466 -0.013054196 0.03355755 -0.06312508 0.1565284 0.007927059 -0.15859549 0.07589667 -0.13371028 -0.05428561 -0.042937838 -0.12571032 -0.07543195 -0.07837632 0.032499578 0.019589232 0.11310941 0.01606668 0.12316009 -0.003831414 0.09895025 -0.12752067 0.028047113 -0.027414061 -0.10110527 0.03786143 -0.12617049 0.048398767 0.073218204 0.2101355 0.20183797 0.06273313 0.0075254827 0.08286626 -0.090255484 0.013248317 -0.06761443 -0.057364307 -0.054663785 -0.037060622 -0.15727277 -0.15651645 0.019842569 0.1078121 -0.03678809 0.033689983 0.058054633 0.017613392 -0.026788495 0.082277685 -0.08873658 0.043060105 0.03950879
-0.076728866 0.091977105 0.1637689 -0.018205428 0.19303885 -0.11853758 -0.114750236 0.07682738 -0.054226927 0.08054927 -0.03223905 0.11281049 -0.041123964 -0.15980034 -0.13425295 -0.05963862 0.027810484 0.10120102 -0.063162476 -0.08803762 -0.16371338 0.057083808 0.0575503 0.12162846 0.17302483 0.08259585 -0.16671869 -0.05094361 -0.065787196 -0.10512941 0.1418424 -0.09888756 0.060488764 0.0012081211 0.16741267 0.11846633 0.05249949 -0.10006328 -0.22218446 0.069258265 -0.042127796 0.08871741 0.06358354 0.13533872 -0.17434177 -0.13797252 -0.103817 -0.01401421 0.010206152 -0.1640836 0.16731763 -0.067803636 -0.0056012142 0.18414776 -0.087402955 0.0025942875 0.03339745 0.12963763 0.11810873 -0.031280328 -0.11620485 0.17223178 0.08870167 0.09503791 0.049473375 -0.18376556 -0.15555817 0.06611171 -0.033768672 0.15096614 -0.16394946 0.017021997 0.082963996 0.17065433 -0.12105074 0.005749971 -0.11233715 0.26882017 0.0015891825 0.08312079 0.18681554 -0.03730821 0.18619277 0.11558433 0.13617888 -0.051105447 -0.004757202 0.049686007 0.23123929 0.1339891 -0.054755602 -0.07497409 -0.109523125 0.06752328 0.15994103 0.03428668 0.035728738 -0.08660699 0.013029394 0.012857782 0.0060421093 0.102896616 0.20753984 -0.06987645 -0.15089871 0.045291796 0.074391976 0.060768552 -6.695569e-05 -0.051447712 -0.017001258 0.03100762 -0.011062288 -0.18009047 0.17609541 0.07979182 0.008849918 0.016120942 0.054318428 0.074028835 0.1598893 -0.09667248 -0.12638578 -0.013094911 -0.04931031 0.17148024 -0.06271852 -0.10407679 0.013675432
-0.14926253 -0.11042053 0.010031553 -0.06330909 -0.16235904 0.14162573 -0.13872592 0.09599516 0.17979078 -0.02114787 0.115423724 0.16811758 0.21042863 0.031085916 0.019513877 0.18290995 -0.0648757 0.18672517 -0.06143722 -0.041711755 0.15926649 -0.039152052 0.083917156 0.10325529 -0.09320891 0.045420647 -0.044783097 -0.033056375 -0.054361373 -0.09647393 0.19260125 -0.11482903 0.12096031 -0.04745505 -0.18229108 -0.101180114 -0.08167964 -0.057686944 0.012278325 0.042687073 -0.11834253 -0.05916668 0.11137992 0.09259534 -0.08378223 0.05264588 0.13617803 -0.01629982 0.10867656 -0.14348711 0.16343525 -0.05437272 -0.020617614 0.025785714 0.15909855 -0.11803893 0.17897147 -0.030496024 -0.073483214 -0.08612103 -0.12597969 -0.0076722014 -0.14840047 0.14356932 0.1408884 -0.10680568 -0.17741491 0.019090766 -0.17627591 -0.036686134 0.047054194 0.10488194 0.13515835 0.09451047 0.04148912 -0.18738163 0.03990549 0.027012914 -0.08536666 -0.005830062 0.14645335 -0.10163805 0.18660751 0.08093614 0.013185208 -0.114160456 0.17889246 -0.108418375 0.029614983 0.007946083 -0.089226946 -0.22367942 0.04564694 0.18047434 -0.15082075 -0.037006237 -0.20238653 -0.11636364 0.048597224 0.09783548 -0.16811226 0.14024659 0.15406717 0.11651893 -0.10541666 -0.021084096 0.06536276 -0.075932264 0.19860667 -0.012723895 0.21045847 0.051705576 0.23620692 -0.06948033 0.033943918 0.04724889 0.14389122 0.12514116 -0.03646041 0.10320466 -0.11917953 0.18044388 0.010875388 0.21952586 -0.053673197 -0.08330061 0.009581616 0.1318678 0.02009291
-0.07735357 0.08947267 0.075156175 -0.057925932 0.01118282 0.08556089 0.023873445 0.18999277 0.16774787 -0.18853313 0.13794668 0.11315891 -0.13488713 -0.075030446 -0.11241201 -0.13806185 -0.05607747 0.008655632 -0.10306462 -0.05289343 -0.13645497 0.17128871 -0.044063058 0.11648832 0.14812708 0.1690303 0.13869147 -0.07293076 0.09360347 0.14776926 0.19227688 0.17346562 0.06592362 0.061497267 -0.05381564 -0.02190324 -0.11380084 -0.07823114 -0.067837074 0.037596993 -0.091400035 -0.06376642 0.012297546 0.08976919 0.067175716 0.14668258 -0.042576913 0.1223798 -0.012691372 0.0014430147 -0.14665642 -0.014218469 0.16915278 0.14390403 -0.13320878 0.18095163 0.066236325 0.12183056 0.1200697 0.046989445 0.08194012 -0.076464854 -0.12791242 -0.08178794 0.027821017 -0.028733559 0.08964531 0.118935324 0.018149737 0.11618796 0.13054393 -0.07526289 -0.03476344 -0.05057358 -0.006770542 -0.0021254008 -0.12077011 -0.10154272 0.020562477 0.06549331 -0.06558191 0.10637562 -0.07436617 0.029196892 0.2218505 0.02803919 0.02282451 0.1515289 -0.033613026 -0.20983464 -0.12476067 -0.08415502 0.0531333 -0.021648927 -0.07491597 -0.16264024 0.0051579294 0.12832914 -0.19271503 -0.10903669 -0.0076947715 -0.066236794 -0.12215272 -0.011949972 0.048914 -0.053944502 -0.0761063 0.083467536 -0.08322755 -0.11078526 -0.08771331 0.034118228 -0.053952746 -0.0065476 -0.020756077 -0.00020939473 -0.06385502 -0.11606165 -0.21647179 0.072526 0.15777235 -0.17721881 -0.02659341 -0.054881167 0.02555798 0.07350188 0.10615455 0.16488904 0.007947174
0.14247617 -0.018805113 0.14681087 0.06478703 0.054784648 -0.023244962 -0.07777373 0.051227 0.13834034 -0.17349805 0.082614094 -0.04125781 -0.13525732 0.18389137 -0.10958122 -0.05962002 0.1105622 0.21411139 0.16520256 -0.081825055 -0.16044411 -0.08974656 -0.06060104 -0.078038596 0.22750854 0.23851342 -0.10643379 0.17717122 -0.1679456 -0.007814349 -0.15225974 -0.10999687 0.041283276 0.21050736 0.08797488 0.083295256 -0.054994 -0.12384983 0.091302805 -0.020579392 -0.15154229 -0.091103375 -0.15448412 0.09075875 0.2367053 0.15841916 -0.0061106025 -0.02990095 0.07669222 -0.011428015 -0.078799956 0.015444661 0.059970472 -0.061142072 0.16062753 -0.0011945692 0.13905407 0.055029634 -0.028056111 0.039425854 -0.13223398 0.05976189 0.00019037584 0.15786844 -0.08649362 -0.03416205 0.031313747 -0.15133269 0.08585773 0.15617752 -0.0063736825 0.22296247 -0.048226077 -0.11350001 0.04809698 -0.016866729 0.1371263 0.021331068 0.045927163 0.08650809 0.051412668 -0.14164045 -0.032072246 -0.07896766 -0.016320357 -0.19252467 -0.010126127 0.10481068 0.06890021 0.040869776 0.07060127 -0.058476053 -0.18710034 -0.13133088 -0.17860697 0.026727656 -0.1247736 0.21887232 -0.13347839 0.05891707 -0.062350042 -0.12686351 -0.01936201 0.06091743 0.16028918 0.07581556 -0.18621388 0.024614565 0.09196003 0.038104393 -0.092766635 -0.052721836 0.18059939 0.11334597 0.096384 -0.01677409 -0.062938005 -0.012157086 -0.09794287 0.09860519 -0.087079704 0.07957008 -0.059006352 0.15371257 -0.039524894 -0.18886217 -0.08339554 0.057270773 0.028672606
0.055630915 0.02294863 0.13123024 0.019616092 -0.16753563 -0.048037417 0.02096348 0.08618677 -0.17293818 0.072602116 0.08634684 0.16915292 0.17326523 -0.011576279 -0.0715876 -0.1068449 -0.0526833 -0.11183431 0.038522165 -0.00013579614 0.023830147 0.10736472 0.05044011 0.2389613 0.038258396 -0.064819604 -0.13568749 0.0050207926 0.10167173 -0.024978226 0.14510798 -0.06454733 -0.02329439 -0.10286929 0.019637845 -0.13499364 0.038144305 0.047393564 -0.19074795 0.11409573 -0.1272129 -0.17699808 0.069855675 0.14171878 -0.019232517 0.087400146 -0.05062297 -0.067908205 -0.11797519 -0.10563479 -0.15290475 0.13625403 0.14980432 -0.078450315 0.06266724 -0.13313681 0.15242785 -0.06844092 0.026428638 -0.12357473 -0.06046575 -0.14826469 0.053450573 0.11746037 0.13813587 0.14680932 -0.12561546 0.18937203 -0.04555092 -0.104133055 0.13491628 0.07023241 -0.10766576 0.067348875 -0.04275661 0.086867206 0.15502158 0.20237617 -0.06737549 -0.057672996 -0.15661721 -0.04657822 -0.048561916 -0.039262738 -0.06787233 -0.012461916 0.10030646 -0.0317854 -0.004400141 -0.058480363 0.061403006 -0.21300389 0.08210345 -0.07432966 0.04126776 -0.07051526 0.1367713 -0.10121954 0.059889026 -0.15155067 0.07935203 -0.030376455 -0.1508936 -0.023599787 0.115329094 0.019898692 -0.13256176 0.13672844 -0.09367105 -0.018380033 0.04192735 -0.095368065 -0.07738727 -0.097729236 0.11703895 0.06095086 -0.07286581 0.13726206 0.037739467 -0.141439 -0.13665926 -0.018287072 0.088100806 0.09717628 0.0033219103 -0.16573353 -0.01776425 -0.0016338471 0.00040929145
0.19456846 0.019313505 -0.082995616 0.13635549 -0.11929805 0.09684178 -0.10929214 0.05964544 -0.09636748 -0.07096497 0.0085865455 -0.105713345 -0.12190559 0.09265358 0.124328256 -0.12284016 0.05512095 0.21474773 0.18405975 0.10418824 0.002592693 0.03353308 0.058486823 -0.12857783 -0.074319325 0.09617291 -0.0718187 0.08439438 -0.03797932 0.10447242 -0.14333959 -0.009854066 -0.15568246 -0.2599586 0.07045612 0.0014822818 0.09646829 0.09004589 -0.012151124 -0.18743482 0.12881097 0.099371076 -0.04450564 -0.014673871 -0.04495727 -0.069618545 0.18239081 -0.15631314 0.037004367 -0.10605873 0.030688388 -0.13083754 -0.14066416 -0.119784035 0.05085325 -0.07673873 -0.0035833162 0.13684022 -0.061242945 0.12279325 -0.06703005 -0.14212589 -0.032560144 -0.0811196 0.035454724 -0.019200718 -0.003623179 -0.1552601 -0.17504439 0.048286144 0.058571782 -0.07356355 0.12667443 0.23517543 0.07702537 -0.07439739 0.16768014 -0.13477753 -0.0062700673 -0.035538394 -0.09822003 -0.089448765 0.10498456 -0.17629983 -0.024535056 -0.06516499 -0.1110353 0.10267218 -0.102876246 0.0780137 -0.05602801 0.20315751 0.03706059 -0.06787043 -0.13108726 0.11088496 -0.001232051 0.004356006 -0.1709102 -0.13029668 -0.09259794 -0.098821305 0.098080195 -0.01116092 0.08164169 0.074078605 -0.0005250272 0.10800994 0.010716707 0.064685814 0.1454709 0.09578187 0.051284023 -0.08233081 -0.20117566 -0.13903208 -0.14650522 -0.06813937 -0.16148373 0.01852639 0.06548697 0.12466689 0.17894496 -0.075128645 -0.14367636 -0.13583492 -0.15230152 0.17954418 0.016164375
0.19810876 -0.11883868 -0.024595587 0.13450353 0.067667045 -0.11399505 -0.032863885 -0.087090485 -0.097963475 -0.07735213 0.06363073 -0.10559746 -0.08529829 -0.035738174 0.07279015 0.085442625 -0.13907988 0.20146698 -0.05910992 -0.067213066 -0.16051185 -0.117150456 -0.11847822 -0.1075725 0.09859033 0.15196007 0.013937177 -0.095587604 0.18171002 0.06042746 0.17158215 0.12865429 -0.07647555 0.0572742 -0.04786902 -0.040416624 0.011481715 -0.053367034 0.117169626 0.031212766 -0.06487722 -0.085399866 -0.065900065 -0.077583626 0.14990214 0.12424411 -0.0765766 -0.14843026 -0.10726433 0.14584279 -0.043198165 -0.07314799 -0.049793333 0.015231805 0.0079828575 0.12523568 -0.1391112 0.111428335 0.15062751 -0.13343962 0.12797278 -0.054208152 -0.12995268 0.120244496 0.0597272 -0.06493369 -0.05528854 -0.13904849 0.09100986 -0.15725082 -0.12727958 -0.015707474 0.026147166 -0.15386795 0.10805609 0.09582276 -0.077031784 0.03316803 -0.0023747224 0.048225787 0.011436416 0.10012628 -0.016315807 0.18028522 -0.13328826 -0.11290893 -0.049545173 -0.12658116 0.14317822 0.15366508 -0.07144778 -0.057909872 0.21885535 -0.022937045 0.06986508 -0.103951536 0.07512517 0.14958936 0.0126663 0.06631137 -0.11172806 -0.04253121 0.12007655 -0.09673825 0.035986412 0.12145327 -0.08747427 0.01719734 -0.087022 -0.11312396 0.052858874 0.17029828 0.029956698 -0.15878962 -0.13965423 0.06556353 0.121034056 0.09561196 0.053503636 0.07645061 0.10306686 -0.11466439 -0.10088383 -0.084402286 0.027781317 0.09564499 -0.0773037 -0.118299425 0.03429549
-0.018815402 0.12289636 -0.09231733 -0.091733724 -0.04432262 0.09031879 0.05996567 -0.0036614465 -0.16497682 0.06286171 0.10834814 0.052192256 0.062906146 -0.035869617 0.09493305 -0.09391596 0.08600587 -0.10410372 0.113049194 0.11841699 0.15033145 0.011444908 -0.05625648 -0.10748684 0.16680299 0.1149072 0.13217254 0.111065015 0.002331078 0.05692814 -0.050599586 0.042345654 0.012581548 0.074906215 0.04370739 0.054681756 -0.10966402 0.05425704 0.1446618 -0.16468436 0.1293603 0.04503858 0.14500643 -0.048167292 -0.16552317 -0.0108891465 -0.037772577 -0.010485737 -0.11831531 0.001275149 0.08683842 -0.1399072 -0.17923036 0.15610908 0.08311888 -0.04250913 0.04225083 -0.1795012 0.09246062 -0.0023148935 0.009085213 0.12749611 0.062268164 -0.04561616 0.0664976 -0.10396385 0.03008822 -0.0870784 -0.15242097 0.02448066 -0.011427414 0.07835587 -0.13834895 -0.1359917 0.1897791 0.030540377 0.09068237 -0.038607713 0.06960967 0.17808667 -0.05385086 -0.12175794 0.15139738 0.053748447 -0.120798245 -0.12539592 0.05894876 -0.09957421 0.07852313 0.10038481 0.20831132 -0.0004534867 0.068576224 0.1393663 0.12319688 0.14173143 0.16986783 0.07378115 0.1586637 -0.026868477 0.03434796 -0.07676664 0.08461699 0.13310522 -0.17315497 -0.06662535 -0.10285574 -0.10757944 -0.05154532 0.16310035 -0.13874315 -0.07819243 0.05936452 -0.015275428 -0.1169306 -0.12275683 -0.06707715 -0.15582192 0.033047993 0.1242269 0.033255804 0.23221983 -0.1823335 -0.049579997 0.006906207 0.09648065 0.051432766 -0.10215824 -0.0007261575
-0.102036394 -0.20595405 -0.12284542 0.12027345 0.17332853 -0.16392335 -0.13798167 0.062402535 0.1584718 0.032476228 -0.041873146 -0.10156776 -0.20643447 0.13489325 0.0075210994 0.15924612 -0.1755928 0.16113059 -0.046877157 -0.16601124 0.118065484 0.022464314 0.0149633065 0.11991862 -0.10875002 -0.02630796 0.18121265 0.15619004 -0.057331603 -0.15565543 -0.004844087 0.12711762 -0.18606412 -0.004598445 -0.0068281284 0.09358493 0.011295512 -0.034150418 0.12363942 -0.056888852 0.14613305 0.13662916 0.1788283 0.083162904 -0.16931562 -0.049668174 -0.004902191 -0.08264272 0.069735505 0.14282423 0.16806711 0.06493585 0.14947748 0.10227327 -0.053807825 -0.07908106 0.055948373 -0.02259742 -0.17223941 -0.14403965 -0.0655353 0.06273138 -0.14706552 -0.06867712 0.09712004 0.097795896 0.16997178 0.13356255 -0.026261603 0.1542851 0.14316455 -0.1273079 0.058633406 -0.064243466 0.15846223 0.14248349 0.072271526 -0.1447 0.040564798 0.0739863 0.103579886 0.08237407 0.07639033 0.15838698 -0.12210982 -0.198993 0.082519725 -0.19688939 -0.015140267 0.14845239 -0.16651995 0.02341945 0.14852135 0.17940913 -0.09500971 0.014969662 0.17878401 0.13400523 -0.011348626 -0.04364137 -0.059307925 0.05806315 0.11059505 -0.053527363 0.028797666 -0.14582251 0.061509173 0.15807372 0.1701205 0.1562621 -0.1595063 -0.11478981 0.084190235 -0.03255237 -0.06222214 0.16538754 -0.040868975 -0.12297641 0.003510931 -0.014433897 -0.17971553 0.03567055 -0.042050116 -0.057540745 -0.10743563 0.13335422 -0.0035839158 -0.00036050368 -0.001030581
0.0095307585 -0.047325507 0.07967042 0.12603867 -0.061212517 -0.095294386 -0.032804128 -0.086266585 0.080463395 0.14242882 0.080877535 0.016089797 0.025410736 0.030867001 -0.014619805 0.037047956 0.006277923 -0.020791434 0.13010813 -0.11685658 -0.045186646 0.09485258 -0.14291808 -0.12450831 0.09167284 -0.014581853 -0.077698864 0.021328606 -0.11273354 0.056455232 -0.064242214 -0.04979066 0.14280723 -0.027782409 0.0766308 -0.09686037 -0.09287593 -0.01257606 -0.10402941 -0.011134768 0.087381296 -0.19661802 -0.111148275 0.060493484 -0.08501634 -0.08248553 0.09838592 -0.090074964 -0.0953489 -0.15484567 -0.029476803 0.0601215 -0.018695028 0.025102988 -0.1305765 0.0081321 0.10674764 -0.009692817 0.17505598 -0.04979068 -0.12298711 0.020010702 -0.022333663 0.07062273 -0.15825042 0.13430373 0.0074619055 0.100970626 0.0154181365 0.14275844 0.07649124 0.13796748 -0.088328 -0.039911896 -0.06966324 -0.012563557 -0.0675383 -0.13047032 -0.09287373 0.16678311 0.08151655 -0.06890619 0.0068735834 -0.11047631 0.010138452 -0.06515397 -0.0028714254 -0.09374404 0.12841469 0.05543878 0.10576319 0.08291561 -0.10704102 0.10963949 0.029154021 -0.04242356 -0.09996555 -0.07234999 -0.015418113 0.12367514 -0.16671278 -0.13000457 -0.026928704 0.006309853 0.11837409 0.10409494 0.12991764 0.06142157 0.033603497 0.06038965 -0.04610098 0.087912805 -0.08490311 0.019305814 -0.13385735 -0.12699609 -0.17398435 0.032569285 0.03079873 -0.11116402 -0.023623424 -0.107261226 0.07758285 0.16399093 0.05787128 0.05464364 0.06585547 -0.054328546 0.019200567
0.056758847 -0.04662401 0.11340267 -0.19942757 0.15107895 0.04962153 0.12672864 -0.10266873 0.19947171 0.059411984 0.04172525 0.23928843 0.16318478 -0.012240976 -0.03271984 0.045532294 0.1271952 0.124901175 -0.11226084 0.056245092 -0.109422036 -0.119727656 0.26901072 0.12808569 -0.18145612 0.02875962 -0.08193155 0.085847214 0.10875381 0.07323337 0.115708485 -0.07547704 0.2083672 -0.098470174 0.057016533 0.04982701 -0.055373937 -0.0056227776 0.099995025 0.12432732 0.021101836 0.18492433 0.10407103 0.13821533 -0.069923416 0.09965209 -0.09492838 0.11292043 0.15306185 -0.06712922 -0.05650175 0.09613102 -0.002863325 0.039761484 0.036538355 -0.057270844 -0.14489907 0.044020556 -0.08057578 -0.12698033 0.0043457514 0.0012172908 -0.001297834 0.080863066 -0.14644057 0.09112879 0.11286345 -0.031561688 0.052997805 0.028963663 0.12247581 -0.12824522 0.032609344 0.14444147 -0.20202757 -0.14398539 -0.07775882 -0.14950638 -0.049490064 -0.29137653 -0.061321087 -0.024401652 0.19413465 -0.16045395 0.13634945 0.0990524 0.032123428 -0.16419809 0.06659239 -0.081873365 0.079797216 0.037853155 -0.045422062 -0.011852079 -0.03221112 0.03824856 -0.0558593 6.174581e-05 -0.21158648 0.12506613 0.12631758 0.025680747 0.2886343 0.1155948 -0.013153887 -0.0033543492 0.19490911 0.12072245 -0.048594955 -0.1060889 0.022265198 0.1522208 -0.022391537 0.18342903 -0.0063171173 0.12568253 -0.12323495 -0.22098519 0.18864284 -0.10745856 0.07772724 0.009140523 -0.13902904 0.045639247 -0.027436553 -0.12844162 0.05856702 0.06588426 -0.0007706451
0.099583134 0.1220072 -0.09285528 0.104891896 -0.11251299 -0.07774862 -0.17136888 0.08795024 0.09738768 0.019046517 0.11913199 -0.053268474 -0.1661044 0.1508523 -3.0042462e-05 0.09200635 0.014010082 0.054736413 0.12918888 0.09729909 0.11438414 0.1270285 0.1458722 -0.0970886 0.088932976 -0.079494916 -0.020200597 0.06845573 -0.113823876 -0.10482729 -0.009002295 -0.08251725 -0.15947708 -0.15508701 -0.17683509 0.085313976 -0.044221234 0.15616323 -0.03751621 -0.14737734 -0.011576537 0.02323002 0.12700178 0.033239014 0.14348562 0.005316252 -0.15566088 0.09349639 -0.05487155 0.07137907 -0.07683804 0.13677825 0.16950107 -0.13718773 -0.1269739 -0.044093944 -0.048713014 -0.020502074 0.04576509 -0.122291625 -0.048066135 0.00404524 -0.13523765 -0.17622957 -0.078873925 -0.044111528 -0.13643295 -0.15482728 0.10694715 -0.07048887 0.123483054 -0.08584961 -0.14215614 0.03420371 -0.14474578 0.17047131 -0.032949205 -0.10674129 -0.012268461 -0.06390863 0.10938061 -0.02525952 -0.17915781 -0.14777626 -0.026506186 -0.0013863075 0.105722986 0.14060575 -0.12316112 -0.16422826 0.089656875 0.0070691593 0.13036832 0.15045495 0.14335458 -0.09963871 -0.0644981 -0.028612673 0.10682973 -0.1559414 -0.04716135 -0.07316862 0.00032803416 0.079174496 0.02501704 -0.12311016 -0.076185726 -0.16515966 0.042301003 -0.16270642 -0.04170674 -0.03323608 0.12430414 -0.055811416 0.0053871735 -0.105662644 0.14807269 -0.109796055 -0.036800865 -0.15020289 -0.11664334 -0.039944522 0.054179158 0.14611208 0.12911645 0.009858314 0.043077573 0.058468953 -0.020099303
0.04430653 -0.1553508 0.1544412 -0.07867165 -0.057637274 -0.09136321 -0.079792775 0.11638528 -0.035223227 -0.12951235 0.15280142 0.098292 -0.08331895 0.07299319 0.1354066 0.1302226 -0.12167379 -0.039556276 -0.014196707 -0.054812957 -0.020914627 -0.10796104 -0.0046038623 0.18925367 -0.16786352 0.008684215 -0.0023223986 -0.059477333 0.10060389 -0.11040773 0.07092286 0.1106126 -0.02831648 -0.07269036 -0.0035672593 0.076891795 -0.12439352 -0.1281522 0.18655902 -0.0617942 -0.06864399 -0.04982184 0.22211803 -0.023102177 0.0076998062 0.016433125 0.015890028 0.15796134 0.11059932 0.064764984 0.09891587 0.03739156 0.19978121 -0.13546231 0.061547387 0.14829712 0.03515727 -0.13706943 -0.11017202 -0.044905774 0.17883812 0.22727665 0.16844991 -0.1493489 -0.08043677 0.09418076 -0.033930417 0.078423284 -0.10117198 -0.01834078 0.048852507 -0.036229484 -0.07363514 -0.010833371 0.17744516 0.023797402 0.04285074 0.16522284 -0.007943377 -0.0822811 0.23220575 -0.026056912 0.059952494 0.19249015 -0.14929415 -0.04721183 0.11964215 -0.22772354 0.000484518 0.02063878 0.17403027 -0.11668841 0.01706155 -0.107003644 0.007122563 -0.05695632 0.17027909 0.06795918 -0.033245992 -0.13746737 -0.037875608 -0.022464693 0.15145412 0.1687012 0.1027791 -0.18220975 -0.12369176 0.04374056 0.095686726 -0.072403125 -0.052569024 -0.18225569 0.0015766345 -0.081479274 0.16920206 -9.534415e-08 -0.1306253 0.1838926 0.18729325 -0.12833898 0.08586849 -0.13008547 -0.05720143 -0.0812875 0.025651965 0.010638108 0.120064154 -0.03140461 0.013056736
-0.13645576 0.1965558 0.14535046 -0.017355403 0.009289739 0.19028138 0.048039302 -0.14256689 -0.05449745 0.039954487 0.16118427 0.10425869 -0.16888547 0.19333148 -0.014970214 -0.043693457 0.09663996 -0.020526836 -0.013301418 0.034290023 0.08085593 0.078123845 0.057985857 -0.08094693 0.050078224 0.019563342 -0.039202943 0.005583424 0.006060353 0.14067331 0.120436125 -0.06348622 -0.022342706 -0.13023053 -0.038540922 0.07454352 0.0024726144 0.14964005 -0.06288771 0.10029447 0.028341075 -0.09136079 -0.19296375 -0.004663283 -0.14375739 -0.03319916 0.09599698 0.15909047 0.16743086 -0.12562309 -0.046676636 0.05977588 0.046096478 0.069959104 0.10682383 0.038506363 0.06736695 0.027001712 0.06490317 0.04481425 -0.0011247448 -0.1431193 -0.015554003 0.08019433 -0.0072931596 0.22225012 -0.03776297 0.06513813 -0.017259156 -0.12964372 0.12836361 0.08313818 0.11483545 -0.09890388 -0.082276225 0.054699406 -0.13780317 -0.23592399 0.16895431 -0.12433669 -0.15566972 -0.08351891 -0.19202329 -0.16533498 -0.12694055 0.075537935 -0.12249378 -0.104078285 0.055176537 0.12853327 0.10522095 0.001193481 0.051804204 -0.1793928 -0.055403356 0.13482013 0.14674832 -0.014367576 -0.012446338 -0.104707934 0.06026177 -0.005825182 -0.12518626 0.1288372 -0.04464839 -0.0055723963 0.03180722 -0.15195934 -0.16827713 -0.10208082 0.056231182 -0.00080146536 -0.17289154 0.22258274 -0.0037686066 0.00854151 -0.034990326 -0.13017482 -0.10315826 0.11080222 0.13655378 -0.14640068 0.09262933 -0.08024214 0.0982762 0.030823205 0.16434048 0.16255215 0.03547205
0.11417871 0.04448694 -0.12561847 0.15268742 0.14542404 0.04130229 0.050475053 -0.16339616 0.16569813 -0.13220085 -0.04650412 0.1632656 -0.059473936 0.014908393 0.00890021 -0.10902643 0.16032125 -0.05237736 -0.08671334 -0.07365495 -0.032202993 -0.15633683 0.08430011 -0.06832289 -0.16365008 0.01395496 -0.14913724 -0.02211634 0.07751067 -0.11558969 0.010170405 -0.11925297 -0.030928683 -0.15500857 -0.07021014 0.009514373 0.013597235 0.0064983605 0.0011957972 -0.00039517952 0.10968311 -0.12142761 -0.054578207 0.025375994 0.059447654 -0.077928424 -0.098752014 0.13173954 -0.14125232 -0.11009225 0.14189608 -0.053114332 -0.095552966 -0.10803932 -0.10819319 -0.05633566 -0.018298758 -0.15563467 0.111132 -0.088946864 -0.11089957 0.12676445 0.15244822 0.123664476 0.052721955 -0.127226 -0.057731837 -0.062143713 -0.07195146 0.07219599 -0.10366729 -0.04725112 -0.093707144 0.0633312 -0.16267772 -0.07908756 -0.12023197 -0.06393732 -0.16248888 0.12875155 -0.15526809 -0.09217648 0.0119257495 -0.14143889 0.021313045 -0.059583623 -0.095605694 0.15754254 -0.041344 -0.046523295 -0.16024016 -0.065251425 -0.0771939 -0.14529803 -0.10880493 -0.056363545 -0.0011208144 0.09892258 -0.01318157 -0.115115225 -0.113595866 -0.10219163 0.08371631 0.06899576 0.033131953 0.07210616 0.024023606 0.025432255 -0.07680447 -0.12558313 0.04530403 -0.11398767 -0.01478523 -0.01872636 -0.008771104 -0.04333149 0.025198422 -0.0084575 0.09187318 -0.15688564 0.09863797 -0.005759924 -0.10297224 0.08593624 -0.104679145 0.07787011 -0.0994544 -0.122316934 -0.0015307971
0.022089526 -0.06971307 0.03670641 0.0011562379 0.041507863 0.16948068 0.13981265 -0.07351962 0.038987745 0.21232578 0.011761934 0.085522585 0.060014658 0.066239595 -0.10947998 0.10602374 -0.080754146 -0.15229851 -0.009499721 0.21405032 0.1362802 -0.15734029 0.2122681 0.2253193 0.06292809 0.014528753 -0.19989467 -0.04393769 0.17303453 -0.1418225 0.010903186 0.020226069 -0.036636464 -0.011720196 -0.07890514 0.08424374 0.0705736 0.045845345 -0.029163085 -0.12588115 0.098074645 0.163265 0.06751679 -0.028953707 -0.04911259 -0.10565666 0.18236119 0.16884144 0.021884423 -0.0020021067 0.14106847 0.027585246 0.016495882 -0.11140532 0.07346145 0.030801937 -0.05361904 -0.080845535 -0.0031369529 0.025010748 0.019714419 0.14087272 0.23755255 0.14421979 -0.10734603 0.056064703 -0.004179239 -0.12133021 -0.12150208 0.03695965 -0.08856606 -0.05673604 0.054040607 0.0140255885 0.002585254 -0.026394702 -0.0020580906 -0.040210303 0.07987196 0.11143008 0.17923597 0.07211418 -0.060712855 -0.017315991 -0.07106739 0.00085370237 0.21285464 0.04006392 0.16898116 0.03673781 0.16603923 0.110933475 -0.13365895 -0.03693689 -0.009938519 0.036300052 0.10840221 -0.17301127 -0.06444275 0.046939984 -0.15300685 -0.110963985 0.24332055 -0.11816873 0.06125254 -0.048661876 -0.05241062 -0.027279647 0.09192187 -0.101643614 0.15336736 -0.15360402 0.03631583 0.17481123 0.17314807 -0.012487687 -0.15375961 0.0055933846 0.122539625 -0.108992115 -0.07041875 -0.050435886 -0.03600916 0.09038728 -0.08186357 0.09598221 -0.04457513 0.1325085 0.021943344
-0.15354316 0.10994815 0.11237973 -0.056239534 0.102332145 0.035840996 0.115868285 0.09435229 -0.08845208 0.054265074 0.070793286 -0.017506454 0.06418537 -0.14303093 -0.15703897 0.12878074 0.022950366 0.08264745 -0.013930321 0.005194948 0.14060922 0.03659629 0.14882828 0.13290061 -0.15408356 -0.08854069 0.03144069 -0.028834617 0.12238355 -0.10133078 -0.09279037 -0.04001953 0.12853259 0.14430353 -0.11507283 0.12317181 -0.1598765 -0.10360029 -0.104109116 0.109249964 0.022725536 -0.07576678 0.042409915 -0.099046186 0.15175699 -0.11792914 -0.072119586 0.007938244 -0.14984176 -0.03357163 0.08651814 -0.059943855 -0.03157736 -0.14810213 -0.0071839676 0.04497904 -0.0520078 -0.15768796 0.080092914 -0.15590774 -0.018296279 0.062313724 0.16238368 0.15709104 -0.06803495 0.17920457 -0.1556071 -0.1554242 0.14759028 -0.17765866 0.043416638 -0.10469569 0.11666424 -0.00035504444 -0.15618312 0.09360544 0.12061043 -0.07921491 0.0692191 -0.04741434 -0.11109018 -0.051101517 0.21474835 -0.02586842 0.08610334 0.091241576 0.11653565 0.15705526 0.04398333 0.096533805 -0.006275238 0.12745465 0.10206458 0.15057793 0.16201589 0.018015066 0.13111678 0.07544762 -0.0069868704 -0.16776374 0.12351516 0.078081645 0.23762517 0.11409672 -0.11585232 0.08241726 0.09328809 0.08997823 -0.064439796 0.071605295 -0.059790965 -0.1287285 0.02935359 0.093506075 0.12715288 -0.12217914 -0.1797979 -0.12665969 0.18804228 -0.11562388 0.07156993 -0.012558077 -0.07255294 -0.00619614 -0.18535674 -0.054942228 -0.043146938 0.12614056 -0.004759707
-0.11852439 0.0040462306 -0.12041022 0.0067624245 -0.007837725 -0.15674403 -0.004831522 -0.041804437 0.15655118 -0.02493347 0.124962576 0.115484804 -0.024057647 0.040439785 0.13671523 0.08587037 -0.1201364 -0.11988965 0.14289515 0.12401014 -0.10195599 -0.14154635 0.055374697 -0.10906894 -0.14813064 0.030262724 -0.034921385 0.07884416 0.1611942 0.13583049 -0.14544356 -0.0064108483 -0.13008349 -0.015180982 -0.04782352 0.06260892 -0.006833912 0.121004276 -0.042919863 -0.10570366 0.021196406 -0.13359053 -0.111113355 -0.04682118 0.09740274 0.16070846 0.045582373 0.15674542 -0.088822074 -0.076506265 -0.06343935 -0.1276514 0.07659973 -0.13732487 -0.15654926 0.107893854 -0.00027552928 -0.08999925 0.017211884 0.15419185 0.10399531 0.14654943 -0.019053405 -0.15478452 -0.1214764 0.033500556 -0.02982117 -0.13570489 0.10489833 0.030152554 0.1409533 0.009650493 -0.14415623 -0.10670766 -0.094974525 -0.086840436 -0.030524457 -0.033328023 -0.07022587 -0.13323492 -0.061326295 0.024469823 -0.0023609633 -0.06387124 0.11712862 0.055491596 -0.05067722 0.13416953 0.05120599 0.027273243 0.12497069 -0.11979449 -0.07632836 0.022376738 -0.10228581 0.018292366 -0.030195894 -0.08276538 -0.0748207 0.035821605 0.052497745 0.12632027 0.13925144 -0.09782626 0.10540385 -0.16559741 -0.072102845 -0.13106844 -0.111443065 -0.07178354 0.07431557 -0.10414264 0.049452312 -0.035274155 0.037910454 0.017968282 -0.09204782 -0.039331276 0.15437554 -0.109871395 -0.08092267 0.03970131 -0.08743788 0.07481499 -0.055982094 -0.1398793 -0.06696968 -0.15654789 -0.0039532585
-0.13384606 0.08272399 0.116114646 0.017257705 -0.15653506 0.12382255 0.019224642 -0.114155784 -0.14159581 0.04086924 -0.12987079 0.13081686 0.001696993 0.17237455 0.019394724 -0.059014782 -0.06418645 -0.08154599 0.18946028 0.14508952 0.20124479 0.027349766 0.010212128 0.16997662 -0.0638949 -0.016623162 -0.04835097 -0.08513903 0.17008871 0.12941486 0.15346268 -0.18377937 0.113778204 0.1328311 0.087598264 0.15637909 0.16185403 -0.13082804 0.022068921 -0.16210593 0.12042432 -0.05683464 0.18796784 -0.052511122 -0.008603903 -0.21154948 0.20610504 -0.01581541 -0.028976517 0.044612475 0.16385418 0.025879094 0.12688681 -0.10718139 0.11497585 -0.07554655 -0.08195566 0.1007269 -0.099173896 -0.11981363 -0.13398802 -0.007702822 0.008402605 0.20457496 0.04748469 -0.054665983 0.022855043 0.136697 -0.12532538 -0.13366672 -0.043186005 -0.12875535 0.032927707 0.0668169 -0.06272761 -0.08109634 -0.041242976 0.0083592525 0.10734311 0.30391806 0.13520876 0.023276191 0.030346937 0.0077789603 -0.070088536 0.0035073406 0.12341198 -0.028496072 0.1875486 -0.14862476 0.06789267 0.074676596 0.046026923 0.15798528 -0.014078451 0.020289576 -0.120279916 -0.1207121 0.17569065 -0.06787977 0.059008434 -0.03831544 0.16252623 0.04106464 0.090800494 0.1250348 0.07096734 -0.10894907 -0.0011029224 -0.028176203 -0.10932581 -0.07000385 -0.09217309 0.13033704 0.17577617 0.04825919 -0.14620297 0.022250352 0.2175705 -0.013640576 -0.012082327 0.05044838 -0.10265452 -0.16297126 0.07622289 0.14451669 -0.07746509 -0.0557738 0.026921703
-0.07929907 -0.011382238 0.013207199 0.11272761 0.12053166 -0.04457263 -0.15887854 -0.13934459 -0.042348385 0.029905846 -0.009293607 0.06882337 0.12472441 -0.02034001 -0.03680632 -0.0999996 -0.08618898 0.1510715 -0.17161733 0.056779705 0.20161003 -0.0134030655 -0.12939885 0.03520937 0.12220082 0.13171844 -0.029854618 0.13737807 0.1419012 0.14693965 0.09265205 -0.17803586 -0.07289281 -0.04037947 0.13735965 0.0622754 0.07794984 -0.15849769 -0.13306375 0.08943036 -0.009125715 -0.14317657 -0.078837 -0.015800359 0.014866929 -0.011107487 -0.053713527 -0.01870562 -0.041327473 -0.13573886 0.036954142 -0.041277744 -0.16869433 -0.115040965 -0.12464882 -0.084481 -0.14410612 -0.11033909 -0.05169356 0.094513476 -0.06493353 -0.19514798 -0.14473842 -0.103441104 0.17814231 -0.048889153 0.02471593 0.07093039 0.09643219 -0.18027371 0.08355751 -0.124100275 0.044088054 -0.12343001 0.12949006 -0.04362208 -0.08297542 0.17677635 -0.103663646 0.10111948 0.17734341 -0.04417786 -0.04228759 0.04751608 -0.065009356 -0.041967787 -0.18941948 -0.047977716 -0.016915342 0.20322229 0.122098334 -0.04961859 0.17893186 0.08887912 -0.14952588 0.06024032 0.11166448 0.117366165 0.05740873 0.16921525 0.120743185 0.0036152045 -0.06973819 -0.1526201 -0.19465281 0.05939827 0.055706557 -0.09926488 0.012954521 -0.031802587 0.14088763 -0.13285361 -0.08132329 0.03931892 -0.092737675 -0.11519009 0.11870244 0.0012081543 -0.00955641 0.11328189 0.00050805917 -0.119009055 0.09003723 -0.03583354 0.023324069 -0.028927037 0.1484661 0.084313735 -0.0049789017
-0.14988773 -0.0071676616 0.101609856 -0.03703357 -0.0029664782 0.07566739 0.08532476 -0.0055675167 0.06517398 0.09894864 -0.04253468 0.2175979 -0.018097656 -0.01205773 -0.089440875 0.11092905 -0.14414696 0.022974467 0.061427798 0.12690003 -0.050229136 -0.08283784 0.0592003 0.052882373 0.078684255 -0.14088586 0.07680358 -0.093856834 -0.02154365 -0.10643748 0.09172455 -0.17340736 0.08632165 -0.11713109 -0.06571332 -0.0030416574 -0.0053490293 -0.053985503 0.08575908 -0.1726451 0.14208229 -0.09861625 0.13381082 -0.13105457 -0.20450187 -0.012072851 -0.081979685 -0.0054225144 -0.121892236 -0.15083012 0.07800036 -0.10752348 -0.1979314 0.14534283 0.0939856 0.0555442 0.051172126 -0.074897856 0.12678236 0.12986846 0.10787786 0.23805936 0.038059674 -0.028723491 0.1643325 0.020015283 -0.14406008 -0.065217435 0.10990566 0.05222136 -0.17511745 -0.047458827 -0.13925126 -0.11417524 0.0016058956 0.049999926 -0.005524899 0.097171195 -0.04037692 0.05538446 -0.017314553 -0.074345775 0.24773772 0.12563856 0.08057059 0.16274671 0.039432537 -0.12651575 0.0918639 -0.06694413 0.1878343 0.15590574 -0.057108007 0.11138094 -0.12874056 -0.058113802 0.07915709 -0.18225 0.03095942 -0.04548297 0.080440976 -0.14341338 0.084661424 0.14100578 -0.06194973 -0.13896254 0.13575405 -0.16514142 -0.055522293 0.022091787 -0.16307521 0.054641314 0.14019519 -0.08554491 -0.08044141 -0.15395306 -0.1268985 0.11196386 0.18764263 0.0070631076 0.059556875 0.12906237 -0.112068035 0.048139304 0.19959596 -0.030849773 0.031671375 -0.18574521 0.031685002
-0.09721019 0.010548238 0.15384394 0.12049069 -0.16025823 0.046362925 -0.08812051 0.18589106 -0.07620818 0.10537262 0.16281602 0.012319588 0.20269541 0.119491175 0.10397583 0.08896739 0.19586031 0.15331915 -0.15166524 0.10743858 0.115866005 -0.063810796 0.06805147 0.21738908 -0.033738162 -0.047974337 -0.01660739 -0.10893534 0.11520981 0.10446388 -0.030730437 -0.061772455 0.15616778 0.19447719 0.06304666 0.106669135 -0.10216021 -0.12140867 -0.107039094 -0.11279155 -0.0238618 -0.17809758 0.18862726 -0.07581395 0.26706365 -0.09643701 -0.081105225 -0.02355974 0.06921155 0.0133826705 -0.18531048 0.04536431 -0.14258307 -0.17676727 0.035369903 0.010378364 0.20232873 0.025831474 0.11452705 0.0128084235 -0.13938254 0.021250548 -0.012205774 0.14621708 -0.009338755 0.18907045 0.10205874 0.12482673 0.099321306 -0.12885526 -0.20617385 -0.09985093 -0.05379166 -0.12692608 -0.13510753 0.18470447 -0.10418357 0.00212345 0.20134756 0.1474183 -0.07113908 -0.11447687 -0.11592005 0.07307402 0.015778674 -0.03853742 -0.11034238 0.17697477 -0.053038094 -0.17226957 0.049866185 -0.15222497 0.10725244 0.019755617 -0.067139745 0.19520769 -0.17025726 -0.07215098 -0.0035962954 0.112836346 0.10171798 -0.01193279 0.10798412 0.17070235 -0.0055182045 -0.04603869 0.034348853 0.008035362 0.06278483 0.16104664 -0.091988556 0.106156334 0.09980119 -0.039939187 0.03414966 0.018841505 0.04416454 -0.07015156 0.18137945 -0.032972254 -0.121086664 0.004596591 0.08199674 -0.09275577 0.2031218 0.059822723 -0.09793242 0.13048603 0.0073838495
-0.07496593 -0.16126338 -0.13508293 -0.15110919 -0.049745377 0.044840977 -0.14081182 0.06865492 0.02478931 -0.013581799 -0.0891499 0.16663273 0.09756096 0.030748319 -0.10547852 0.071544856 0.12594786 0.038333215 -0.04727873 0.021785822 0.13641985 0.051814012 0.13304317 0.15852702 -0.0785418 -0.088571295 -0.010513818 0.13838643 -0.14388008 0.11490365 0.008986677 -0.13553172 0.1816044 0.099854484 -0.044895854 0.025046 -0.09553903 0.0018920703 0.004409319 0.014577774 0.12399594 -0.0084062 0.12039913 0.049927875 0.011519072 0.0015634794 -0.07044105 0.17610003 0.07417735 0.15519068 0.15284364 0.105732895 -0.058991235 -0.041165844 -0.04470102 0.16649854 0.03367006 -0.16739312 -0.15805946 -0.052517164 -0.06732069 0.15321258 -0.06379366 0.16846395 -0.082906336 0.12908162 0.093214646 -0.0822408 -0.1170829 -0.09043287 0.056830708 0.093735114 0.17276688 0.053058527 0.12667516 0.0099973865 0.10415213 -0.14541611 0.031121109 0.07608336 -0.059154566 -0.07729739 0.10146096 0.050650515 -0.057591867 -0.18404806 0.15072237 0.07850198 0.03192201 0.06685974 -0.117679626 0.17086624 0.10107544 0.15958032 -0.09075274 0.14989187 0.08456984 -0.10470896 -0.043078076 -0.13562697 0.05341215 0.057181753 0.21331261 -0.102926105 -0.035342515 -0.16007797 0.04810011 -0.14493006 -0.09260483 0.0023440355 0.03652888 -0.05506435 0.035445955 0.08027858 0.085185505 0.21448602 0.12999573 -0.054177377 0.17193678 0.102702454 -0.04099804 -0.10478776 0.111746565 -0.03568178 -0.0043287845 0.15361679 0.03545863 -0.006726107 0.039586242
-0.09146296 0.112995796 0.15197001 -0.062102918 -0.119256176 0.0745538 -0.025983864 -0.11930963 0.070066884 0.10467728 -0.18627563 -0.09050564 0.1712808 0.121017195 0.0077141705 -0.11647703 0.17194697 -0.16689186 -0.08524108 0.053624075 -0.062484775 0.12750201 -0.14251855 -0.12633435 0.032031476 -0.048252434 0.070733726 -0.006318848 0.1018468 0.08919272 -0.12767075 -0.14197369 0.17685626 -0.0042809327 -0.06369241 0.049896605 -0.1007023 -0.04350811 0.09243836 0.089621 0.055057302 -0.14280558 0.14073528 -0.09027885 -0.14258139 0.028972654 0.008077502 0.049811706 0.034753494 -0.16108721 0.15242963 0.09727749 0.079105504 0.14341171 0.06938471 0.13939954 -0.021258138 0.12813269 -0.028525546 0.12633297 -0.16184534 0.065168954 0.075152755 -0.062482055 -0.052678507 0.010524764 0.14691894 0.01347303 0.16101828 -0.07752042 0.15132402 -0.007317244 -0.10704284 -0.16371244 0.21416391 0.04492933 -0.07790057 -0.08887463 -0.0030717114 -0.04215517 0.06595649 0.10442476 0.04406977 -0.088908345 -0.09617846 0.13492626 0.19239032 -0.046444967 -0.2046678 0.14558071 0.04019693 -0.116464615 0.03965453 -0.12053522 0.04210699 0.025478512 0.0951515 0.009193181 0.17205755 0.020657178 0.048138957 0.10782661 -0.046675045 -0.007962635 0.007259578 -0.010210592 -0.05314524 -0.11844526 -0.06539383 0.14316683 -0.0764008 0.112971686 -0.18062602 0.14476758 0.052141875 -0.024907758 0.1276987 0.11087346 -0.08999406 -0.071801715 0.019579967 0.16568375 0.11601435 0.0035136614 -0.08461155 -0.09257676 0.11003619 0.14321892 0.0062832125
0.14205179 -0.2453742 0.071224004 -0.036862362 0.026959855 -0.14174119 0.1174042 0.08390953 0.103527695 -0.25190344 -0.10002171 -0.18504474 0.061123997 -0.0016850126 -0.07159319 0.13783368 -0.14454737 -0.0030757135 0.15396906 -0.110914856 -0.044567555 0.095415354 0.19010738 0.05946267 0.14256603 -0.008663038 -0.11011953 0.14094962 -0.0012198671 0.03437624 0.21571076 0.24846853 0.052795026 0.1062142 -0.14368396 0.13219427 0.06515168 -0.101870425 0.18180406 0.19955687 0.11328873 0.0160952 0.007966201 0.14136139 0.10204099 0.14920951 -0.15607601 0.087737784 0.0965587 0.109176114 -0.15064237 -0.045691587 -0.018281452 0.08449306 -0.04877079 -0.07808254 -0.006445025 0.07598705 0.036177725 -0.09688648 0.10978768 0.050716892 -0.23371704 -0.0069686794 -0.074179046 0.092114635 -0.044785455 0.059792116 0.020568391 -0.17059998 -0.14191811 -0.16279785 -0.17246613 -0.10015209 -0.07335807 -0.013922608 0.0057340264 -0.061550707 -0.15723887 -0.18818738 0.03149512 0.120209195 -0.025293337 -0.00929512 -0.1118432 -0.13350862 0.1675345 0.16444957 -0.09821462 0.13633636 0.0021072873 -0.1300763 0.11100776 0.104611374 -0.15489848 0.02236238 -0.12491046 0.20228387 -0.11441971 0.10270717 0.060767666 -0.052770115 0.25414124 0.09515828 0.09224025 -0.04147305 0.06818175 0.031871565 -0.09145943 -0.11290127 0.020216124 0.06167493 0.20994927 -0.01859982 0.0546212 0.034100473 -0.075203694 0.06808674 -0.22682227 0.0847303 0.02340506 -0.009546007 0.029752342 -0.09205214 0.047904793 0.001945656 -0.010048029 -0.06716684 0.0340016
-0.19551235 0.06858781 -0.06103005 -0.10888279 -0.05538052 0.002702328 -0.13537435 -0.085659616 0.123485975 0.19973713 -0.017709792 0.16382521 0.20246248 0.017579945 -0.17510818 0.02480917 -0.12174398 0.14352064 -0.16466533 0.08919972 -0.12336881 0.038972065 -0.014733444 0.16018592 0.047469012 0.010127308 -0.11135705 0.06916514 -0.020379392 -0.017393822 -0.008139048 -0.078995645 0.0608566 -0.11917749 0.1624028 0.17909385 0.12095971 0.03216227 -0.00902067 -0.10964497 0.16169763 0.037479743 0.06109659 -0.037238143 0.12814987 -0.14182647 0.122341484 0.053950295 -0.102918334 0.12958819 -0.12584186 0.18258525 0.05996829 -0.11605353 0.08949088 -0.10889412 0.14623716 0.076123215 0.23036008 0.07978478 -0.0021686205 -0.07643086 0.06603664 0.09982015 -0.094168656 -0.15813771 0.0029393518 0.109501384 -0.03382961 -0.096763104 -0.046181794 -0.06535595 0.15297644 -0.10054842 -0.15130809 0.18578583 0.00994434 0.1713396 -0.06527349 -0.05170437 0.071716025 -0.0381259 0.040621433 -0.1606822 0.15181127 0.14558299 -0.14183682 0.09336225 0.04837782 -0.15833525 -0.00077201705 0.1886366 0.115804814 0.054389633 0.027506823 -0.030968409 0.12373482 0.033909485 0.06299942 -0.16870123 0.04411743 0.13648441 -0.02269442 0.011108465 -0.06233723 -0.13173518 0.021566426 -0.09449871 -0.09125584 -0.019494148 -0.009969598 -0.03325423 0.12435545 -0.1511092 -0.04560955 -0.11457299 -0.017938895 -0.15444893 0.10144218 0.10879307 -0.13454117 -0.032778576 0.092628 0.13836841 0.08598297 0.08538689 0.10463406 0.102840796 0.026752839
-0.026955709 0.07689716 -0.11142554 0.082353935 0.033920698 0.13652363 0.15100062 -0.1028926 0.14519997 0.02077046 0.15601057 0.10133498 0.19855008 -0.18319987 -0.09347631 -0.20369223 -0.08164793 -0.11373658 -0.1720878 0.065962516 -0.11552331 -0.02438527 0.03341284 0.14083713 0.090513594 -0.035918415 0.11555172 0.23717712 0.2108212 0.16216761 0.022526314 0.03544872 -0.040095013 0.14601529 0.04694042 -0.04711237 -0.168068 0.058899477 0.12904602 0.16891953 0.07899168 0.16819103 0.09899509 0.112980306 0.043185063 -0.044209167 -0.20444581 -0.017585736 0.06693477 -0.10097587 0.024211831 0.04922119 -0.20008336 -0.0054656216 -0.15883726 -0.13920423 0.054443106 -0.08885699 0.011781 0.11027036 0.21745989 -0.045593295 0.018196726 0.105102494 0.093737036 0.02691688 0.123771735 0.014004462 0.16133718 0.101565585 0.080932036 0.11232879 0.13988692 -0.020631455 -0.07760816 -0.0682835 -0.0918564 -0.11621305 -0.08195597 -0.06517255 0.01093055 0.009926172 0.13489345 0.1560379 0.07971247 -0.06247576 -0.06013132 -0.08142656 -0.051046126 -4.432723e-05 0.10376712 -0.0071714018 0.025135573 0.16802037 -0.19388044 -0.17898491 0.1147442 -0.08176511 -0.073854186 -0.02870119 0.0025824064 0.13824402 -0.121393755 -0.048265606 -0.038922455 0.12595358 -0.110421814 0.17660388 0.14634515 -0.09306859 0.16923262 -0.172917 -0.005205129 -0.022808228 -0.044996455 -0.070195176 0.06994846 0.1201286 0.15187721 0.12994963 0.0004710827 0.20227103 -0.0632235 -0.037701935 0.11828393 0.058976084 0.14492713 -0.067176014 0.010947071
-0.16474862 -0.06618288 0.18412384 0.116056725 0.009291263 0.0029387875 -0.0160274 0.027931048 0.15778925 0.12171054 0.13893165 -0.00997089 -0.026060354 0.22064601 -0.06579522 0.16796836 0.117081515 -0.04676923 0.059766214 0.21046187 -0.115688056 0.057274025 0.033712126 -0.032367304 -0.10134567 0.08141346 -0.16631547 0.1520954 -0.10788627 0.10865275 -0.10223474 -0.08903143 -0.072704256 -0.045577645 -0.12255694 -0.13615656 0.16485469 0.007819025 0.048106045 -0.10221179 0.11651979 -0.19311422 -0.08562367 0.16194147 0.10968417 -0.1945823 0.058046408 -0.13151881 0.009258158 0.06919348 0.120747715 -0.08952072 -0.0009088563 -0.06219959 0.002768863 0.018425837 0.14524518 -0.11599988 0.016866544 0.010300021 0.06913087 0.011717564 -0.096592225 -0.002645168 -0.20033666 0.12274714 -0.19711186 -0.1382173 -0.043613445 -0.113439955 0.07421686 -0.08914172 0.014337032 -0.14225887 -0.07064332 -0.2099767 0.0818814 -0.07526323 0.07289867 0.0040195803 0.15930212 0.043367006 -0.19070522 0.06536765 0.08876507 -0.051247355 0.07732905 -0.057304032 0.13667557 -0.14973645 -0.14941324 0.13917512 -0.19651118 0.06641248 0.067747094 0.14851497 0.14477947 0.19959918 -0.14437668 -0.1270492 0.10172062 0.105371356 0.0797099 -0.10411419 0.124696374 0.047683507 0.023705041 0.11626076 0.004191439 -0.12624589 0.053608958 0.033407908 0.0012788405 0.15567066 -0.04252196 -0.09409516 0.09512492 0.06282113 0.062096268 -0.0059362757 -0.11772902 0.090919726 0.1901987 -0.025355209 0.19825523 -0.112701535 0.106060326 0.10241424 0.013741653
0.0117765665 0.1178381 -0.061636865 0.116237774 0.14976321 -0.11586081 0.04898615 0.15176477 0.104172334 -0.12059009 -0.01716961 0.12187083 -0.060064815 -0.14133467 -0.09594586 0.117754266 -0.15070294 -0.14109313 0.13960911 -0.026494205 0.12877424 -0.03495267 0.03455478 -0.09395145 -0.14867002 -0.09215257 -0.106211655 -0.14023747 -0.12629667 0.078881085 -0.087685294 -0.11714905 -0.013757288 0.06341408 -0.13707468 -0.095102675 0.08308081 0.12178992 -0.07803714 -0.15254223 0.040740833 0.07201947 -0.1419536 -0.064897135 0.08628689 -0.1442954 -0.07774887 0.14805831 0.14437346 -0.058346324 -0.09371472 -0.15015364 0.020351231 -0.09903012 -0.16291237 0.033464476 -0.15462372 0.15452777 -0.099081665 -0.1193282 -0.15981883 0.05141355 -0.10864073 -0.12247351 0.012255266 0.14132582 0.06284653 0.05984594 0.083989754 0.007300332 0.016515702 -0.13977577 -0.14179079 0.0055994987 0.14789306 -0.12151766 0.022629201 0.08630215 0.0015171468 0.06853318 -0.0013420582 -0.057857424 -0.09476222 0.01868242 -0.16587642 -0.12880978 0.13360475 0.059716105 0.15482776 0.14204295 0.14636405 -0.04349111 -0.120867684 -0.09295176 -0.006653011 -0.14454448 -0.10023798 -0.008268788 0.07151605 -0.16234244 0.13179348 -0.13280024 -0.12977763 -0.03554043 -0.13531816 -0.028776914 -0.11297192 -0.07330719 0.019722834 0.07244964 0.07708278 0.024509504 -0.12896363 0.018408075 0.04152192 0.048210844 -0.118338615 0.0055668503 0.14851107 0.14248978 0.054651633 -0.012046903 0.09745525 -0.028004855 0.0784374 -0.0076745152 -0.13949 -0.13547955 0.0
0.15331177 -0.052305706 -0.025929883 0.15925223 -0.1392695 0.0206855 0.16489504 0.099447824 0.02043485 -0.11030283 0.02315687 -0.18099877 -0.1266466 0.10963979 -0.108465545 0.025290592 -0.12293555 0.08472722 0.19186082 -0.015479628 0.062850036 -0.07405985 -0.010896454 0.13766283 -0.06769446 0.04036159 0.18753536 0.07869917 0.012640683 -0.057636857 -0.13275078 0.01738049 -0.01850577 -0.08440005 0.18192132 -0.104259275 -0.021594802 0.0014533047 0.062464535 0.15011151 0.0986238 -0.11596976 -0.017885813 0.050502174 -0.15622172 0.05877826 0.007832983 -0.13859652 -0.07490492 0.10130185 0.077724226 -0.021386022 0.14760982 0.08396606 -0.14402214 -0.020797351 0.0415395 0.14000191 -0.008752582 -0.10430947 0.17997238 0.11816416 -0.09430499 0.007368959 0.027118312 -0.053917114 -0.07032547 0.07446055 0.06361168 -0.023548417 0.067091435 0.13618691 0.06363677 0.052348163 0.21287581 0.077025406 -0.11070067 -0.061135586 -0.17201614 -0.055643406 0.21298745 0.105018295 0.15964013 -0.015664082 -0.047628634 0.094707325 -0.13233235 -0.13804121 0.19789894 0.056484845 0.12784235 0.14853244 0.06681483 0.17984392 0.1546775 0.03468445 0.22695649 -0.035369083 -0.048455626 -0.12431475 -0.14312993 -0.14859127 0.024409464 -0.10167381 0.10419223 -0.0652546 -0.055042382 0.019318761 0.13985802 0.069642805 -0.18056686 -0.16346255 0.1539251 -0.20705314 -0.13878578 -0.13944124 -0.008960536 0.13090593 -0.06949107 -0.0955648 -0.084843524 0.042788137 0.0105331205 -0.16321528 -0.108994 -0.09163646 0.11769495 -0.12534338 0.02755219
0.061869524 0.07622344 0.17057794 0.021282678 -0.06395404 -0.11509842 -0.054646138 0.10317504 0.12167366 -0.15179615 0.033308756 -0.043478712 0.060114432 0.06653748 0.18490838 -0.09083072 0.15611978 0.16392817 -0.025336396 -0.20697457 0.16457433 -0.11468729 0.10522656 -0.11913452 0.02490064 -0.15653774 -0.014981274 -0.02354893 -0.0431816 0.04624187 -0.09935114 -0.09851389 -0.16962515 -0.15305279 0.1471294 -0.13605148 0.14515577 0.04556475 0.099625245 -0.06549707 -0.046212014 0.077849954 0.07888643 0.08600673 -0.02645105 0.042451303 0.14000666 0.043269306 -0.17832482 0.05239536 0.09825565 -0.17349613 0.08378175 0.14416373 -0.012486716 0.164941 0.18433021 0.051881306 -0.039506454 0.05902854 0.1329228 -0.0734994 -0.14900267 -0.13741153 -0.038186558 -0.013517238 0.12109239 -0.14210176 0.041296016 0.08954904 0.086233065 -0.07331573 0.077756904 0.16499634 -0.055197433 0.17324059 0.15630345 -0.072538994 -0.081347756 -0.12695384 0.04860821 0.11231158 -0.101919696 -0.12430933 -0.13370846 -0.06668672 -0.1553547 0.06745436 0.15005161 0.16653056 0.12577875 0.1283904 0.1337524 0.07317852 -0.028317163 -0.060232755 0.0984881 0.01299152 -0.039484084 0.12310608 -0.13087964 0.08585369 -0.039922085 0.057292286 -0.15718015 0.074787386 -0.16254908 -0.08342803 0.109163105 0.10986038 -0.07233932 0.07558755 -0.1507123 -0.009922631 -0.018044788 -0.04426684 -0.05215036 -0.13324252 0.11294396 -0.008724094 -0.013914239 -0.03819273 -0.14405756 -0.12359478 -0.15669075 -0.054158565 0.0612767 0.15922497 -0.0010547285
-0.017101256 0.11646874 0.1299653 0.18950774 -0.026342405 -0.036286414 -0.036726903 -0.070707306 0.036948323 0.13443016 0.031641472 0.03997886 -0.025411751 -0.00805544 -0.052761715 0.0033362142 -0.003993812 -0.050015777 -0.050657332 -0.072545595 0.14549509 0.022532165 0.045863166 0.07932505 0.03079642 -0.009403703 -0.058552135 0.021741373 -0.14558707 0.0041449848 -0.12086142 -0.13316537 -0.090287186 -0.0570131 -0.043210246 0.15998895 -0.011178019 -0.09706948 0.07677369 -0.00027194386 -0.040263895 -0.1250901 0.054016013 -0.086798884 -0.025720783 0.035791438 -0.121302985 0.08136624 0.09259848 0.096612036 0.16779278 0.00034678276 -0.085099116 0.023824386 0.11605685 -0.08851092 -0.020269265 0.06120091 0.09465665 -0.1438797 -0.13289967 -0.12541646 -0.14030363 0.036339264 0.049684126 0.065846816 0.03263284 0.1693667 -0.17878802 0.0836411 -0.05102524 -0.09450663 -0.176324 -0.14480962 -0.05467928 0.08232902 -0.14624587 -0.05599582 0.16161658 -0.14276412 0.0040968875 -0.083071224 0.09274743 -0.08350662 -0.13346568 0.056846365 0.07491023 0.10943253 0.13472311 0.015790185 0.06806689 0.064125106 -0.12173815 0.02735121 0.050360892 0.100009486 -0.104466975 -0.13400947 0.0066384375 -0.1393073 0.11859772 -0.021520343 -0.12872575 -0.12077847 -0.14742339 -0.08371009 0.050659895 0.042630736 -0.051339597 -0.05620399 -0.077571206 -0.10552319 0.05043951 0.081338845 0.039505545 0.010745441 -0.12084055 -0.12315691 0.12017507 0.14961335 0.044056837 -0.04928977 0.05718552 -0.16818711 0.14061421 0.1193893 -0.11977184 -0.08554655 0.0127618965
-0.15494443 -0.01793854 0.1464352 0.12693474 -0.06418724 -0.014267229 -0.053290527 0.18185012 0.060851865 -0.08320796 0.08446979 0.06734555 0.10342034 0.13621424 0.06041725 -0.059657536 -0.011135625 0.0032297226 -0.123965494 -0.008313711 0.04466356 0.04236976 0.073690325 0.044691425 0.04168169 0.060925126 -0.011041844 -0.14183396 -0.008972882 -0.107538626 0.08243077 0.1271132 0.11364527 -0.09781743 -0.067844115 -0.093301706 0.054468393 0.014833186 0.021062948 0.11339863 0.19723745 -0.008026691 -0.07124835 -0.044208802 0.120223664 -0.013875819 0.026773753 -0.02808558 -0.052333225 0.104841456 -0.15608749 -0.07049509 -0.039193973 0.07521944 0.16116446 0.05474476 0.15204082 -0.08772304 0.129268 0.06191414 -0.08889294 -0.010116588 0.18209018 -0.079002395 0.04517993 -0.0719208 0.1307568 0.11471214 0.007846224 0.099902235 -0.08762982 -0.08144853 -0.1247005 0.04804699 -0.0665677 -0.15234272 -0.04692313 0.17621268 0.18957269 0.078183874 -0.018842688 -0.13493341 0.08050167 -0.12461531 0.09165095 -0.02891635 0.005220092 0.11089412 -0.035671186 -0.11512012 0.15165535 -0.17874031 -0.15909913 0.08826578 -0.038486697 -0.10655712 -0.1945673 -0.009043936 -0.14336805 -0.15449524 0.12220655 0.1388704 -0.051598027 0.071735375 -0.07380241 -0.03771614 -0.023822885 -0.1814147 0.17277172 -0.063764386 0.014855014 -0.09389728 -0.06122608 -0.0062190057 0.10465225 -0.071824476 0.10006801 0.0045005395 -0.029432667 -0.056309894 -0.13340014 0.06885444 0.108232975 -0.016428731 0.017194128 -0.10125578 0.03509725 -0.035058696 -0.008999498
0.10914749 0.10593895 0.11270442 0.14460178 -0.16851261 -0.114274725 -0.06663072 0.013714565 -0.073598035 0.18185894 -0.008396331 0.08716973 0.007962861 0.15737234 0.102150425 -0.059217047 -0.08586013 0.07846983 -0.0005936433 0.16119775 0.099144176 0.024690406 0.012354961 0.01767011 -0.011181671 -0.14303555 0.08687434 0.04708431 0.0559632 -0.1656896 0.050327286 -0.08787233 -0.10864958 -0.1806005 -0.041393574 0.1779885 0.13565543 -0.04001042 0.1628401 -0.13952781 -0.03948995 0.15782656 0.07553348 0.1769722 0.09277842 0.085263886 -0.12215756 0.08134373 -0.094559506 -0.11785074 0.18609513 -0.05218642 0.10088753 -0.13127188 0.035592683 0.04119212 0.071962625 0.021771317 -0.1747949 0.13094172 -0.021285443 0.20891865 -0.08047376 0.07827366 -0.1398166 0.0029885145 -0.06455337 -0.13163745 -0.03488982 0.16236983 0.11263337 -0.00018294482 -0.124665625 -0.01821765 0.058041234 0.022792663 0.0179377 0.03242465 0.13541342 0.07490548 -0.044003516 -0.16594124 0.17500348 -0.056916203 -0.18280695 0.1168332 0.1376122 0.1289007 0.19314557 0.17600471 0.14884722 0.09669188 0.11191425 -0.00640554 0.24167766 0.041411392 0.12686647 -0.13665153 -0.013007115 0.11731298 -0.04944808 0.15489013 -0.004901921 0.07112329 -0.06260466 0.07502791 -0.031049147 -0.013984514 0.026805537 0.15307637 -0.14630763 -0.14279637 -0.15406868 0.11791983 0.101131946 -0.10627154 0.00013651875 -0.0054518697 0.15215886 0.018464908 -0.043640535 -0.16352503 -0.09829042 -0.06430451 -0.08016862 -0.031863976 0.054483287 0.14289962 0.017879404
-0.014297165 0.09259989 -0.19497156 -0.11797448 -0.08655154 0.23628691 0.016914604 0.2573569 -0.12773699 -0.15918781 -0.22518785 0.0015883225 0.09234872 -0.034368616 -0.053750783 0.16451308 -0.04531767 0.027414544 0.16137107 0.19102737 -0.0010993814 -0.07336917 -0.114644356 -0.11795813 -0.07524607 0.084346615 0.19978507 0.027976839 -0.06572026 -0.04385919 -0.12874708 0.24731408 0.06436572 -0.030007431 -0.026988825 0.034976806 0.021052228 0.059665862 -0.014087842 -0.112866774 0.081663966 -0.073231205 0.09785715 0.16514584 -0.011298749 0.1535313 0.10945081 -0.15958712 0.063139796 -0.09235516 -0.076738596 0.044577993 0.06073746 -0.14167695 0.25361 0.09663714 -0.054287605 -0.11072182 0.013457834 0.14792275 -0.10042968 -0.01077887 0.05490888 -0.13105981 0.14907777 0.049175374 -0.043363918 -0.08595762 0.004349516 0.00031520124 -0.020972146 0.15761685 -0.14706554 -0.060352392 -0.015245104 -0.0025048114 0.052238807 -0.008323628 0.22944298 0.10893612 -0.02260643 0.017695745 -0.11434497 0.16589706 0.12318613 0.044991393 0.080620565 0.14811768 0.03563011 0.11488179 0.09425661 -0.23181951 -0.15334834 -0.1475234 0.11160285 -0.054937646 -0.14737529 0.08008843 0.10741931 -0.08428461 0.08001263 -0.104532965 0.12841213 -0.09123571 0.12698492 0.25213078 0.0039101015 -0.0068616634 0.13321446 -0.08091714 0.05343834 0.097836345 -0.033610832 0.13736771 0.1293497 -0.06657471 0.21472225 0.01919945 -0.22183983 -0.063576095 0.0569654 -0.029562294 0.06147224 0.12545735 -0.04179524 -0.1267373 0.0028570225 0.178903 0.016671296
-0.08904275 -0.13760957 -0.07559513 -0.13271065 0.04647707 -0.15760653 -0.027143266 -0.0530562 0.082216494 0.0731294 -0.11298571 -0.042511493 0.15769769 0.08428017 -0.034027 0.1009642 -0.11152392 0.16822673 -0.099962994 -0.08890233 -0.07528361 0.13245036 -0.18587407 -0.0066553536 -0.14092335 0.0059281224 -0.109329745 0.15787402 0.059669234 0.14547445 -0.11313873 0.08272309 -0.03778256 0.120822914 0.14807326 -0.019926386 -0.00950307 0.05812169 0.029366605 0.043994673 0.1736596 0.0141201485 0.22609007 -0.12953685 0.01524884 0.16155702 -0.11885972 -0.14053361 0.106886305 -0.1072388 0.13353798 0.10605287 0.17003193 -0.16093773 -0.036693733 -0.034241326 -0.099742584 0.07753805 -0.17779838 -0.09600544 0.048118364 0.026951075 -0.107537016 0.045448035 0.16574971 0.029264554 0.1347559 0.058991976 0.12456297 -0.14214109 -0.0071976753 -0.0977253 0.18446057 0.0919349 0.15798147 -0.130088 0.046777125 -0.012721652 -0.086844906 0.034238838 -0.0063565387 -0.026978495 -0.004169592 -0.015421464 -0.11545804 0.03882717 0.02563552 -0.1931773 0.13461657 0.10401535 0.176098 0.101249024 0.06861063 0.015626233 0.13572033 -0.015591941 0.011791478 -0.15774958 0.036412273 0.1227735 0.14169419 -0.029407999 -0.12356594 0.101308145 -0.100594476 -0.024793247 0.108763084 0.052668307 -0.068126604 0.08306076 -0.0006849101 0.09222212 0.05580034 0.0051209307 -0.098285265 0.16758214 0.03170753 0.082493484 -0.11303843 0.010026367 -0.14625373 0.18247998 0.09579996 -0.035037883 -0.057608783 -0.087876536 0.059651203 0.010642647 0.014637618
0.026646642 0.046866298 0.13924716 -0.09016783 -0.0738957 0.10263522 0.058879334 -0.07628643 0.096394785 -0.0071980217 -0.12689264 -0.11296245 -0.067028396 -0.054987345 -0.12733458 -0.08520572 0.06711273 0.0011701761 0.16773775 0.16451274 -0.05092444 -0.1013094 -0.03714512 0.0552073 -0.15610267 0.14106385 0.028135374 -0.1427945 -0.14525767 -0.116076834 0.0053119687 -0.14013837 -0.12362829 0.008776642 0.08274985 0.06705475 -0.094177194 -0.0385742 -0.1017183 -0.052088294 -0.048958726 -0.1669921 -0.009221528 0.21119651 -0.06992751 0.040066857 -0.029177707 0.045080032 0.14511444 0.05571918 0.024980059 0.18977267 0.24867247 0.13752303 0.07645096 0.20203805 0.108122 -0.046586543 -0.1274819 -0.06777603 0.12129163 0.22750558 0.03974148 -0.010249585 -0.07686633 -0.13718571 -0.005105472 -0.0022624936 -0.14198291 0.027758066 0.11178875 0.11026406 0.009355301 0.18881284 -0.024497623 0.07918761 0.001138005 0.16711086 -0.12203639 0.21347663 0.112063125 0.12855464 0.035424743 -0.16131458 0.0023779115 0.07982765 -0.025702147 -0.07055553 0.20697682 -0.07893186 -0.055849083 -0.002454544 -0.14412098 -0.00552221 -0.079391636 0.1191871 0.10294941 0.13869864 0.066843964 -0.16541755 -0.020745369 0.0766625 -0.09943412 -0.087223 0.13602968 0.28018782 -0.1376059 -0.09472581 0.08231046 0.07161964 0.070210196 -8.3175284e-05 0.12316164 0.22990987 0.12984756 -0.05775392 0.11671115 0.071560346 -0.012038433 0.1458317 0.18693909 -0.10692685 0.11290846 -0.090784475 0.15765929 -0.07540923 -0.04582146 0.13844685 0.035008203
0.046153605 -0.05941108 -0.054483384 0.0037516484 -0.031033363 -0.104075976 -0.10075783 -0.124165714 -0.1184707 0.01603907 0.081312396 -0.035428714 -0.014856305 -0.117087856 -0.07149224 -0.12729569 -0.14094713 -0.15893276 -0.06298989 0.086705565 0.020395454 0.13121682 0.07175453 0.034187697 0.0715548 -0.013512274 -0.037449237 -0.025895564 0.10599011 -0.13401113 0.09605365 -0.12927973 -0.10771862 0.09912679 -0.11984455 0.17282517 0.15123375 -0.15412234 0.010984277 0.10890172 -0.09906503 0.10232583 0.03787039 0.12225586 0.117721766 -0.021554213 -0.0991472 -0.13779847 0.18270895 -0.05265193 0.14819685 -0.08300665 -0.06822881 -0.14473245 -0.08058981 -0.01385923 -0.083142914 -0.18519728 -0.13902111 0.020510517 0.01965812 -0.07060988 0.173703 -0.09700412 0.076914564 -0.1534455 -0.16949023 -0.036561403 -0.14010929 -0.028008789 -0.1585957 0.008983795 0.12988731 0.16663395 -0.016320657 0.07376546 -0.025469767 0.05517658 0.092917316 -0.0268119 0.07563187 0.028207265 0.18308745 0.062477846 -0.107516915 -0.17496258 -0.15437898 0.079148196 0.012673696 0.008844233 -0.03756152 -0.113624915 -0.15902124 0.18873337 0.12705249 0.00011528775 -0.04742493 0.12972058 -0.08239948 -0.11697283 -0.12536012 0.1575821 -0.052815072 0.20600992 -0.05513297 0.08843309 0.09549967 0.040022712 -0.0048701256 0.1315 -0.105297245 -0.15849951 0.17453052 0.066273674 -0.022244161 -0.13956453 -0.07712166 0.12922743 0.22242203 0.10939318 0.10130209 -0.121493965 0.093103476 -0.09872261 0.046922106 -0.088174075 -0.008685389 0.082897164 0.00066259113
0.11030018 0.18778235 0.21362425 -0.06202582 -0.16915463 -0.057537757 0.13115957 -0.16877493 -0.058644198 -0.094166175 0.18157825 0.15282404 0.099767 0.17794138 -0.08572537 -0.05532179 0.16638732 0.1905625 -0.06345473 0.14060892 -0.07375159 0.066747494 0.020527659 -0.11990377 0.108506136 0.057710364 -0.025971338 -0.12987445 -0.0148412045 0.16663183 0.04330866 0.0175394 -0.13404046 -0.029860947 0.065841526 -0.056325402 -0.103335045 0.08092461 -0.035564024 -0.06698936 -0.0025194904 -0.15162157 -0.08509106 -0.011323587 0.012856086 0.015058099 -0.07670336 0.09388673 0.12652929 -0.14034915 0.09778284 -0.14048806 -0.10015475 0.0434621 -0.020345906 -0.11158241 0.07579028 -0.038220536 0.16626927 0.17686504 0.13699758 -0.066904545 -0.06612584 0.042103764 -0.10372343 -0.00973097 -0.070525035 -0.029086629 0.015843917 -0.062373422 0.06525133 0.029877188 -0.18720451 0.07492795 0.16600944 0.0479469 0.031939358 -0.0395603 -0.05953823 -0.03202412 0.1681538 -0.05831475 0.0065865493 -0.016903467 -0.20159055 0.075057484 -0.028774584 0.11668899 0.011564041 0.12703227 0.026840568 0.0061470303 0.1004023 0.077270016 -0.15219136 0.1808577 0.058279682 -0.083128445 0.016099058 0.15578957 0.0021153 0.062477045 -0.21247901 0.09988683 -0.1664893 0.17310113 0.005568448 0.018861014 -0.11401468 -0.11284794 0.012872497 0.09404132 -0.11701704 -0.06998158 -0.045737147 0.033413835 0.036802925 -0.15847953 -0.075714216 -0.14989375 0.07722916 0.014580323 0.05525352 0.05068998 0.05377115 -0.09949665 -0.14261022 0.18042442 0.031012222
0.047154386 -0.13974726 -0.1244052 -0.038304515 -0.100361615 -0.065335914 0.019186696 0.015026496 -0.15593737 -0.16445391 -0.12413384 0.07336239 0.018461604 -0.081139356 -0.021150798 0.099563465 -0.11103403 0.15554146 -0.024013964 0.12502168 0.02570763 -0.0487688 0.12112487 0.045399044 0.10089218 0.05702224 -0.018171532 -0.09189202 0.071458206 0.08508624 -0.17886542 -0.053142253 0.1892346 0.18115224 0.04955783 0.10126574 -0.09413703 0.02311123 0.023776853 -0.1250965 -0.10438989 -0.16568345 0.028375713 -0.13110168 0.1177926 -0.06778331 0.11478005 0.17353871 -0.017342102 -0.12074646 0.13263576 -0.093192354 0.023649246 0.05087643 0.21809265 0.06622792 0.12776929 0.008920805 0.030293813 -0.12448842 -0.18491964 0.19871905 0.10320237 -0.039693203 -0.005337901 0.07307488 0.109555796 0.010206177 -0.1336585 -0.14542632 -0.084819786 -0.052816644 0.08858515 0.1558322 0.060400967 0.15723814 0.13157716 0.09145414 -0.092480905 -0.032998264 0.13512369 -0.09685304 -0.084650636 0.19429697 0.13309015 -0.15086739 0.041186035 0.10037205 -0.11476511 -0.06421917 0.0054200897 -0.1588947 0.04884454 0.07328152 -0.114065364 0.16248544 0.07658371 0.017073974 -0.06321357 0.10145071 0.012454721 -0.16752057 0.039101593 0.0113062225 0.011309876 0.17137238 -0.03768725 -0.11251092 0.014795769 -0.048014425 -0.0439176 0.09313066 0.16424018 0.21525943 -0.1397475 -0.14935702 -0.054566395 0.1995273 -0.02513673 -0.046225857 -0.14137822 0.1605453 -0.06379741 0.034605876 0.031396657 -0.045096394 -0.13234887 -0.067887165 0.013656612
-0.14964728 -0.08329447 0.041663475 0.0365828 -0.10191002 0.0048382105 0.13915467 -0.15969682 -0.03913689 -0.08419461 -0.15489775 -0.08875034 -0.089215785 -0.06663656 -0.102561444 -0.09254821 -0.08970563 0.01614502 -0.0849942 -0.13193119 0.062364265 0.10564171 -0.022359315 -0.027428728 -0.04161033 0.109521955 0.03430658 0.11411943 -0.055013597 -0.06005525 -0.010267482 -0.009528332 0.13745584 -0.07446035 0.07011088 0.06659447 0.1447811 0.0055623273 0.06821919 -0.15402943 -0.064165995 -0.08200008 0.07958058 0.025227213 0.06892769 0.05285047 -0.13959071 -0.072709255 -0.15780646 -0.067069426 -0.010856112 -0.058888376 -0.022670863 -0.07320182 -0.035155717 0.073562264 0.06935645 -0.00018961573 -0.09162063 -0.16009577 -0.1664515 0.029669268 -0.12674381 0.08661167 -0.09677279 -0.13587905 -0.044544853 -0.08806541 -0.11588697 0.050776444 -0.013993123 0.07931695 0.011241529 -0.07741068 0.026197333 0.07230357 0.006167309 -0.016825391 -0.023507075 0.026646769 -0.15084569 0.1033845 -0.01787002 0.06603302 0.09644706 -0.09336425 0.06984087 0.101737134 -0.06947042 0.107421696 0.04658171 -0.057321485 0.12713577 0.08627386 0.15915687 0.036845915 -0.020144716 0.0052994727 -0.117041096 -0.04328198 0.0053715855 0.116163746 0.13066518 0.13147686 -0.11350978 -0.11810455 -0.16203766 -0.15129428 -0.115129836 -0.15154211 -0.020603709 0.117197186 -0.011074454 0.12437253 -0.14938988 0.10443217 0.13580716 0.15234172 -0.07780779 0.105586395 -0.14130738 -0.01069139 0.05527953 -0.16552493 -0.12862481 0.005454232 0.03160107 -0.10893783 -0.008363468
-0.11611893 -0.019661754 -0.11182307 0.018285315 -0.018313974 0.009879526 0.08154642 -0.028681211 0.086616874 0.013590285 0.029255798 0.10000141 -0.0044779317 -0.0050565065 0.11050402 -0.14270464 -0.076621234 0.11453292 0.039612174 -0.0077488646 -0.058300987 -0.020652048 -0.07544639 0.13660827 -0.04920057 0.11003107 -0.012001928 -0.0066907215 -0.14333606 -0.1490019 0.17870049 -0.0711742 -0.026824096 0.12319066 0.15526655 0.10370999 -0.013009641 -0.16301689 0.19372073 -0.17899087 -0.10308039 0.101978675 -0.065899745 0.079544276 -0.06826594 -0.012682431 0.12333027 -0.1430583 -0.064379305 -0.14115447 -0.08278503 0.08030324 -0.006897118 -0.0903188 -0.084493406 0.16128996 0.0072585414 0.03492028 0.054765135 0.21644358 0.00033496524 -0.12565501 -0.17066772 0.0061144913 0.11222302 0.08824824 -0.029605059 -0.10517637 0.18874529 -0.0812336 0.1316184 -0.081450954 -0.034012593 -0.09965468 0.14108416 -0.078480415 -0.10436949 -0.074418604 -0.05187893 -0.18211444 -0.07934793 -0.14969854 0.11296338 -0.17248164 0.16109788 0.22875874 -0.106842294 0.11119079 0.036214307 -0.023240186 0.031036887 0.23465946 0.15485142 -0.0746469 -0.0907568 0.09426211 -0.07230536 0.11087283 -0.039918795 -0.06562775 -0.030014595 -0.050301336 -0.13714099 -0.15719986 -0.024256155 -0.19546989 0.16804324 -0.10538277 0.009024272 0.12439163 -0.02680794 -0.025853964 -0.09189523 0.017421575 -0.18097442 -0.11448879 0.034348067 -0.051805213 0.15946083 -0.114751555 -0.01648199 -0.16054127 -0.1596849 -0.043114875 -0.05183592 0.063525535 0.13271253 0.0032060007 0.031899355
-0.124343656 -0.01785574 0.109950736 0.17156518 0.005098302 0.040566657 -0.044485424 -0.07263384 -0.0020894124 0.058440622 -0.053453986 0.12381659 -0.12322241 -0.08188454 0.17658485 -0.16752303 0.16282953 0.16088079 -0.19098413 0.062436163 -0.17262153 0.008130974 -0.04672075 0.016392106 -0.060057532 0.07400213 -0.15905817 0.04060608 0.15403864 0.17143033 -0.11399303 0.08174101 0.1609801 -0.041704673 -0.07878277 -0.0089474525 -0.07096554 -0.033582937 0.19314808 -0.15180299 0.061578978 -0.08898125 -0.19217847 0.17003192 -0.15189162 0.02890195 0.18508174 -0.10732829 0.090947956 -0.12142623 0.10353285 -0.14790227 -0.12463347 0.16738354 -0.009401606 -0.09613461 0.13871565 -0.15685473 -0.08063702 0.2823971 -0.11316138 -0.1845083 0.0485186 -0.042819563 0.20516567 0.033810478 -0.10711796 0.11952341 0.068263575 -0.021049067 -0.01620942 0.1478096 -0.09873229 -0.12824495 -0.01800092 -0.07065943 -0.035672445 -0.24860977 0.044587232 -0.105289094 -0.14724562 0.05705373 -0.20595534 -0.15701143 0.03992715 0.19039655 -0.07635788 0.07618728 -0.15064047 0.13519332 -0.057043593 0.12632085 0.1308172 -0.0056599667 -0.13654695 0.10261324 0.04978401 -0.14017119 0.15558688 -0.09945969 -0.14896685 -0.053274013 0.07061101 -0.013317148 0.17295764 0.1983396 0.23553705 -0.08719147 -0.024918687 0.035208896 -0.00059314875 -0.040507298 -0.11287057 0.21340878 -0.14408115 0.031811725 0.07972419 0.06816433 -0.020662233 0.13623235 0.09328546 0.09070356 0.08155874 0.18583868 0.26267824 -0.14297436 0.13312227 -0.031490356 0.036583126
-0.15691611 0.07057808 0.092105746 -0.13745162 -0.13833226 0.034384962 -0.025934065 0.2061896 -0.13031478 -0.15041085 0.12984753 -0.19411026 0.10662223 0.023259025 0.042174373 -0.07869373 -0.044318095 -0.097038016 0.14259835 0.1527076 0.010840959 0.102089986 0.0006745426 -0.0918526 0.18404315 -0.04499491 -0.020472446 0.02754891 -0.11895946 0.1566455 0.09381291 -0.0073267906 0.088709384 0.048324354 -0.13283677 -0.063992865 -0.07431054 -0.056970995 0.013323706 -0.053203396 0.1135039 -0.0078962175 -0.07740673 0.050586596 -0.03734571 -0.049729567 9.124115e-05 -0.18361723 -0.16985825 -0.046667393 -0.08080521 -0.11473753 -0.027285038 -0.14451008 -0.034095638 -0.009419069 0.19908158 0.01210847 0.11912417 0.030127812 -0.11007653 -0.14598086 0.14824441 -0.0035452766 -0.015286144 0.2410259 0.18533176 0.013894416 0.022084594 0.017725714 -0.09622617 0.06446999 -0.0032236017 0.018811129 0.14992644 0.15206236 -0.05830093 -0.12333106 0.18898611 -0.1341321 -0.103885666 -0.03607524 0.027030714 -0.023309322 -0.054455295 0.053412657 -0.014643308 0.12915176 0.16567014 0.008635871 0.046755042 -0.089880064 -0.16081169 -0.0405111 0.099984325 0.056520354 -0.123325214 0.21756339 -0.07210149 -0.09304186 0.03683739 0.1366263 -0.015070101 0.18720765 -0.017191328 -0.044280175 -0.109297775 -0.06560045 -0.116151266 -0.1649313 -0.10492955 -0.14489157 0.12191012 0.10298714 0.008949224 -0.029708793 -0.10012067 0.13320988 0.045831498 -0.09254945 -0.10951074 -0.09008614 -0.022079414 -0.12787752 0.19988064 -0.004406673 -0.119940355 0.12852183 0.01937632
0.053839106 -0.06349398 -0.044507544 0.047805786 0.06348226 0.113992155 0.13184604 -0.060786564 0.050415482 0.065964855 -0.11069756 0.038943596 0.04310921 -0.09635504 -0.13298847 -0.062351026 -0.10674464 -0.1231063 0.012527015 -0.016714925 0.00922279 0.118869126 0.22232339 0.095754236 0.051821552 -0.15351625 0.05910252 -0.09461771 0.081528604 -0.058076445 0.10564677 0.14272712 -0.12724052 -0.14134255 0.040202517 0.057632897 0.00647094 0.037910495 0.117599905 0.052810114 0.005094551 0.029594706 0.008046001 0.06833511 -0.18863475 0.11936795 -0.056467816 -0.14711197 -0.03755994 -0.09710308 0.030610574 -0.104644805 0.08193025 -0.08315022 -0.011330604 0.18557891 -0.079863794 0.081269756 -0.025196897 -0.07961649 0.0765064 0.043916367 -0.13892822 0.022121124 -0.087338164 0.059914567 0.10388888 -0.10254206 -0.045375817 0.0113009 0.11500778 0.1201093 -0.09674685 0.09377289 0.07989504 -0.026444195 0.1515932 0.07394196 -0.040031005 0.05290149 0.16422707 0.1342372 0.14670512 -0.08956988 -0.07899659 -0.18051217 0.039226573 -0.18916763 -0.041655194 0.24781579 -0.051734876 0.19069341 0.14108977 0.10533752 -0.070566855 -0.1450672 -0.084805064 0.15435033 -0.009938942 0.1007315 -0.12828027 -0.07879328 0.21041733 -0.1411232 -0.062387783 0.11407042 0.087279305 -0.044332735 -0.12494599 0.0021831521 -0.14396973 -0.019103315 0.059908047 -0.09572189 -0.13728505 0.06384935 -0.056232456 0.0222297 0.21346442 0.05223824 -0.1284462 -0.08963721 -0.073234096 -0.03856986 -0.14515579 -0.17243914 -0.1028576 -0.094993845 0.024712417
-0.17688295 -0.033969264 0.04271737 0.11852287 0.0069831843 0.109756105 -0.09069374 -0.08514279 -0.024443181 -0.022167595 -0.061689407 0.15069143 -0.052380435 0.15737681 0.05577832 0.02479384 0.12377417 -0.010745337 -0.15531036 -0.13893525 0.13143232 0.1379456 0.10933517 -0.15665963 -0.14941704 -0.08150245 0.080772825 -0.0049735275 0.07637041 -0.114033364 0.13072321 0.047665603 0.061221097 0.13164614 0.07181707 0.079826236 -0.0582237 -0.0060774544 0.14743046 0.028373487 0.12935357 0.117601864 -0.05941282 0.14653283 0.07276871 -0.031686015 -0.09003178 -0.16843079 -0.032158088 -0.11512455 0.054047726 0.02412909 -0.12234452 0.1719242 -0.18245 0.020975366 -0.10962167 -0.13695712 -0.061373837 -0.035832092 -0.010985485 0.07229595 -0.13262586 -0.019669091 -0.12322809 0.056279436 0.15739489 0.13780288 0.10786056 0.11104191 0.069999374 0.10831938 0.08641858 -0.16515411 0.0043461667 0.013242776 -0.048697628 -0.26911905 -0.05401156 -0.12955102 0.06652358 -0.017999873 -0.20670041 -0.0056513776 0.038848445 0.23176984 0.015024851 -0.11393264 -0.08724488 0.14075866 0.15046552 0.0969385 0.06301457 -0.0048622643 -0.050886184 -0.011870517 0.12393165 0.19270454 0.095261775 0.07234633 0.0073613594 -0.031913128 0.024558157 0.12577717 0.15225941 -0.15544754 0.17517982 -0.15827566 0.086669885 0.023278752 -0.14674318 0.1919836 -0.031189669 -0.07174022 -0.14278084 -0.12115909 0.044913154 0.02314644 0.09116363 0.075249195 0.12690708 0.102179065 -0.03155328 0.021343898 0.09116354 0.014194972 -0.048260633 -0.13000295 0.006297688
-0.056092292 -0.04753705 -0.075325675 -0.0034846666 -0.044614077 -0.08344454 0.19409825 -0.105895534 -0.05457129 0.16301526 0.17539988 -0.04191321 0.16788122 0.055771206 0.13945839 -0.12697038 0.015366941 -0.075287454 -0.1814778 0.011080524 0.071822576 0.03415338 -0.10920154 0.14592867 -0.082360625 0.168088 -0.11698726 -0.12012083 0.03877721 -0.11042664 -0.007868687 0.005597013 -0.0012988208 0.029763239 0.14692633 -0.08672805 0.06345724 0.16465189 -0.024392454 -0.006364986 0.14429925 -0.017341563 0.029252559 0.09552558 -0.036744446 0.14823946 0.012789547 -0.012943142 0.107062735 0.045965716 -0.181346 -0.017920172 0.09586044 0.035387475 0.029843317 0.0071019907 -0.11852706 -0.010785538 -0.002191421 -0.14444122 0.07929468 -0.032064438 0.09441214 -0.02650363 -0.07091131 -0.048060004 -0.07810956 0.050880324 0.14121126 0.014555634 -0.11803953 0.17038813 -0.13782583 0.06084609 0.13783681 0.059364323 -0.060808815 -0.20096476 0.16616932 0.08736822 0.13230026 0.030503197 -0.16630009 -0.035328526 0.05452677 -0.11681454 -0.04582624 0.16270941 -0.19422044 -0.13182199 -0.044420894 0.19395407 -0.07920375 0.085973054 0.07342025 -0.06544368 -0.025396029 -0.1048379 -0.1008955 0.16121642 -0.09167351 0.060507473 -0.031980265 -0.09743529 -0.11736049 0.0011669127 0.12273529 -0.04019647 -0.07809129 -0.16167852 0.06711411 0.15335432 0.12273706 0.025359746 -0.16960233 -0.1289024 -0.07061259 0.08128908 -0.19358934 0.046769783 0.09736443 0.11513972 0.13297245 0.0315145 0.18079132 -0.08543161 -0.1539275 0.07944399 0.019428538
-0.14059548 -0.11154523 0.07170167 -0.09384838 0.14418423 -0.093127795 -0.08306859 -0.050937697 -0.0816771 0.09283369 0.037080165 -0.042764258 0.092938974 0.1227306 0.06723612 0.018571699 0.0036511114 0.13948664 0.090594344 0.13743542 0.038239893 -0.032431144 -0.05913247 0.17266269 0.13494729 -0.029791046 0.083780505 0.13072553 -0.032154445 0.11724278 -0.13063732 -0.14941752 -0.09722784 0.09126055 0.01842373 -0.16907091 0.07912905 -0.0023942522 0.12905897 -0.10702616 -0.011840494 -0.11152138 -0.15002549 0.08641577 0.04103462 0.16761813 -0.011465226 -0.097888 -0.083654545 0.11052503 -0.020338627 0.08919857 -0.17679061 -0.090163246 0.09297043 -0.028897652 0.07815982 0.09553 0.00037152317 0.030297467 0.1938012 -0.100881666 0.0693055 -0.168874 0.18528233 -0.04046561 0.15348062 0.15147297 0.06509889 -0.13858841 -0.14272454 -0.04960367 0.046997488 0.08026284 0.09728087 -0.17471147 -0.18457066 -0.13575584 0.12918709 0.16165026 -0.1962859 -0.16499764 -0.064755924 0.106888145 0.06194245 -0.031307675 0.11047794 0.10943514 0.044085413 -0.07512497 -0.12551115 0.13493864 -0.052512802 -0.15786083 0.023265982 0.075010926 0.14601585 0.044193592 -0.11854181 0.047042828 0.026063653 0.10856413 -0.077005036 -0.049706586 0.15292116 0.014733593 0.0064517367 0.10983458 -0.0018192102 -0.13942015 0.058254216 0.043759864 0.048189286 -0.043925226 -0.1390002 0.07967018 0.09713919 -0.18929541 0.12895703 -0.00059615035 0.14909604 0.10844724 -0.09189795 0.08380824 -0.093136355 0.08714107 -0.166715 -0.054570217 0.012111702
0.16154566 0.074086756 -0.07957407 -0.16525748 -0.04562833 -0.021205936 -0.01630723 -0.025004447 -0.12097598 -0.15364966 -0.037752997 -0.07885011 -0.008212166 0.018652359 0.073341414 -0.08857087 -0.07500948 -0.016579136 -0.07810586 0.042391803 0.046161003 0.15634443 -0.14459395 -0.13502121 0.097348385 0.09356386 0.06037909 0.16584943 -0.14967993 0.1549108 -0.1310552 -0.11459027 -0.06582707 -0.14336284 -0.07708961 0.046534255 0.1270494 -0.14366105 -0.11587618 0.12372406 0.11057478 -0.015626805 -0.05523947 -0.15461047 0.066773854 0.0059059737 0.14036024 -0.15806296 0.12837987 0.1446078 -0.112281054 0.065038845 -0.0628308 -0.080952555 0.13528611 0.09284605 0.03936738 -0.005405777 -0.06483809 -0.018453812 -0.021638073 0.0006974212 -0.16446848 -0.07538101 -0.12452004 -0.16198297 -0.11749085 -0.14134242 0.100887984 0.057898246 0.13769756 -0.05025302 -0.11429865 0.13586652 0.044503726 0.06442982 -0.123005666 0.12680568 -0.113187075 -0.06414356 0.049901605 0.16557725 -0.12657201 0.036949053 -0.06984533 -0.14598733 0.16156419 -0.1479979 0.06972654 0.09893714 0.030103035 -0.12782739 -0.0123726735 0.087385945 0.01621329 -0.11227742 -0.024910586 0.052029658 -0.09590922 0.16256252 -0.07792656 0.11393906 -0.031166956 0.08858776 0.054696504 0.15677088 -0.10040318 0.11614075 -0.15170032 -0.1109456 0.044555314 -0.017795527 0.037252665 0.00054360984 0.154223 0.014001786 0.006367759 -0.078992255 0.1673937 0.15820642 0.031404164 0.105061635 0.14866221 0.025596857 0.06760161 -0.11982335 0.12727657 -0.11548302 -0.0034361328
0.11870369 -0.18688245 0.036280125 -0.15335357 0.119995534 -0.027382445 0.13160606 0.0033361767 -0.08582431 -0.060979567 -0.075556844 -0.22788802 0.0048286384 -0.1506153 0.07448368 0.08175647 -0.1151654 -0.13250549 -0.113554 0.00055679143 0.16223595 0.15721674 -0.07478762 -0.15456004 -0.07914269 0.040960185 0.0070785736 -0.090080336 -0.033616833 -0.018812453 0.0948155 -0.024135927 0.19164768 0.14265373 -0.045639213 0.15328637 -0.089387245 -0.06890699 0.17445959 -0.09295078 -0.16296968 -0.02122137 0.0149971675 0.05992461 0.049171552 0.040386803 0.17065014 -0.039015453 0.035854615 0.041139904 -0.14820814 0.01389054 0.13658975 0.058681246 0.10803047 0.05024179 0.08897563 0.086872995 0.07447097 0.029653504 0.030660134 -0.20305541 0.20333265 0.04719744 0.11999712 -0.14069462 0.101107515 0.042865302 0.19940782 0.10480417 -0.09042339 0.10906537 -0.08280232 -0.09677725 0.19493641 0.17086962 0.016707925 -0.0611166 -0.06835995 -0.047341686 0.011947621 0.12723976 -0.20545025 -0.09489791 0.016073821 -0.10519303 0.19593135 -0.08960632 -0.020169111 -0.13758177 -0.06361588 -0.16947712 0.100290544 0.0659089 0.17396648 0.039512973 -0.039838597 0.03061322 0.16965453 0.014145621 0.08995434 0.15387264 0.02252691 -0.00033601385 0.16816962 0.13681097 -0.08007574 -0.061366767 0.10679671 0.07773539 -0.011231178 0.015392947 -0.09587739 -0.023980483 0.08435763 0.1956403 0.12360221 -0.10750138 0.111993946 -0.057899702 0.024711756 -0.15063187 0.15790416 -0.09816049 -0.025307624 0.12177358 0.107037246 0.08412684 0.0132693
-0.1189739 -0.11940375 -0.0701153 -0.073348716 0.033242397 -0.08698493 0.026684424 -0.05201603 -0.11255025 -0.026596077 0.12005851 0.13630792 -0.17532946 0.10460304 0.10197433 0.13772938 -0.088418156 -0.039611783 0.118214406 -0.12405453 -0.09399631 0.11091349 0.12793681 -0.11037749 0.042194486 0.08959661 -0.098533124 -0.009131299 -0.12190797 0.08317228 0.14281143 -0.03824768 0.11491787 0.14362663 0.020331355 0.1258292 0.15681681 0.0155279795 -0.035036635 -0.102504715 -0.02628893 0.19308868 0.03834938 0.038749952 -0.19364774 0.11343434 -0.051795356 -0.055998955 -0.05708928 -0.12460618 -0.12473539 0.067827426 0.035211425 -0.06884829 0.08228517 0.16573897 -0.19856307 0.030248089 -0.05762293 -0.050570462 -0.023461176 0.026964966 -0.023980958 0.02595859 -0.014670056 -0.14786835 -0.11789785 0.04474493 0.06162145 0.08625336 -0.14532131 -0.024554873 -0.093218334 0.12559217 0.04313657 0.05858775 -0.13876103 -0.046595488 0.1440124 0.16044186 0.010896913 0.042826958 0.1686152 0.042408623 0.08381439 -0.13945188 -0.07027055 -0.08986722 0.17327756 0.0033931625 -0.16315258 0.1007819 -0.04957429 0.18855134 0.08779303 -0.12810658 -0.11135848 -0.09062482 0.08578517 -0.026093839 0.16333564 -0.08164531 0.07188585 0.0632265 0.11345632 -0.044556834 0.1082716 0.15550174 0.03353029 -0.013167707 -0.016327119 0.14140996 0.049338967 0.09158232 0.18663494 -0.0068037743 -0.14002825 0.13453506 0.08143188 0.076807626 0.06238105 0.15997274 0.0016761511 0.07052456 -0.020780478 -0.08688564 -0.14259674 -0.1452045 0.013989382
-0.06402005 0.17196248 0.09882207 0.14986172 0.030717703 -0.014376101 -0.10670355 0.055188097 0.099647485 -0.02809633 0.05769879 0.09490898 0.057845145 -0.11726564 -0.06288709 -0.09502331 -0.08218264 0.009338125 -0.009873178 0.06251967 0.020112494 -0.08036178 0.08217906 -0.18709625 0.08449485 -0.028185679 0.13223109 0.054785144 0.107881784 -0.03480266 -0.13646936 -0.12289518 0.010777226 0.065823436 0.021034813 -0.07021243 -0.026528519 -0.049264573 0.039254684 -0.07904293 0.1605807 0.115477346 -0.028441038 -0.106564865 0.14065214 0.02990677 -0.03263023 0.10382017 -0.08145817 0.04468692 0.17465791 0.12610033 0.01864132 0.18130922 -0.023556232 0.106076546 0.059194457 0.071253724 0.033707574 0.05460628 0.213225 -0.09087937 0.09694079 0.09288529 0.12517141 0.0349722 -0.10339611 0.017363494 -0.10370987 0.020857152 -0.13679354 -0.13520157 0.14096645 0.013506522 -0.007232333 0.0069110137 0.12668969 -0.12940349 -0.08444004 0.00706236 -0.0370759 0.060247183 -0.08394334 -0.06337787 -0.024871835 -0.06493833 -0.1414726 -0.08964358 -0.0073614614 -0.12486414 0.075167686 0.08336013 0.16080005 -0.08617988 0.07453647 -0.058875367 0.040362384 0.019387849 0.009202849 -0.1374932 -0.12267713 0.023261353 0.0064137517 -0.06466856 -0.12046249 0.067394465 0.19329377 -0.11917807 -0.11187184 -0.037286673 -0.006187723 -0.02614308 -0.19308855 -0.07660726 0.08984994 -0.11268129 0.15318243 0.013883055 -0.13955554 0.029639538 0.16189197 -0.15436867 0.12587065 -0.100652635 -0.067746356 -0.12774466 -0.123848654 -0.09693393 0.0098341
0.064756 0.0116831865 0.07684724 0.1511791 0.023227604 -0.0012664145 -0.17409481 -0.009405836 0.08490922 -0.14670263 -0.065872274 -0.07949278 0.14571144 -0.18803783 -0.04708791 0.076286174 -0.082953855 0.1234201 0.048119694 0.067680575 0.12082329 0.12018782 0.2067898 -0.12284771 0.053541914 0.09929566 -0.0033577248 0.17499521 0.12749828 -0.06475527 -0.054132823 0.004995764 -0.19074531 0.044220302 -0.10536984 0.05124888 0.051226452 0.0910873 0.17343983 0.08755519 -0.00026614455 -0.024243427 -0.09059933 -0.018715506 -0.10838977 0.055046797 0.12714517 -0.11096684 0.0813819 -0.07486758 -0.073543176 -0.12489698 -0.17465775 0.04241093 -0.023772659 0.10511082 -0.03411035 -0.035920516 -0.010398012 -0.103487864 0.10818195 0.10457405 -0.010309134 0.10191797 -0.111875124 0.17415874 0.032016408 0.11499135 -0.001937923 0.03666164 -0.123170875 0.077708796 -0.15937454 -0.07732589 0.013207933 -0.064075984 0.030103428 0.034544446 0.0042266906 0.06069131 0.14111184 0.12224178 0.19576909 -0.07141335 0.061623957 -0.1803305 0.059637096 0.0017929935 -0.048710655 -0.1464579 -0.014258756 0.048825443 0.041756827 0.16013373 -0.21458961 -0.11208357 0.04988045 0.08851862 0.043113638 -0.03529927 0.1587478 0.113503 -0.08270359 -0.029467981 -0.020678084 0.06665364 0.20261236 0.07842314 0.068889566 -0.05415088 0.0330207 -0.107778534 -0.0396748 0.09322178 -0.17554328 -0.116347395 0.06510245 -0.06171953 -0.13840364 0.08943513 0.12083433 -0.036792517 -0.09559107 0.12289461 0.13558602 -0.010141452 0.1195293 -0.21774098 -0.0031736197
-0.08450666 -0.0724725 0.08328572 0.039579768 -0.15455335 -0.034420006 -0.099715486 -0.12575705 0.14575082 0.11683604 -0.11714325 0.12033592 0.04808043 -0.0625832 0.0060977563 -0.11530099 -0.0152720325 0.041616257 0.014536217 -0.034719564 0.0962591 -0.062223043 0.051848777 0.17519344 0.10629058 -0.038730342 -0.13979313 0.06021667 0.112393565 0.15302093 0.041115902 -0.12356539 -0.048241213 -0.0013890249 0.11003599 0.03287521 -0.019754175 0.028764186 0.07050272 -0.013875558 0.03521587 0.059360214 0.07594866 0.07760544 -0.025255457 0.1467711 -0.01250213 0.07260468 0.041296057 0.12573831 0.14459173 -0.0775391 -0.029637892 -0.07487 -0.05370654 0.054113634 -0.17218222 -0.10648511 0.101140894 0.01662632 -0.022627832 -0.015620864 0.17313555 0.15719354 -0.026603969 0.14710273 0.012291952 0.087467834 0.164717 -0.065181725 0.007804473 0.06803596 -0.06121406 -0.074285395 0.122245386 -0.011768518 0.07415415 -0.05221016 0.08566349 -0.13734782 0.061107405 -0.023712276 0.016872963 -0.022300754 0.069594674 -0.08057927 0.00012906513 0.06889152 -0.09964334 0.15860371 0.011364285 -0.10176826 0.1423352 -0.11495983 -0.15183133 0.02400611 -0.13216816 -0.01684657 -0.00011011056 0.112456515 -0.09575325 -0.14390965 0.1291788 -0.061251335 -0.04174467 0.0535559 0.24159786 -0.0063748816 -0.052103125 -0.04345049 0.174457 -0.13646135 -0.04390839 0.10904089 -0.21408741 -0.099150665 -0.007880501 -0.110460214 -0.036009915 -0.10318613 -0.025298579 -0.0265104 -0.16895059 0.08818253 0.17921844 0.041962635 -0.12798235 -0.087799154 0.0208038
-0.100223735 -0.042358134 -0.02700876 -0.031914216 -0.022728082 -0.077177696 0.1544876 -0.092719086 -0.014257593 -0.1950559 -0.062474895 0.008063148 -0.10215354 0.042034548 0.14870226 -0.070526704 0.17394394 0.104670286 -0.031586558 -0.06427795 -0.05134603 0.06906932 0.0071510295 0.040941056 -0.12243258 0.22717838 -0.022247069 0.06866022 -0.04078521 0.027167499 0.18468529 0.009466179 0.14994295 0.12859206 0.03644091 -0.09214103 0.12983516 0.08136273 -0.110503465 -0.0918013 -0.14521228 0.16285273 -0.0037932552 0.046965092 0.19473968 -0.009349513 0.15568307 -0.10889241 -0.01672717 -0.09464107 -0.080703594 0.04475196 0.07951892 0.041818034 0.04816671 0.11945801 0.0031086355 0.19269249 0.03594603 -0.017622024 -0.012337317 0.10789064 -0.1523074 -0.12107816 0.052535087 0.1269106 -0.056949142 -0.032483514 0.20673588 0.05735007 0.038788263 0.10841497 -0.1443281 -0.15083115 -0.08376377 -0.13576373 -0.111421145 -0.16489756 -0.119706206 0.046284147 -0.032765858 -0.06585741 0.08157419 0.03686909 -0.100498 0.071882725 0.06846742 0.012878891 -0.07231037 -0.11107613 -0.18275401 0.07995001 -0.062163558 -0.01728401 0.072476454 -0.0075724814 -0.07164398 0.20086828 -0.16050524 0.108305566 -0.1490731 -0.14716469 0.13356782 -0.06294945 0.1925347 -0.14113735 -0.0103670275 0.08851367 -0.11500494 -0.11928524 0.19034292 0.2049804 -0.012436857 -0.013798052 -0.18475178 0.094046324 0.1423079 -0.05602075 -0.12415249 0.08589441 0.14690897 0.040121313 0.06928766 0.16211979 0.16598032 -0.1042163 -0.054168444 0.15197858 0.022551209
-0.07988767 0.17623788 -0.13748407 0.1257795 0.21559829 -0.09608754 0.09097032 -0.055132512 -0.026241366 0.029773742 0.0051113274 -0.05769219 0.046246283 0.09922245 -0.000513999 0.103559054 -0.08485136 0.13205601 -0.101777576 -0.013945535 -0.077738754 0.1653379 -0.056899503 -0.15369536 0.003782825 0.088414565 0.08527525 0.19605154 -0.16636628 0.053982195 0.010203325 -0.020428972 -0.010480547 0.06785706 -0.13446026 -0.04230612 -0.035973936 0.114998475 0.07803831 0.06402442 0.07146052 0.20520763 -0.0968081 0.031784035 0.039624788 0.077450454 0.12978575 0.12269889 0.19538341 0.08289041 0.1571661 0.16731177 0.112301596 0.22695747 0.11221811 -0.06042413 -0.09725906 -0.10019775 0.04484053 -0.10120726 -0.13491963 0.10498057 0.018659879 0.11301927 -0.1134924 0.022363659 0.108790584 -0.102551594 0.21102299 0.03122598 0.057673607 0.03480914 0.11464879 -0.003253051 -0.11105286 -0.24127813 -0.1769663 -0.1379672 -0.15879484 0.04981393 0.011629244 -0.1409254 0.062220924 0.017953275 0.10070207 -0.08696042 0.012203773 0.19875607 0.09828775 0.09588038 -0.03638054 0.1634671 0.13380674 0.15670848 0.058969427 -0.119004995 0.0029203275 -0.12201061 0.1818828 -0.015764058 -0.09673067 0.041637246 -0.028947873 0.14365074 -0.084555395 0.10800372 0.03514186 0.025365807 -0.15568474 -0.15325561 -0.10415677 0.19523829 -0.03930232 0.1470813 0.09125954 0.06897035 -0.10814987 -0.0060360986 -0.15464042 0.15675822 0.07548453 -0.16005205 0.18172035 0.16742285 0.046411652 -0.12637457 0.100542024 0.057762656 0.037983403
-0.09398651 0.044552136 -0.07969164 -0.0045419927 -0.06899397 0.025839983 -0.0690418 0.07038165 -0.08307382 0.0016348995 0.16564138 -0.0293841 0.06791137 -0.114734136 -0.08896523 0.10436111 0.19134842 0.11113246 0.021821557 -0.02453454 -0.1917576 0.107265525 0.08361982 0.16910785 0.15054071 -0.013583764 -0.07582559 0.03896494 0.04221103 0.014488336 0.1374879 0.115950726 0.08426152 -0.06883055 -0.0766068 -0.12706392 0.06146644 0.09739185 0.08112409 0.07436952 0.091366835 0.059557248 0.052379955 -0.015865576 -0.110520825 -0.11344521 -0.01853252 0.12842442 0.13100976 -0.10941869 -0.19955279 0.21334127 0.0054178103 0.17866105 -0.17454968 -0.091936186 -0.17416048 0.17132036 0.1876565 -0.1261368 -0.12278119 0.11686806 0.2054999 0.1680127 0.09810709 -0.0627822 -0.10350893 0.17996043 0.16255143 -0.036697287 -0.13195783 0.14331381 0.12776482 -0.16285217 0.041779768 -0.08271492 -0.15891722 -0.114739366 -0.12754937 0.025584716 0.035801113 0.07289533 -0.22972125 0.06508943 0.095334806 0.04339886 0.18841398 0.15251689 -0.055850983 0.10287584 0.020012055 0.14517535 0.06049007 0.042462472 0.14347331 -0.0040911683 0.15790303 0.14248973 0.029810213 -0.058076423 0.14101763 0.100847505 -0.18241072 -0.06940277 0.12631837 -0.13244812 0.08043286 -0.09151987 0.017956717 0.004075364 0.04590804 0.17105402 0.13858001 0.16244544 -0.020672513 -0.12198291 0.10109708 -0.17031056 -0.10843219 0.10800773 0.1586817 0.19799756 0.10604553 0.14827111 -0.03442444 0.050473835 -0.12497789 0.051369973 0.025664654
0.04541335 -0.04939625 0.12733296 0.10723383 -0.17226002 0.13757206 -0.20735113 -0.2212597 0.17991838 -0.068311736 -0.12639524 0.06828072 -0.13353689 -0.084167294 -0.15701672 0.23755541 0.09580702 -0.0986083 -0.07730834 -0.14724667 0.08057975 0.015134081 -0.009443914 -0.12350461 -0.14619233 0.041470792 -0.045048635 0.1512301 -0.100604 0.0063274605 0.1262308 -0.041607663 0.05070071 -0.011901403 -0.117647484 0.036481984 0.021919034 -0.076211415 0.03098119 0.10877112 -0.07299941 0.0021903906 -0.18927723 -0.022134295 0.043041922 0.05015288 0.055643827 -0.08220611 0.14859805 -0.05595392 0.20950265 0.115006514 0.15022886 0.15293929 0.104808636 -0.10276696 -0.21243955 -0.113930166 0.0786817 0.04490764 -0.03653886 -0.06401325 -0.20307861 0.03243601 -0.130637 0.016094964 -0.04180422 0.05611855 0.08506907 -0.0446876 -0.14614907 -0.07335376 -0.16709395 0.10035853 -0.019807408 0.073203415 -0.06833886 0.08798012 -0.15203688 0.18467717 0.10772469 -0.16857713 -0.003795149 -0.12456314 -0.14389971 0.11920786 0.12724146 0.112223305 0.114944875 -0.033693276 0.048029475 -0.047445294 0.031846203 -0.055253282 -0.023881918 0.018303985 0.10723451 0.030365657 0.10441047 0.14723809 -0.08039684 0.0323945 -0.0798824 -0.006485632 0.034613777 -0.035078738 0.14779606 0.058291838 0.16976497 -0.051112045 -0.12539266 -0.09244486 -0.02787679 0.13145575 -0.083209395 -0.09913074 0.08937425 -0.0083755925 0.028839312 -0.13300297 0.13106862 -0.039514795 -0.008487576 -0.077268526 0.051953226 -0.07690015 0.019742401 0.0034611514 0.022496166
0.1409136 0.08154021 -0.1711427 0.045500908 -0.11428376 -0.08085075 -0.06891693 0.13999142 0.17733696 -0.17742163 0.0034234556 -0.012565307 -0.01104999 -0.23731804 -0.18024182 -0.029593127 -0.022218268 -0.13989875 -0.216457 0.008049553 0.039724655 -0.04772028 -0.00899917 -0.06412252 0.22479199 -0.09465865 -0.02458265 -0.04628031 -0.028674638 0.06914154 0.08007828 0.07828431 -0.09716698 0.07961083 -0.055252686 -0.16491987 0.074549995 -0.12660213 -0.09406448 0.10551582 -0.11144334 -0.09458194 0.031977545 0.034761295 0.11409287 0.18648212 -0.051064905 -0.15145636 -0.08937871 0.0027815683 -0.031616382 0.11056162 -0.1362268 0.12175361 -0.14144997 0.17270766 -0.083429806 -0.08453951 -0.08764619 -0.117333926 0.023226788 0.072659224 0.09755782 -0.0978919 0.039600924 0.2237378 0.13561104 -0.03354829 0.05383216 0.11154583 0.09689855 -0.14562792 0.11959753 -0.06425704 0.13293605 0.21203335 -0.10185343 -0.0404652 -0.05853687 -0.2431972 -0.04764856 -0.12561138 -0.02345959 -0.10524183 0.2183152 -0.06733087 0.15322107 0.1521232 -0.048795234 -0.07332755 -0.13070744 -0.09315064 -0.027736405 0.17520998 0.071958445 0.047939565 0.10474094 0.10373297 -0.08431647 -0.059705816 0.0130246105 0.08127931 0.24027108 -0.058270108 0.097821936 -0.12241212 0.084397264 0.013919467 -0.12655197 0.1464911 -0.06263595 -0.10667794 -0.030548502 -0.034708526 -0.15142271 0.07591285 0.08167657 -0.031479374 -0.025529608 0.16672441 0.052139442 0.14390016 -0.01440774 -0.0052656955 0.10267534 -0.06663965 -0.14501113 -0.11748513 0.0062077884
0.07422738 -0.058818735 0.11798103 -0.020815862 0.1140207 -0.039245687 0.016081516 -0.049495723 0.118335456 0.14774232 0.09711852 0.13744868 -0.14879856 -0.008726749 -0.038351275 -0.11256769 -0.13385509 -0.097515516 0.1763691 -0.014980633 0.10686549 0.024386328 -0.07228243 0.12330132 0.11216711 -0.028472703 0.03655556 -0.13814703 0.1294398 0.10991295 -0.061168306 -0.019682681 0.11901398 -0.071571745 0.2108594 0.09568908 0.0737776 -0.085908726 -0.21033697 0.03337169 -0.045752455 0.0355223 0.12597853 0.14352602 0.15473366 -0.13178246 0.026967414 -0.033553194 -0.17921084 0.069041744 0.019910878 -0.18935812 -0.13200489 -0.06089202 -0.075121105 0.034674525 0.16032031 0.042102136 -0.08391817 -0.13188003 -0.045950912 -0.017342506 -0.018864108 0.029521905 0.0879352 -0.03660863 -0.031113487 0.0015412824 -0.13673905 -0.12578993 0.13491367 0.015339635 -0.09870582 0.2029547 -0.067833476 0.01510477 -0.05218833 0.15090932 0.11604745 0.094381355 0.17533235 0.04792395 0.20214605 0.13789177 0.06528741 0.11130326 -0.14846513 -0.11521442 0.17255658 -0.020762863 0.21441273 -0.02827023 0.10013493 0.056053262 0.103970505 0.08553283 -0.04540409 -0.12462821 -0.04806146 -0.12520723 0.14905436 -0.026420336 -0.13150819 -0.011170733 0.072057955 0.05312709 0.14470862 0.10979808 0.024629472 -0.050872643 -0.081421904 -0.18852854 0.020376893 0.12520511 0.050983425 0.1194402 0.07277434 0.07232162 0.08711779 0.012886391 -0.051282372 -0.034122046 -0.027823778 0.00079562323 -0.073108904 0.039429203 0.10365839 -0.019610282 0.010769974
0.07409879 -0.112542555 -0.18327014 -0.17810331 0.01441835 0.045781683 0.11024166 -0.04883186 0.075175524 -0.064614005 0.0694325 0.11845168 0.12139325 -0.22433192 0.15099576 0.039177418 -0.03196654 -0.15932219 -0.052709296 0.15272902 -0.06314809 -0.04554079 0.26191616 -0.130081 0.19483988 -0.17285082 -0.19723476 0.034380365 -0.06619781 0.06126987 -0.07161646 0.16904531 0.09908943 0.07527576 -0.101916134 -0.13146123 -0.0025738603 -0.027648823 -0.13338646 0.1923491 -0.13319303 0.18891726 -0.14554693 -0.04265003 -0.020102445 0.088956475 -0.08247338 -0.16634637 0.079007834 -0.13104345 -0.106757216 0.18277484 0.02165623 0.030760331 0.11584986 -0.02810613 0.06406262 0.038150348 -0.0615309 0.090781316 0.14988884 -0.19533975 0.05225534 0.021248503 -0.00082136574 0.27212647 0.035069417 -0.16004086 0.03932752 -0.20893952 0.1228644 0.11203034 0.08056757 0.20498721 -0.11834317 0.1758176 0.042008184 0.01727414 0.012198839 -0.28989223 -0.12500669 0.11710142 0.038080767 -0.13793679 0.18920685 0.1454437 0.1275632 0.14318813 -0.028825771 -0.10267916 -0.030065794 -0.09457288 0.19230928 -0.04291383 -0.14404576 -0.07799302 -0.039153438 0.093165234 -0.028501906 0.14990662 0.04993794 0.14911038 0.21544637 -0.045706723 0.20095602 -0.09174237 0.06005274 -0.044501133 -0.11671505 -0.11436752 -0.057831995 0.0188593 0.076844506 -0.12398177 -0.04735599 0.1695851 0.14410375 -0.058637023 0.05820861 0.15355173 0.035652805 0.04830232 -0.044501197 -0.10406378 0.0052935425 -0.087704584 0.05460938 0.007784404 0.018278772
0.1634854 0.18513371 0.044039268 -0.016055085 0.06525677 0.17035618 0.10651418 -0.03777929 0.14978823 0.076956645 0.032493446 -0.039468594 0.09862167 0.05201764 -0.113374114 0.110868774 -0.122477554 0.009403532 -0.1393401 0.07647869 -0.08230716 0.02702143 0.22340661 0.028030274 0.08067689 -0.15123083 -0.006875194 0.07299818 0.18384792 -0.08991305 -0.13716239 -0.029936146 0.07190341 -0.0037686757 0.11315232 0.071722984 0.16139688 -0.0976916 0.027507063 0.040673815 -0.019743364 0.12193753 -0.066091985 -0.003702377 -0.122265026 -0.16545364 0.1900352 0.07858698 -0.16075027 -0.049943045 -0.19963062 0.019092532 -0.13316303 -0.07743166 0.0012840703 0.12994437 0.1272555 0.08502188 -0.060757235 0.018645851 -0.071713634 0.048604988 -0.038774457 0.17581551 0.087355025 -0.037153482 0.18940443 -0.07749273 0.07484218 0.07533415 -0.025654323 -0.04077168 0.16009314 0.12944241 0.0654727 -0.087766305 0.066940226 0.12037193 0.20375541 -0.12912044 -0.19244505 0.009402754 0.15850186 0.14970095 0.11753916 -0.14478181 -0.09712465 0.11188172 -0.03591472 -0.21494636 0.08217819 -0.050025936 0.019928934 -0.056154728 -0.04576437 -0.15249555 -0.07115694 -0.11873525 -0.09957352 -0.06394515 0.029442634 0.14980526 0.064652026 -0.09378414 -0.028596029 -0.16393435 -0.048921503 -0.11898484 0.20748372 0.027946629 -0.07494182 0.18375167 0.06488244 -0.1511771 0.173566 -0.016305422 0.10666603 -0.114853516 -0.048014447 -0.15300022 -0.018675422 0.06256522 0.13808082 -0.03185111 -0.16073279 -0.023062253 -0.024047643 0.028538344 0.010805524
0.013857263 -0.0068051317 -0.048231978 -0.042866163 -0.019809617 0.17518409 -0.021462148 0.09692685 -0.03838918 0.101364866 -0.07423424 -0.07185798 -0.09165236 -0.13117653 -0.14674044 0.04522733 0.04131399 0.09979188 -0.15174963 0.117566384 -0.1366006 0.0047262944 0.052815802 0.10329459 0.1536894 0.18279175 0.009298297 0.16273691 -0.019326288 0.1600381 0.058646258 0.21600337 -0.08632978 0.13003713 -0.08333233 -0.15383749 0.07441335 -0.06510957 0.031004483 0.19713527 0.16072689 0.17685084 -0.12807947 0.11053362 0.03813945 0.1881854 -0.14448948 -0.07013796 -0.19577909 0.031681184 -0.20373742 -0.06008272 0.07268532 0.16167969 0.01011975 -0.16413178 -0.12901795 0.20553347 0.18305235 -0.21681534 0.08338701 0.122963175 -0.10353466 0.026792277 -0.1020686 0.016079007 0.0047809994 0.051641405 -0.025989722 0.0742728 0.10740192 0.080514625 -0.031001639 -0.11373397 -0.05944469 -0.012881872 -0.12610193 0.1346003 0.12273867 0.1002809 0.1154613 0.042066514 0.16133551 0.05797626 0.12911992 0.07386996 -0.16093685 0.09786934 0.06031911 0.042901583 0.08314099 0.111196905 -0.05890682 0.1291753 -0.12566255 0.13722432 0.012596881 0.11903896 0.09674494 -0.07806489 -0.08683686 -0.0443215 0.07293367 0.088252254 0.0782477 0.15618628 -0.09352695 0.21043661 0.18125066 -0.016653877 -0.017274806 -0.07748219 0.16724043 -0.13046186 0.13341238 -0.060392443 0.10590735 0.22426908 -0.20974767 0.14317937 -0.113496594 0.16382982 0.044460297 -0.028893441 -0.008722224 -0.11623052 -0.01253929 0.15413153 0.017537892
-0.0013666536 -0.033339083 -0.1641153 0.0021624875 -0.083711326 0.11146811 0.12969838 0.14947325 -0.15050833 -0.03843834 0.066560574 -0.004548682 -0.08104442 -0.011534981 0.0029839114 0.018224997 0.10348688 -0.13082634 0.1358704 0.0085415505 -0.16109532 0.05722071 0.01647064 -0.0030824505 0.005466147 0.05868402 -0.10513103 -0.13208619 0.009090978 0.039876476 -0.10101394 -0.13950372 -0.1275913 -0.008939369 -0.13958064 -0.14515543 0.021294944 -0.15045212 0.05124978 -0.15077633 -0.13261679 -0.0057247197 -0.17054172 -0.1618445 0.13842213 -0.12612008 0.12905256 -0.14704064 -0.13300791 -0.12207162 -0.10927672 0.13231845 0.11428251 -0.018630017 0.035920687 -0.039050926 0.042517338 0.15195125 -0.0020157804 -0.15014112 0.0005055134 -0.06489527 0.14359033 0.023012916 -0.13329719 -0.029806087 -0.12051318 -0.014759015 0.14654784 0.0021703008 -0.15143633 -0.12633513 -0.125665 0.1545916 0.14988157 0.11938021 0.1657638 0.13978785 -0.107065395 0.046477333 -0.15624477 0.16435823 0.020391738 0.04053037 -0.060728677 -0.1229826 -0.036340807 0.017626105 -0.010381581 -0.061011918 -0.15546033 0.07084913 0.07044655 0.10704738 -0.10336825 0.016873198 0.05227753 -0.089996524 -0.06399057 -0.15807973 -0.027783213 0.07062307 0.108628996 -0.10178541 -0.16557284 0.137273 0.13451295 0.05709476 0.15952322 0.013543451 0.11322329 -0.038501088 -0.082611665 0.006238529 -0.16517769 0.14798224 -0.14410904 -0.09897943 -0.13810793 0.14343584 -0.0664023 0.07133304 -0.1432462 -0.07873222 0.13872738 0.12551118 -0.16693017 -0.11130344 -0.021299439
