-0.0706679 -0.06407172 0.25864708 -0.10891491 0.050292175 0.14479558 -0.22684827 -0.15129112 0.2527694 -0.10483951 -0.07251547 -0.18569076 0.15025577 -0.14419541 -0.15153244 -0.10371921 0.037449725 -0.09073617 0.13645196 0.09456081 0.16579552 0.1446602 0.3153633 -0.2552396 -0.113985345 -0.28217047 0.099959865 0.23196949 -0.15581001 -0.10661177 -0.13103406 -0.24310106 0.041227717 0.38692525 -0.2719488 -0.14732854 -0.05190741 -0.052125745 -0.10392361 0.09138806 0.16494742 0.0044594267 -0.14816096 0.14335725 0.18218668 -0.34255487 -0.28814563 -0.16648309 0.11719077 0.012947268 -0.29496354 -0.12238448 -0.14484958 0.2931231 0.23668528 -0.325965 -0.31145716 0.11810328 -0.2470146 -0.101992905 0.10659245 -0.20284882 0.093521506 0.15743102 0.02790952 -0.29245746 0.31181052 -0.095194675 0.041001115 -0.22334155 -0.10788414 0.10927209 -0.23358272 -0.025081933 -0.26382646 0.17148536 0.17155527 0.13290255 0.04960038 0.28027084 0.18270934 0.12352573 -0.19540307 -0.23698507 -0.0077203503
0.11247376 0.12258807 0.28055692 -0.18531783 0.07651434 -0.13536459 -0.06763368 0.19416928 -0.08536229 0.16355194 0.07128327 -0.031180523 -0.20243953 0.2678551 -0.08447522 -0.005112578 0.19937818 -0.012184412 -0.2222695 0.09666762 0.03394188 0.22665352 -0.28514442 0.24612829 -0.026992578 0.15847592 -0.020244213 -0.3246703 0.091956146 0.13335317 0.17776315 -0.16675307 0.079888254 -0.23345748 0.1418224 -0.051909313 0.108571 0.21036108 -0.018716965 -0.037147254 0.068346426 0.013103025 -0.3309535 -0.2653237 -0.22233361 0.026750604 -0.270644 -0.16142777 -0.32032508 -0.067684285 -0.31226078 0.2146379 -0.29327476 0.034784053 0.14682405 0.05412833 0.1567565 -0.16812846 0.28558946 -0.11824367 0.10786261 -0.1257714 -0.3573101 -0.115638696 0.17350377 0.015809806 -0.08035087 0.12920211 0.3038287 -0.20057926 -0.19035603 -0.1071622 0.11601365 -0.15136561 0.16747834 -0.07092971 -0.11972362 -0.059235863 -0.24493213 0.19093202 0.04275851 -0.102109775 0.1919788 -0.16173074 -0.0023854268
-0.25667113 0.10898013 -0.0724491 -0.16503234 -0.33677146 -0.2537744 -0.15773453 -0.15524986 0.18802917 -0.04441752 0.026998485 0.23080774 -0.15220918 0.12432922 -0.17516102 -0.000179554 0.1031211 0.19237824 0.03152396 0.12404217 0.057356425 0.23103383 0.12963793 0.15931375 -0.12842748 -0.2039838 0.27484605 -0.011808902 -0.1844082 -0.040209353 -0.042721555 0.08231596 0.022176579 0.04675829 0.23202801 -0.3380497 0.13452941 -0.26278132 0.28297845 -0.16774397 0.0651766 -0.16215934 0.14912973 -0.2336789 0.12901364 -0.046741962 0.010018333 -0.0058636507 -0.07976865 -0.037012674 0.053989798 0.136288 0.026795998 -0.10420226 -0.080894046 -0.15470736 -0.18075308 -0.1725219 -0.12511142 -0.051221956 0.22669977 0.03255464 0.19145328 -0.17732051 0.22127928 0.20160115 -0.022008395 -0.3083449 -0.009432881 -0.21285097 -0.021579627 -0.24314839 -0.06047883 0.064955354 -0.0625485 0.15785445 -0.020134186 -0.0893298 0.27034113 0.14047422 -0.07046501 0.16485357 0.15459335 0.059372194 -0.012293508
-0.07890797 -0.24162441 -0.16311558 -0.24896383 -0.20811479 -0.17925853 -0.004143092 0.058729924 0.1849526 0.2090273 -0.22348045 -0.14261925 -0.10216187 0.17350776 -0.017822709 0.01213775 -0.21814948 0.014322075 0.19066261 -0.30093536 0.26139188 0.060759746 -0.29190865 0.054454077 0.034743395 0.01857378 -0.10432546 0.265974 -0.321825 -0.23536928 0.23556533 0.17977616 -0.11012551 0.19328561 0.01875287 0.1759412 0.1983862 -0.36711586 0.10846334 0.19256163 -0.21028665 -0.097925514 0.19322994 0.21661448 0.048776608 0.13405102 0.15248324 -0.15375549 -0.069163054 -0.113508716 0.0959086 0.07562606 0.19513825 0.011509387 0.2516668 -0.16351457 -0.1315961 -0.29133588 0.0956422 0.14363563 -0.032843728 0.118587874 -0.2587403 -0.20512664 0.22889397 0.2885145 0.18014918 0.27361286 0.0044354596 0.006101584 0.14061616 0.11580263 -0.052667595 -0.23138079 0.26526347 -0.02523817 0.20497103 0.07141451 0.044018768 0.26791337 -0.10646739 -0.1704257 0.011031359 -0.16698743 -0.023572462
-0.07405343 -0.20417635 -0.032737114 -0.07733135 -0.07707599 -0.21881741 -0.121988446 -0.03664091 -0.0673581 -0.2768699 -0.243393 0.029548328 0.0054699 -0.21411395 0.17927474 -0.19708811 0.047396798 -0.081338406 0.07553789 0.002999389 0.124297306 -0.1286772 -0.17245905 0.0999697 0.18596803 -0.16505411 -0.3015317 -0.35316947 -0.098336 -0.20200513 -0.18787858 -0.046681684 -0.04624075 -0.05775129 -0.022269849 0.34726834 -0.015144492 0.18206038 -0.12698498 -0.11851556 0.0841324 0.16994017 0.06483139 0.22974941 -0.06563537 -0.15212661 -0.04815703 -0.058588326 0.078388266 -0.15953365 0.34009463 0.09280851 -0.27884364 -0.25086415 -0.16143088 0.07158329 0.17302357 0.16632622 0.16413637 -0.2065449 -0.24804683 0.18702407 0.017424848 -0.35187912 -0.14507009 -0.00032004458 0.107585125 -0.13223344 0.41227132 -0.12943809 -0.16768007 0.28760493 0.21876821 -0.004646822 -0.200472 -0.0731467 -0.0671298 -0.05442957 0.34858602 -0.042136017 -0.2456479 0.07211576 0.076313764 -0.12361521 0.025858924
-0.10397132 -0.0051691877 -0.07632083 0.27079174 0.21073802 -0.2568525 -0.18991466 0.25900164 -0.0014058561 0.22032674 -0.028022408 -0.25052392 0.06737049 -0.06604262 -0.30068466 0.09883003 -0.32303047 -0.22703664 -0.19193532 -0.224162 0.14542355 -0.1362911 -0.07659096 -0.2705683 -0.1482856 -0.11346099 -0.23170374 0.21540727 -0.18423674 -0.2164776 0.12274243 0.019144736 -0.0709613 -0.2628106 -0.21382028 0.05943836 0.25798213 -0.12118474 -0.07755981 -0.07254668 0.18160486 0.014843604 -0.14609733 -0.17004979 -0.2237632 -0.18070889 -0.04771578 0.19168288 0.21370783 -0.20060147 0.14919703 0.1474707 0.078274146 0.066296495 -0.24406736 0.21407054 0.19809121 0.2551459 0.18287429 0.10839064 -0.06508575 -0.036492836 0.12502831 0.2599655 -0.010017227 -0.14256003 -0.07581316 -0.16724373 -0.1547778 0.18983741 0.07403398 -0.1250214 -0.12650856 0.07057832 0.22494887 -0.008660383 -0.080313206 -0.2382305 -0.06868498 0.026672447 0.117287554 -0.04231886 -0.22983177 0.18655147 0.0021004954
-0.45316193 -0.22937532 0.015772726 0.25303364 0.28966686 0.21361065 -0.044306144 0.24319448 -0.26377416 -0.27388474 0.1810912 -0.10133384 -0.034048058 -0.15860337 0.09197878 0.10459956 -0.1814675 0.05387083 0.21323697 -0.18090294 -0.1509785 -0.09831211 0.20611992 0.025534773 -0.2646743 0.3789173 0.07546792 -0.18162726 -0.04199021 0.040389508 -0.23112233 -0.03056945 0.20692746 -0.05723939 -0.15459087 0.27116472 -0.32253507 0.10463932 -0.15935454 -0.17172131 0.18577333 -0.19565478 -0.3009563 -0.31056073 0.28840423 -0.11347261 -0.07153454 0.20664677 -0.18857013 -0.23619829 0.035705086 -0.040183242 -0.08241977 -0.19698414 -0.2137451 0.1194803 -0.15695646 -0.1598973 0.07383498 0.2538227 -0.06860411 0.26208702 -0.06374255 0.20071748 0.13302076 -0.07752884 0.1348336 -0.3005566 -0.1359796 -0.15992692 -0.16440018 0.1070022 -0.12322629 0.13780509 0.02513515 0.23128495 0.27164236 -0.24440238 -0.004051582 0.16302812 0.30373514 -0.25106275 0.06594583 -0.10910541 -0.008214296
0.2317587 0.15979856 -0.23350053 0.026228176 0.13583368 0.16446607 0.27378654 -0.05046913 -0.15040395 0.09802879 0.09805754 -0.05165813 0.009812066 0.05516488 0.048378654 0.081365734 -0.001929057 0.039188784 -0.14607814 -0.05523424 -0.11055782 0.025237797 -0.07644511 -0.24761303 -0.25703472 -0.2021424 0.092052564 -0.26805937 -0.15659535 0.2132406 0.23108414 0.28145805 0.0032098938 -0.22819881 0.2820161 -0.12491921 -0.26713526 0.33260643 0.01422588 0.21846603 -0.026809996 0.18745342 -0.051711682 -0.048721332 -0.032904018 -0.06126351 -0.19697963 -0.25341824 -0.13406207 -0.1830975 -0.17727612 -0.058386568 0.17744881 -0.30231386 0.001237903 -0.1929778 -0.020948138 -0.28954172 -0.04651586 -0.1768634 0.29679358 0.17779775 0.040401425 -0.119400196 0.09706196 0.05175087 -0.1164918 0.28982127 -0.15855218 0.26833203 0.25982958 0.1438326 0.14121401 0.03733256 -0.31497177 0.12942153 -0.0117183095 0.16309145 0.28918192 -0.21337257 0.08782095 0.09446306 -0.14146017 0.1056145 0.0048415433
-0.10644714 0.11582733 0.022650119 0.16591708 -0.19145815 -0.08250952 -0.03144443 0.088838086 -0.2635771 0.0032799672 -0.21341673 0.28824788 -0.1938724 -0.19255315 -0.023081975 0.16753218 0.11849778 0.018567538 0.007018792 -0.31437922 -0.022069918 0.23288704 -0.23211439 0.090751916 -0.13967173 0.10833181 0.10256073 0.19106527 -0.24935569 -0.18285191 0.089284904 -0.008362672 0.08048615 -0.032355297 -0.2691818 -0.24296947 0.03259198 -0.1945151 -0.2600598 -0.10261762 -0.27113864 0.07539392 -0.019146126 -0.06663338 -0.22315213 0.0722015 -0.08080896 0.10799915 0.13147543 -0.050056014 -0.16448843 0.1446327 0.0031275041 0.23102923 0.24524717 0.13489619 0.18925564 0.14640047 -0.019471923 0.29050493 -0.08673589 0.29830486 0.18693914 0.03806814 0.11739364 -0.3148643 0.13121545 0.22405185 -0.18974997 -0.061917856 -0.25022346 0.12011651 0.021371383 0.099435054 0.018060813 -0.08143012 0.19799377 -0.078449436 0.0031161124 -0.018719818 -0.25224575 0.1764895 -0.08928007 -0.36065426 0.0011959526
0.13606064 -0.2767961 -0.2321883 0.14343494 0.08022577 0.033365544 0.14003694 0.006465737 -0.20700812 -0.21730955 0.15976134 -0.020616105 0.042470045 -0.40091228 0.32061076 0.15198979 -0.14175661 -0.16364364 0.108421855 -0.086737365 -0.20076999 0.17406641 0.11517897 -0.27907693 -0.04524474 -0.28895083 -0.009984855 -0.16446272 0.29090118 0.12702605 0.02675616 0.016641093 -0.20323852 0.10019085 -0.0549872 -0.15490486 -0.22128947 0.16238588 -0.25603744 0.27900317 0.012727779 -0.094285294 0.23703374 0.32528773 0.14790206 -0.24442364 0.20156883 0.27584803 0.16399853 -0.011649131 -0.16435805 0.031314727 0.10363038 -0.14327826 0.23090564 0.22381882 0.13838911 0.30125085 0.25626272 -0.22689603 -0.095876336 0.010123052 -0.14321072 -0.11367465 -0.025814254 0.08188791 -0.112040006 0.2422403 -0.2484707 -0.16860576 -0.16871893 -0.013855453 -0.248797 -0.14932783 0.18250757 -0.16016877 0.2488101 0.009033137 -0.053391937 0.06563422 0.19605978 -0.05231288 -0.34088573 -0.013539119 0.027376816
