0.12753023 -0.044150934 -0.08124033 0.048587564 -0.17796783 -0.040370874 0.09835158 -0.09741915 -0.111141495 0.11667126 0.2770037 0.20162328 -0.19366343 -0.20465271 -0.28833085 0.13312358 -0.08579195 0.1100146 -0.13719109 -0.17954145 0.23061967 0.29119805 0.25075483 0.09658535 0.21431507 -0.005234824
-0.017100789 -0.1649193 -0.17193706 0.19299717 0.13601471 -0.15218507 -0.18392384 -0.044161692 -0.036634892 0.31656718 -0.21636401 -0.16220905 -0.020176731 0.11647351 0.27974355 -0.220076 -0.073842876 -0.039692234 0.16326125 0.26047498 -0.13467276 0.03672553 0.10470564 0.12227369 0.2581405 0.016005049
0.01516852 0.15829581 0.06495092 0.17491308 -0.032559752 0.05124101 0.3012367 0.14438738 0.12323928 0.14504816 0.18620385 0.057951324 0.2655249 0.047415856 0.248878 -0.37487674 -0.26861513 -0.29734358 0.033546012 -0.19942468 -0.38386968 -0.2852359 -0.21676339 -0.36321837 -0.063667744 0.052231293
0.039779324 -0.074930005 0.05628496 -0.050036177 -0.05153415 -0.043720074 -0.064802736 -0.26892546 -0.036372975 -0.12823936 0.09196126 -0.21848501 -0.0018172135 -0.20197964 0.06187537 0.21077687 0.06562141 -0.05348947 0.056207784 0.09826851 0.18394741 0.24521036 0.17454283 0.30569616 -0.00030521268 0.0010964972
0.1339978 -0.12526566 0.18261911 0.06911737 -0.15060979 0.22609434 0.122490756 0.08821469 0.19705938 -0.06832475 0.18695557 0.11829696 -0.03787269 0.16607584 0.054432634 -0.15714853 -0.006683763 -0.10265807 0.04279323 0.09628647 -0.07960865 -0.00082915224 0.06722548 0.09337386 0.180376 -0.012788324
-0.23894173 -0.113955274 -0.10887309 -0.1305675 -0.15624875 -0.14494933 -0.22695534 -0.29605606 -0.0748441 -0.046767063 0.13315697 -0.039227385 0.092576355 0.13728675 -0.006589385 0.22015885 0.27569816 0.09370474 -0.013395023 0.13620609 0.26173022 0.09137193 0.11399179 0.20833994 0.23875035 0.01337607
