0.14678115 -0.056932867 -0.102072485 -0.10179601 0.07159242 0.10686443 -0.056061573 0.074438326 -0.063114084 0.008710722 -0.060288157 -0.00063873635 -0.006864731 0.052911494 0.02562986 -0.12009188 0.051845398 0.13335437 -0.048566613 0.094265796 -0.062660225 0.08439209 0.08455196 -0.065054685 -0.076097704 -0.10884492 0.029990831 -0.08625657 0.059203528 -0.067906715 0.050554052 0.08972658 0.098793 0.024522241 -0.030761564 -8.875324e-05 0.1216765 -0.06120638 -0.06804961 0.09706341 0.113967724 -0.021643868 -0.043586034 -0.03533154 -0.07689516 -0.025674796 0.03048681 0.13708623 -0.029396225 -0.11679704 0.119677484 0.002929725 0.084358 0.05032268 0.046949297 0.017688978 0.054977816 0.061450783 -0.08062724 0.00576226 -0.0027636618 0.08844492 -0.059441097 -0.11229999 0.12328802 -0.088380374 0.080371216 -0.019705936 -0.0063296366 -0.050704878 -0.09960516 -0.02589144 0.122875914 0.023348404 -0.010045845 0.11407575 -0.10872388 0.12180745 -0.071906984 0.05756408 0.12627615 0.08025694 0.16135074 0.07930699 -0.05879186 0.057442848 0.123957045 0.06586468 0.056700483 0.110233285 -0.10047231 -0.04047598 -0.09287243 0.078379676 -0.08697094 -0.029192772 0.12092372 -0.07275808 0.08560181 -0.014219567 -0.062649556 -0.08726844 -0.07010068 -0.08807989 -0.0941876 0.102054365 0.14591669 -0.045558196 0.035558563 -0.022707995 0.108967416 -0.11134477 0.15814248 0.038338643 0.036040876 0.12207012 -0.09371623 -0.123549916 -0.07412079 -0.10153783 0.0627001 0.024946623 0.10961102 0.021835392 0.077652976 -0.0826579 -0.026541442 -0.0900544 -0.07028756 0.04262668 0.04483697 -0.043338533 -0.0249922 0.11511812 -0.04002583 -0.02587655 -0.08792778 0.038807943 0.091084234 -0.056253612 -0.030649738 -0.051071502 0.054359734 -0.06278037 -0.018423595 0.08196448 -0.072382234 0.16171832 0.056683123 -0.055095747 -0.006004292 0.07283635 -0.008814316 -0.0773287 0.110020004 -0.0077829887 0.013917225 -0.077420086 -0.006323037 0.035496082 0.06613922 -0.06315719 -0.12562676 0.0616881 -0.12117298 -0.12344185 -0.082611024 0.10814854 -0.034134973 -0.01838823 -0.0992237 -0.028698549 -0.043259975 0.037074115 -0.05767152 -0.09691387 -0.05183086 -0.10295415 0.062656544 0.12425353 -0.06760481 -0.04608663 0.11639256 0.10531693 0.05781444 0.052795157 0.017648699 -0.15198682 -0.05207223 -0.07338597 0.037685562 -0.06884366 0.014790852 0.105920754 0.05420033 -0.05785616 -0.019544661 0.083210945 -0.0075112213 0.07748146 0.057352737 0.015187388 0.13481507 0.009017077 -0.040951822 -0.030075248 0.065916866 -0.13713363 -0.018683873 0.050807066 -0.07799601 -0.026500039 0.07959603 0.05203858 0.09255938 -0.05843605 0.017233564 -0.07735549 -0.121235736 -0.01645131 -0.0323003 0.016386366 -0.046261698 -0.06825519 0.08775538 0.049301185 -0.10869156 -0.016310018 -0.08294868 0.16250864 0.005921859 0.028945263 0.10278424 -0.10931168 0.027329747 0.047414996 0.06788653 -0.019279288 -0.027734283 0.017721439 -0.019783163 -0.065649 0.0711462 -0.028999519 -0.07601181 -0.06409731 -0.0739307 -0.09409798 0.105456986 0.09457965 -0.035801783 0.038669005 0.117039785 -0.029532904 -0.014581014 -0.022328703 -0.009433102
0.05612894 -0.10196617 -0.06429447 -0.08768591 0.06752687 -0.016030136 -0.0052648797 0.16225937 0.029236991 0.026085284 0.1664341 0.0029294142 -0.088882975 -0.020821985 -0.019232374 -0.14249624 0.09946428 0.06879898 0.12807718 0.04075899 0.024472484 -0.09170042 -0.096428305 -0.03102792 0.10829684 -0.058638517 -0.07890011 -0.11758257 0.0054419413 0.08304088 0.04081749 -0.1251242 -0.042147223 0.056773104 0.16583824 0.040220615 0.014148414 -0.089292824 0.005199914 0.058643557 0.068536095 0.02395464 -0.065135375 0.08071167 0.018082742 -0.13442984 -0.08585577 -0.057655256 -0.09494813 0.016735032 -0.031223409 -0.05366083 -0.08220951 0.10023654 0.071463294 0.12046546 -0.0079808915 0.06687921 0.03782379 -0.05170911 -0.06643048 -0.024421746 0.03981992 0.1450988 -0.013545084 0.016061971 0.061473276 0.16989589 0.023821965 0.11046844 0.05385093 0.015632719 0.018221246 -0.057560913 -0.09102679 0.005039137 0.09839995 0.05427879 -0.097688355 0.04905633 -0.016598335 -0.049136408 0.01237812 0.06384247 -0.092615254 -0.01931617 0.10677119 0.030347819 0.07198781 0.10412502 0.0538303 -0.053565405 0.07491177 0.039001293 0.03205856 -0.05442921 -0.024442825 0.051089834 0.102471426 -0.05222732 0.15989195 -0.07162174 0.046301454 0.014540646 -0.11418675 0.07322914 0.058141027 0.17079458 -0.05266468 -0.07627545 0.14101622 0.090522945 0.108853325 0.048848275 0.075664625 -0.04910226 0.114451654 0.03957228 -0.12010334 -0.101153895 -0.065452605 -0.022604834 -0.016801782 -0.02143285 -0.099952504 0.07285541 -0.15981819 0.006979201 0.11918712 -0.088122174 -0.0497558 0.050122708 -0.09106857 -0.031664867 -0.022016801 -0.06292852 -0.043893464 -0.04936765 0.0879444 -0.021880623 0.062152423 0.018364891 -0.06567946 -0.036838096 0.06285429 0.1415 0.14095499 0.089566104 -0.0073689893 -0.06003309 0.060645964 -0.025075091 0.01588769 -0.02892062 0.05805446 -0.011498248 -0.08596039 -0.14709121 -0.048393957 -0.08969401 0.12336274 -0.055812802 -0.058731727 -0.02497285 -0.09112136 -0.033028234 -0.13627832 -0.100697815 -0.06986042 0.16001506 0.09319817 -0.08993498 -0.09324092 -0.17179383 0.13250928 0.08188107 0.015694909 -0.08139819 0.08903862 -0.033150483 0.097206965 -0.12432235 -0.09613945 -0.11983514 0.064614736 0.004060304 -0.012854346 -0.01531789 -0.14223856 0.03041903 0.117375396 0.020679295 0.09252518 0.06756387 -0.015520388 0.04385894 0.07587179 0.094523326 -0.07607347 0.050201565 0.090222046 0.10616197 0.10596788 0.101432405 -0.055772502 0.026280971 -0.08546783 0.09611377 0.17618896 0.12991436 -0.03542177 -0.108189404 0.12400966 -0.11040975 0.10614489 0.09745627 -0.049368773 -0.02284475 -0.06509091 0.095225036 0.091075726 -0.04009864 -0.07948426 -0.13573532 -0.004304821 -0.07175398 -0.0002533992 0.0097317975 0.056406572 -0.07060464 -0.06963941 -0.057909485 0.08803606 0.14867578 0.046169147 0.09992687 -0.09046198 0.042724367 -0.061628643 -0.0044054966 0.09645868 0.12700127 0.0770462 0.012929975 -0.017095705 -0.13016394 0.029275013 -0.03559962 0.023526821 0.041424688 0.10600727 -0.11985342 -0.04574878 -0.104785375 -0.12862784 0.036853258 0.0060553458
-0.08018656 -0.047918808 -0.017837213 0.023112413 -0.09340624 -0.039074425 0.14633156 -0.060635813 0.012628819 -0.14387564 -0.007067326 0.06485688 -0.07728853 0.052697483 0.05925728 -0.03380516 -0.082463294 0.016883815 0.107640706 0.16052791 -0.005843778 0.02608814 0.07404625 -0.074504845 0.10787625 -0.09964464 -0.17245136 0.038887806 -0.0099479295 0.09382209 -0.10392021 -0.070328705 -0.10916404 -0.14418203 0.07438832 0.015080032 -0.0016486732 -0.020999366 -0.08600577 0.04361514 0.084684044 -0.020145942 0.11116273 -0.049632333 -0.07897401 -0.037166454 0.035206396 0.08753136 0.04497042 -0.043486137 -0.06692183 -0.021341698 0.1342619 -0.065114856 0.041598532 -0.07992779 0.05510199 -0.0022181263 -0.10111946 -0.106055915 -0.007777255 0.04053737 -0.039971698 -0.038794033 -0.06167892 0.069423206 0.002819628 0.07982275 0.027611626 0.013020499 -0.036745068 -0.055938512 0.0252644 -0.10944036 0.08950922 -0.039761934 -0.011649304 -0.14281617 0.051586673 -0.07938228 -0.029598834 0.07128131 -0.015212419 0.11924597 0.06616969 -0.011405863 0.13576391 0.015840996 0.10475216 0.052459218 0.015197542 0.0032502988 0.11848255 0.0671201 0.029490283 -0.1310689 -0.09608897 0.073910326 0.088312425 -0.0015601249 0.02274444 -0.08543497 -0.031032156 0.1274401 -0.007902914 -0.07893145 0.121952236 0.13782029 0.05960761 0.10862665 -0.014153422 -0.048868682 -0.040404994 0.11765919 -0.07835099 0.016809275 -0.077504516 -0.019890772 0.056360245 -0.10688193 0.068367586 -0.13770927 -0.1269959 -0.018806227 -0.1504084 0.028030816 -0.040465534 -0.014727128 0.104596235 0.08040716 -0.062456504 0.064035445 0.03771852 0.10522541 0.047311857 -0.045599118 0.04252647 0.036793407 0.07345344 -0.07654892 0.15197663 0.16729811 -0.09268073 -0.10443874 -0.016377872 0.066230826 0.07545025 0.044634476 -0.023843028 0.101273924 0.06910476 0.010145023 -0.071521446 -0.13203137 -0.07341451 -0.06288768 -0.01491264 0.06408607 0.0752479 0.020258248 0.14311591 -0.08473695 0.006725443 0.03560706 0.09340673 -0.12698808 -0.12545198 0.054903988 -0.04010983 0.10682813 0.0010183479 0.023903504 -0.04564529 -0.09302765 -0.041931227 -0.07431604 -0.13302612 -0.09065725 0.11374518 0.08955793 -0.15072292 0.073727384 0.088248365 -0.0010936224 0.08853421 -0.05034453 0.14340632 0.1396018 -0.05179133 -0.11108654 -0.06634643 0.14376241 0.0017318849 0.0735532 0.11584346 0.12152436 -0.02107376 -0.13223703 -0.06550895 0.052598823 -0.03722101 -0.07847071 -0.06602085 -0.05994433 0.0074350005 0.01469528 -0.0057372577 -0.03340583 -0.019130804 -0.02308174 0.042635377 0.12037739 0.024957288 0.110837616 0.06802933 0.104809284 0.1060052 0.068561874 -0.026723072 -0.06671344 0.06495975 -0.034831595 -0.07575531 0.008535008 -0.08012536 0.0412473 -0.028665554 0.118176326 -0.07899365 -0.11150018 -0.07273608 0.08793488 0.010165919 0.08112456 -0.06961878 -0.0330328 0.05069904 -0.086244464 -0.033896517 -0.21071862 0.099285886 0.11390495 -0.058671203 -0.0028127052 -0.04789576 0.13506405 -0.08634122 -0.16172102 -0.03535921 -0.0883558 -0.02413675 -0.12510017 0.067637324 0.03560999 -0.19307193 -0.21573779 0.021719068
-0.18092136 0.047021274 0.0076560965 0.12174262 -0.08567359 -0.053871874 0.025386542 -0.049191542 0.102381945 0.14779794 0.08264044 0.11296322 0.080327444 -0.021070952 -0.007491443 0.043114003 0.0777767 0.08408532 0.050224878 -0.036540646 -0.0077325897 -0.038606785 0.09318055 -0.05639485 -0.048781555 0.08657867 -0.0018734904 0.028036052 0.09788596 -0.026394982 -0.0068519274 -0.010060727 0.11558209 0.013015844 -0.07140247 -0.043784037 0.099599 -0.0031898567 0.14825106 0.02890382 0.072412014 0.11576345 -0.05112027 -0.15820284 -0.013799153 0.08179894 0.008728469 0.05347811 0.06645504 0.1365575 0.010001028 0.078535065 -0.088518046 -0.09550245 -0.043781247 0.08445169 0.10348602 -0.05755323 -0.0076464782 -0.038994055 0.005131148 -0.1012002 0.013274395 0.04507464 0.11319687 0.17990798 0.0951678 -0.063911036 0.05478697 -0.07183552 -0.051787913 -0.023893014 -0.09501033 -0.08489344 0.10679202 0.060364056 0.045700926 -0.04334576 0.045971744 -0.11695899 -0.09553628 0.051282637 0.13707581 0.05115919 0.05593504 0.11778877 -0.07382903 0.0054788245 -0.039234675 0.019675685 0.12915927 0.034894086 -0.09270685 -0.014282234 -0.10783298 -0.0643441 0.06595391 -0.07324225 0.03252692 -0.07359792 -0.10887501 -0.019259578 0.12918247 0.0649265 -0.070686035 -0.007065668 -0.018707024 0.077498846 -0.0450729 -0.02211854 0.14460163 0.1743288 -0.011462086 0.1468115 0.09397261 0.10486414 -0.12526509 -0.0664214 -0.016644353 -0.028855499 0.10008257 0.03587202 0.08523677 -0.03462329 0.05686353 0.017652245 0.072449185 -0.14057824 -0.09937713 0.017190125 -0.1394141 -0.07502494 -0.06001348 -0.06709038 0.055434212 -0.007699771 0.01922946 0.058042437 0.0019109331 0.09943882 -0.00088628754 -0.07852647 0.08730192 -0.038788904 -0.034166507 0.0070610447 0.06373926 0.07279182 -0.12418538 0.077843636 0.0045121056 -0.093242355 -0.04471319 -0.053463735 0.06308905 -0.029030388 -0.06724798 -0.069378614 -0.06534344 0.09194131 -0.054048464 0.057135355 0.05888035 0.10679293 -0.08845397 0.0029310817 0.063396096 0.04043399 0.0064863535 0.10501232 -0.0039882315 -0.10052919 -0.13124424 -0.034193113 -0.10417411 0.117367536 -0.0021247903 -0.022656342 0.05664452 0.101469345 0.10795286 0.061246727 0.059433 0.0008384094 0.16537145 0.07496571 0.0962684 -0.09563643 -0.14142513 -0.019216908 -0.11798877 -0.049012214 0.03160788 0.16095725 0.061580617 -0.09632832 -0.1156753 0.07400772 -0.016020572 0.016588774 0.04153438 0.10426055 -0.13718536 -0.016883403 0.14482784 0.017038863 0.05281497 -0.1087387 0.007457167 -0.022381824 0.08648608 -0.111093976 -0.045709282 -0.025564693 0.046360612 0.10442581 -0.12883277 -0.099842064 -0.039249975 -0.036071397 -0.088599235 0.09342451 -0.090274826 0.034102377 -0.031461693 -0.07927209 0.028350059 -0.06353245 0.0042988956 -0.07595286 0.029004043 0.14355998 0.04980908 -0.1345586 0.0771839 -0.061625812 -0.03232951 -0.009875631 -0.08148276 0.0022368229 0.13396885 0.074173525 0.13482139 0.09068844 -0.040289745 -0.13557051 -0.14254652 -0.08731109 0.104452744 -0.08535267 -0.13310401 0.08009895 0.10095357 0.17273033 0.04185034 -0.14446475 0.010066402
0.08810837 0.046555318 0.07142952 -0.014179966 -0.044298958 0.057995345 -0.044281792 -0.05795665 -0.06212165 -0.05179472 -0.024279414 0.043090306 -0.043935053 0.08333368 -0.07585832 0.08469477 -0.09591142 -0.07282342 -0.09064297 0.022467604 0.102203615 0.021265792 0.03836272 -0.070312396 -0.013738119 0.14193867 0.052118476 0.018322391 0.07106423 0.016051076 0.11959177 -0.08109316 -0.086655065 0.14260119 0.122408964 0.11687038 0.06298123 0.08718948 -0.0012873317 0.024065001 0.16920145 0.060821243 -0.0692798 0.13565159 -0.0716821 0.08586313 -0.11042278 -0.11801881 -0.11432712 0.04498917 -0.055759747 0.012279457 0.09975959 0.06339555 0.12340083 -0.012255983 0.11501448 0.04659214 -0.00042681705 0.103362605 0.07144175 0.038574975 -0.061221294 -0.04831052 0.12728007 0.029052682 -0.12553799 0.05629032 0.13639773 0.061716247 -0.032503847 0.09835015 0.072970256 0.12718691 0.0076743327 0.06724709 0.061736517 -0.12595344 -0.03246938 0.0745829 0.053051736 -0.15140262 -0.027393708 -0.10231841 0.014958306 0.026394857 -0.005538196 -0.07305887 -0.03160177 0.082106315 -0.118892394 -0.11432274 -0.09654508 0.08159905 0.0023594352 0.053482074 -0.047880128 0.06010193 -0.06361682 0.19452827 0.031415775 0.060883984 -0.018187175 -0.008961266 -0.008852086 0.08907335 0.098757096 -0.11650221 -0.072421804 -0.064366095 -0.058805265 -0.07590517 0.11382549 -0.059466343 0.043060966 -0.036089227 0.17604445 -0.11094656 0.016557468 -0.116763555 0.06684578 -0.034747273 -0.034694884 -0.08031343 -0.061897267 0.10079517 -0.035459414 0.060741488 -0.11680537 0.088807404 -0.06375512 0.1334555 0.09601781 -0.008079119 0.023800047 -0.10308283 -0.14218783 -0.09749236 0.079958946 0.01775403 -0.0915446 -0.07190675 0.045462146 -0.07797974 0.061766535 0.030453887 0.00608645 -0.005921024 0.14523934 0.11067762 -0.017790433 -0.1331274 -0.0933182 -0.082435004 -0.07118495 0.0074755377 0.0037848519 -0.117457606 -0.033973455 -0.03984689 -0.028750632 0.091596454 -0.05802819 0.07822888 -0.12455924 -0.09408575 0.10323972 -0.055255957 0.07868714 -0.109645225 -0.11998024 0.08389551 0.10260827 0.04764232 -0.0675849 -0.11252799 -0.1284704 -0.09808066 -0.0015780089 0.11031787 -0.047648076 -0.1249945 0.118525766 -0.10183448 0.07317631 -0.043350946 -0.11769905 -0.027872184 -0.0025319809 0.089198716 -0.02258987 -0.13292457 -0.08213625 0.14894971 -0.02773631 -0.053799625 0.1143472 0.032593098 -0.10056792 -0.054052427 0.057739306 0.037835106 0.062149182 0.147396 -0.017980196 -0.0835969 -0.033079635 0.07459619 -0.035563763 -0.07710264 -0.057307966 0.030588567 0.019836422 -0.016292505 0.06260415 -0.0029437484 -0.026877511 -0.018258248 0.055303793 -0.013268974 -0.10593816 -0.08707794 -0.109890275 -0.079952456 -0.07861073 -0.075948015 -0.074856855 -0.006044452 0.062171847 -0.04445893 -0.121295944 -0.11292528 0.0337641 0.03785763 -0.034447674 0.10187652 0.12732327 -0.0034472488 0.073694 0.03169638 0.016538043 0.060491703 0.09420696 -0.06411096 -0.005681962 -0.022352451 0.05123766 0.06579938 -0.05927333 -0.07764617 0.114710845 0.004852793 -0.10468434 -0.054733712 0.0496884 0.104915395 -0.008970506
-0.0048711766 0.059388734 -0.012021022 0.013803151 -0.08617634 -0.0366633 0.021022705 0.013365242 -0.09409172 0.10059949 0.089535706 -0.0038875288 0.088515215 -0.039986897 0.060042385 0.047924016 0.032528233 0.09621619 0.02801434 0.045961414 0.06167963 0.039102063 -0.014892004 0.098967746 -0.0025790865 0.115967624 -0.06757307 -0.047078446 -0.07870445 -0.12711343 0.09621489 -0.007122527 -0.18335505 -0.12118645 -0.13573729 -0.11931639 -0.00097443146 -0.06734459 0.041704487 0.017639073 0.100268506 0.06340638 0.10813049 -0.03055784 0.03919025 -0.07481327 0.03903759 0.031937644 0.047044694 -0.06373795 -0.041389953 0.037469953 0.02012531 0.097249664 0.034392584 -0.00073071994 -0.08290705 0.020692267 -0.13852252 0.108928695 0.06554921 0.020689383 0.0034591693 -0.015590917 -0.10749793 -0.091437705 0.042699326 0.06790982 -0.025872711 -0.11405168 -0.0071130614 -0.081312045 0.10739935 -0.0666408 0.055978686 0.0346387 0.033437267 0.032540046 -0.0104519725 0.09210296 0.15356225 -0.082195565 0.0020261495 0.14067958 0.09409704 0.05587671 0.060855445 -0.034283955 -0.04818553 0.015352514 0.07068284 0.06564512 -0.024093283 0.1503594 0.071088895 0.007859857 -0.020068187 0.074335724 0.12451549 -0.06740156 0.045339607 0.043418538 0.02966684 0.060885638 0.08717951 0.007054218 0.0875398 -0.0013093925 0.051441304 0.03806949 -0.003966031 -0.05935635 -0.072030485 0.06274619 -0.037096266 0.052077748 0.11725812 0.120499566 0.10193525 0.07955419 -0.073363036 -0.030805312 -0.032056123 0.120583914 -0.0108039165 0.015063704 -0.0028665056 0.1067599 0.15379836 0.09448664 -0.08981434 0.16254339 -0.0120753925 -0.16103806 0.15339674 0.06090658 -0.03517525 -0.09844576 -0.070081115 0.07976331 0.13614298 -0.052919906 -0.088755265 -0.013501834 -0.14482126 -0.018192362 0.047133323 0.05222158 0.088005766 0.11173852 -0.0451354 0.043473516 -0.008390461 -0.071713924 -0.10765071 0.20086867 0.07988868 -0.045072075 -0.0118522355 -0.001832827 -0.12522312 -0.13225114 -0.111674376 -0.11959069 -0.083407916 0.051063668 -0.04792874 -0.09444692 0.00516243 -0.11732544 -0.0592137 0.0856929 0.024897646 0.0629118 0.049923114 0.092104726 -0.13532315 -0.099467054 0.101867914 -0.0064297747 -0.040877685 0.06252576 0.0016557211 -0.0833049 -0.08355733 0.13614264 0.0073947613 0.08587571 0.09737899 0.087569654 -0.004461449 0.0076572453 0.029794019 -0.052360464 -0.10166003 0.10513226 0.028047606 0.058837924 -0.015911952 -0.04950061 0.076612234 0.013026698 0.01148899 -0.14785805 -0.1092846 -0.093429334 -0.040014632 -0.0064918213 0.0049718707 -0.073897995 0.05045552 0.045372006 -0.038884137 -0.049325503 0.048625834 0.017701434 0.12626885 0.14379907 -0.0021911436 -0.0856088 0.167639 -0.056051522 -0.061313134 -0.00414828 0.02883211 -0.069531046 0.13572703 -0.08037865 -0.024607792 0.05976312 -0.05646425 -0.050246697 -0.03200301 0.09191605 0.040746722 -0.0606648 -0.025531584 0.074473284 -0.015596804 0.018303754 -0.08718232 -0.07855567 0.051390693 -0.001977832 0.094310336 -0.08571544 0.07609773 -0.094443835 -0.08011718 -0.04769801 0.06962025 0.051045455 -0.10191872 -0.02398434 -0.010915748 -0.07867126 -0.0011688801
0.09148491 -0.060606744 -0.08138805 -0.0033424746 0.07790386 0.07476312 0.05931157 -0.10037096 -0.07375637 -0.08353568 -0.05084573 0.003189565 0.08826346 0.09283901 0.10264625 0.008008456 -0.09842303 0.04876079 0.11586927 -0.06405616 -0.077718176 0.029739037 0.091719665 -0.10809768 0.08538185 0.12563536 0.08945713 -0.026269125 0.08082107 0.026691334 -0.005941475 0.04881812 0.0636655 0.02968491 0.012365582 -0.07549629 -0.079912916 -0.090337746 -0.1053474 0.060052626 0.11308474 -0.021283377 -0.04523206 0.048039947 -0.040484056 0.07099472 0.10642654 -0.049950313 -0.0067144525 -0.16443309 -0.010608138 -0.023667546 -0.08360546 -0.059582893 -0.046089392 0.106407896 -0.10253998 -0.04593138 0.053839132 0.12489603 -0.112469584 0.06347794 0.08373425 0.04596098 -0.034372225 -0.070154116 0.03841498 -0.09260197 0.06823187 -0.06069161 0.06679982 0.07916111 -0.062102534 0.093784615 0.06508948 -0.026858652 0.07122281 0.05947807 0.04889617 0.028567923 -0.0036187565 0.13503568 -0.018979788 0.1527859 -0.07986279 -0.07011296 0.110085994 0.0852202 -0.012920746 0.039002623 -0.1004031 -0.116538875 0.12800556 -0.07834781 -0.016801018 -0.040871393 0.067264244 -0.048566 0.014107779 0.13743746 0.1100656 -0.10187677 -0.097191945 0.11467968 0.055895828 0.1275421 -0.0746615 -0.07221691 0.16282132 0.1297472 -0.09094484 0.012484426 -0.12579308 0.05926642 0.023193324 0.08171965 -0.053821176 0.024174444 0.046444494 0.15214804 0.03554298 0.0069127916 0.17451036 0.07219491 0.019381462 -0.1155487 -0.02624772 0.11720763 0.06901213 -0.081295595 0.045509033 0.043908272 -0.017616348 -0.038203474 -0.028366212 0.024727624 0.09344784 0.08930425 0.023867263 0.03274271 0.1340827 0.064343676 -0.09610416 0.053652592 -0.12016445 -0.037385214 -0.016827032 -0.13533922 -0.042833537 -0.034534257 0.081247136 0.089773245 0.042874034 -0.008399612 -0.046036705 0.05636692 0.05944937 0.09228348 -0.022078007 -0.08757105 0.09736535 -0.03934466 0.041490953 0.017191099 0.056598626 0.06617567 0.016520329 0.0577294 0.09322399 -0.09346078 -0.0050387373 0.02996387 0.011258895 -0.117839366 -0.038837098 0.023895025 -0.11504456 -0.121925935 0.08338687 0.054112963 0.0043955618 -0.12299019 -0.11165094 0.0370747 0.034377534 -0.11370814 -0.052489344 -0.018138496 -0.08388652 -0.05222439 0.0038875306 -0.08479021 -0.010407273 -0.14484653 -0.0809125 0.009981332 0.1203767 -0.006692261 0.10866426 -0.10976893 0.008860414 -0.059759766 0.08123618 0.08785502 0.026740626 -0.08497385 -0.05940122 0.16359863 -0.10102665 -0.06806136 -0.06393829 -0.040019214 0.120020844 -0.09570814 0.0065328777 -0.0040374426 -0.023424951 0.16945753 0.0041106245 -0.11399615 -0.026626963 0.09571621 0.0013341166 0.1071465 0.0008011527 0.03677884 -0.046169363 0.124043226 0.120025635 -0.07174254 -0.07743649 0.026542153 0.02412111 0.11408509 0.08885281 -0.106271766 0.03784324 0.015630089 -0.09225955 -0.0314066 0.06394138 -0.10807295 0.074215986 -0.070814855 0.15861557 0.008191579 -0.037116986 0.04752384 0.09930103 0.08321317 0.0315145 0.029194169 -0.09944879 -0.13755527 -0.10585694 0.029427262 0.009738689
-0.084398195 0.038573172 -0.09180181 4.0863742e-06 0.0013520377 0.01563006 -0.121580005 0.1787252 -0.053758528 -0.0043966426 -0.035665505 0.03113992 0.035261303 0.032046463 -0.115530714 0.13967207 -0.046295 0.026043301 -0.11677929 -0.123920985 0.0014845243 0.14073144 0.10667292 -0.03383065 -0.04542703 0.07553724 -0.055845596 0.056859378 0.018803976 -0.12194261 0.104331404 -0.063351974 -0.013974214 -0.09130658 0.054101247 0.08798526 -0.010064576 0.011403964 -0.09440009 -0.034654904 -0.123377115 -0.14609091 -0.046807777 -0.0153338695 0.063089296 0.005171285 -0.000137861 0.10948513 0.122006215 0.10245389 0.15576881 0.009996602 0.062942415 -0.05518293 0.15051205 -0.10672245 0.009178522 0.110646 -0.045992527 -0.0023115587 0.10959763 0.0029956242 -0.01120855 -0.1314979 -0.063117765 -0.048566014 -0.11860394 -0.07548098 -0.08111581 -0.038513947 -0.018954672 0.20286761 0.09010068 -0.10395776 -0.025791889 0.05986621 -0.033094417 0.072070904 0.0064512305 0.11257701 0.052229997 -0.057213224 0.047839276 -0.02557037 0.026024025 0.15094146 -0.056367017 0.13559894 0.037748065 -0.09097366 -0.006545194 -0.09728167 -0.028206022 0.07710453 -0.18063241 0.0032209954 0.09581377 0.048550755 -0.009044652 -0.089901835 -0.007102648 0.06233976 0.022863084 0.11070699 0.08901873 -0.0017957169 0.10408204 0.103215344 0.055697255 0.03108596 0.06734376 0.042034715 -0.077680804 -0.12736209 -0.039196298 0.13080065 -0.014162918 0.077681474 0.024914538 0.00029646183 -0.0409586 -0.05036685 0.019761268 -0.021364508 0.11714165 -0.054453816 0.093028754 0.05843706 -0.0038711396 -0.043273605 0.07445597 -0.085268974 0.024480434 -0.044028275 0.087879755 0.07306193 0.11690874 -0.052351225 -0.02176628 -0.031543814 -0.05234499 -0.07053082 0.10826772 -0.07411263 0.08475899 0.059326548 -0.014534057 0.18023324 0.056442842 -0.08232406 -0.110737234 0.07684108 -0.01173072 -0.083194576 -0.098412514 0.102439925 -0.08945435 0.079792045 0.17899911 0.07140714 0.091417484 0.027635781 0.089567564 0.2437968 -0.09895333 -0.0311738 -0.036296465 0.094460905 0.0050394814 0.06347894 0.023360217 -0.15911435 -0.007708429 0.12320315 0.12710701 0.055313773 -0.10623272 0.057289544 -0.0076004253 0.05442073 -0.0797524 -0.0757841 -0.06600343 0.03352256 -0.113469735 -0.09092402 -0.10052101 -0.073523365 0.088038884 -0.008445587 -0.03317974 -0.05596635 0.04907848 0.014574971 0.013906391 -0.0376705 0.046304654 0.14793468 0.05192029 0.16556738 0.09573622 -0.044351377 0.053105827 -0.11115463 0.07776891 -0.024503144 -0.019058583 -0.12725501 0.0039095245 0.07383317 0.073721275 0.06836001 0.068548374 -0.057250623 -0.120413736 0.0120411115 0.19453089 -0.08824144 0.002838408 0.13056566 0.16408432 -0.041293684 -0.026421176 -0.048606813 -0.06284629 0.11029658 -0.0477067 -0.12634315 0.0960386 -0.0735392 -0.047927707 -0.14939986 0.0063771037 0.067595534 0.0083150845 0.10666257 -0.022532964 -0.08015913 0.06375455 0.07688599 0.09681822 0.03283977 0.08151051 0.15350416 -0.007143842 -0.09492125 0.13739273 0.07781455 -0.11098585 0.07227353 0.13788252 0.060726352 -0.15951823 -0.033047512 0.06786598 0.09984792 0.015546467
-0.053445518 0.057234135 0.0883092 0.016460001 0.14853932 0.11342341 -0.14460666 -0.08577834 -0.03885619 -0.013924889 -0.033085067 0.048607107 0.12210838 -0.11069802 -0.10761938 0.0054648337 0.10415493 -0.10071986 0.08084885 0.111927666 -0.098469965 0.06065316 -0.0058074007 0.02239701 -0.12813321 0.103578106 -0.055054814 0.028192613 -0.07028028 0.104631245 0.14120159 -0.010255124 0.09406729 0.051092703 -0.108325906 -0.020959895 -0.08920023 -0.08609974 -0.0625546 0.056247473 0.044736154 0.13742274 0.16566706 0.07006572 -0.016382333 -0.09920036 -0.12153868 -0.13885489 -0.011860365 0.05652687 -0.1428809 0.024710136 -0.025338376 0.08925033 -0.07395948 -0.11011838 -0.03522203 0.049110502 0.08159563 0.11031848 -0.063638926 0.030835606 0.011723837 -0.0799088 -0.050000127 0.053262725 0.023669386 -0.042654473 0.060608573 0.015048476 -0.03125483 0.06120924 0.04751583 -0.0014622102 -0.10428865 -0.028075844 0.052290104 -0.00081566966 -0.066587426 0.050839487 -0.045608405 0.05675682 -0.090380624 -0.01991189 0.027334113 0.13815027 -0.084828496 -0.17320381 0.12066835 0.14021833 -0.14483388 0.10712292 0.07618595 -0.038988225 -0.026213855 -0.13075854 -0.025565678 -0.039498825 -0.0068389145 -0.10601128 -0.085920066 -0.08673014 0.08340618 -0.013980797 -0.10190612 -0.054685272 -0.06525965 -0.0476307 0.1237424 -0.014958698 0.03716471 0.031050108 0.06023466 -0.032705806 0.07173745 -0.046360027 -0.049885966 0.11620692 0.12424829 -0.013438221 -0.09529458 -0.022999065 -0.0109727625 0.037959307 0.08360229 0.009212109 -0.0059076124 -0.097482234 -0.014280596 -0.003966338 -0.117459 -0.02877363 -0.025010878 0.0867632 0.1059649 0.10738457 0.1040071 -0.029724497 -0.019246906 -0.074993275 0.036021538 -0.009250457 -0.11433761 -0.0020916217 0.106876716 0.1652115 0.030298227 -0.08745771 0.08297876 -0.067019336 0.03888002 0.022237055 -0.0029446487 -0.022959437 0.09144557 -0.15774462 0.13523808 0.15084964 0.012006242 0.10437586 0.01720017 0.038770936 0.10793185 -0.0670118 0.049376383 -0.056998022 0.007248066 0.01745197 -0.06732116 -0.03154719 -0.00080740714 -0.024984732 0.041161925 0.006868259 0.002453305 -0.17259744 -0.10157673 0.052091904 0.031010248 -0.011152555 -0.076353066 0.040265117 -0.13512729 -0.10376857 -0.015088939 0.09498337 -0.11928343 0.106834054 0.0019895437 0.09761652 0.07395364 0.09564266 -0.055314764 0.093040146 -0.042973444 -0.06416126 -0.14248456 -0.13621587 0.02132173 -0.016823646 -0.14146145 0.034672543 0.083614774 0.06743385 0.10786317 -0.011522129 0.05192315 -0.033649094 0.08735126 0.075271755 0.06878617 0.089241266 -0.087188326 0.014694447 0.06318275 0.09925789 -0.010652618 0.1928706 0.0023687084 0.08883797 0.074383005 -0.023589307 0.1151543 -0.03913221 -0.0626076 -0.1414589 0.023186965 0.1487749 0.04385958 -0.12794052 0.035059795 0.08925014 -0.005322908 -0.0682469 0.02395372 -0.0494171 -0.07315108 0.06026164 0.0064594722 0.111976735 -0.081547 0.01537677 0.14316276 0.021414412 -0.023960352 0.057067618 0.023675853 0.118238986 0.06930481 0.011725892 -0.14211194 0.0053798677 -0.04431772 -0.09042726 -0.019959077 -0.10972917 0.008555547
0.10743965 0.029174697 0.1298976 0.045928027 -0.023770956 0.088683665 0.017175345 0.007972958 -0.07549335 -0.08212339 0.02771886 0.13920511 -0.053516038 0.034185544 0.07845487 0.076345995 0.053641886 0.050937228 0.056426995 0.013105992 0.0011080244 0.07618116 -0.05468693 0.020099295 0.10566044 -0.06514784 -0.008515244 -0.09939592 0.11087113 -0.12878552 0.06267475 0.08224327 0.03266152 -0.01591537 0.08300791 -0.15084125 0.07788355 0.06311163 -0.045355115 0.054559086 -0.00065397116 -0.04373722 0.057874266 0.04420916 0.0049548405 -0.07584264 0.076082915 0.07407649 -0.028709188 -0.062865816 -0.12741718 -0.0043597645 -0.043107126 -0.08689345 -0.045728058 -0.10679942 0.03385645 -0.06408171 0.08737516 0.07919481 0.029590156 0.13084336 0.066081345 0.11703188 0.07071046 0.16376677 0.16190487 -0.015108884 0.09560964 0.019026496 0.10397979 -0.083602846 0.029533437 0.03546437 -0.053421356 0.090120755 0.09895987 -0.07016997 -0.016007764 -0.029961115 -0.0008303083 0.099943765 0.16392387 0.17399052 -0.07569028 -0.14463443 0.048943017 0.054761123 -0.029015824 -0.025660932 -0.017499208 -0.098181844 0.082343586 0.018729657 -0.04950736 -0.06608827 -0.13924421 -0.05251366 -0.002576888 -0.040555842 -0.056800194 0.013616416 -0.0997077 0.073836766 0.17405225 0.012642018 0.027424892 0.057690144 0.15601926 -0.06504982 0.13420238 0.045307588 0.061022244 0.12069086 -0.08155424 -0.023238149 -0.074688114 0.11167271 -0.064446956 -0.0958658 -0.040882338 0.027681265 0.09890081 -0.009679255 -0.10937054 -0.025319975 0.13178656 0.12551792 0.028315779 0.07189353 -0.038230866 0.110856555 -0.075209744 0.07378599 0.16503827 0.06616673 -0.04889386 -0.1311188 0.11606473 0.050754424 -0.029754482 0.10899328 -0.0060992767 -0.11281682 0.019486213 0.075626105 -0.027605245 -0.09411917 0.037865706 0.10393538 -0.061957207 0.04909245 0.09006119 -0.0126573285 0.06273523 0.071679264 0.00081663526 0.0039786897 -0.07673679 -0.015743898 0.051363457 0.056063686 -0.13520247 -0.0013434881 0.0708535 -0.1165989 -0.07637004 -0.10971073 -0.13138586 0.062901005 0.010218998 -0.047076147 -0.0077456697 -0.027853271 0.015810221 -0.006052519 -0.09964782 -0.110208474 -0.14051466 0.04179412 0.049586367 -0.14303873 -0.016229335 0.10075953 0.10314261 0.010746093 0.012053569 0.09317035 -0.067112885 0.04685141 -0.03793515 0.12611201 -0.06556958 0.052241556 -0.046104334 0.120436355 -0.050265443 -0.06359151 0.055849247 -0.03209049 0.0825861 -0.036396045 -0.03236272 0.08996873 -0.112576425 0.03277754 0.059498277 0.14493704 -0.075190865 -0.021461645 0.07072312 -0.030108282 0.026520496 -0.03461765 0.1433869 0.21798235 -0.033186693 -0.06804215 0.013848698 0.10728374 0.068160735 -0.079205774 -0.018274691 -0.12334665 0.018460242 0.023776816 0.15221025 0.05638361 -0.076762065 0.18797599 0.13226643 -0.052797627 -0.029468821 -0.0005300639 0.023026109 -0.058519486 -0.008581506 -0.09633274 -0.104018115 -0.094381616 -0.0593598 0.15610938 -0.026985161 -0.08562182 0.031786647 0.15206307 -0.027656581 -0.09731761 -0.014437761 0.08348088 0.13931759 0.0021256455 0.13419533 -0.08111877 0.10131711 -0.0130720185 0.025957797
-0.121022545 0.09058084 0.081643805 -0.105050325 0.011904828 0.12950207 -0.07024432 0.099530496 -0.018452063 -0.07106446 0.04454615 -0.00514631 -0.07089537 0.08343235 0.087459266 0.0015233981 0.08980859 0.061715137 0.09719734 0.13392885 -0.035934582 -0.03025244 0.038846787 0.11466052 -0.014663097 -0.027312417 -0.12680584 0.042197656 -0.022909908 -0.11472777 0.045583148 0.059569057 0.0054314462 0.051140856 0.14403869 0.16869898 0.09421691 0.118696496 -0.09409182 -0.14087906 0.08079401 0.012692955 0.035384748 -0.023987625 0.12204233 0.076473795 -0.06956106 -0.0592857 -0.114407495 0.09926027 0.08581804 -0.09824824 0.07501245 0.007650323 0.026837735 -0.10150904 -0.048839517 0.0925125 -0.023140363 -0.024851093 0.042724997 0.05112251 0.01063891 0.023506874 0.0041397945 0.13932717 0.1601402 -0.0020529656 0.081200324 -0.12413163 0.032353856 -0.074725635 -0.015857093 -0.121180795 -0.11726251 -0.005877279 -0.083514675 -0.105527826 0.0739819 0.12196109 0.050316717 0.012964956 -0.04592264 -0.05871921 0.088351004 -0.123587124 -0.096264556 0.04405197 0.11089796 -0.018770842 -0.0813894 -0.08388564 -0.09401944 0.09815432 0.063697994 -0.03078251 0.07783989 -0.061491024 0.03451252 -0.057568073 0.066920474 -0.13033177 0.011854945 -0.03448034 -0.12697232 0.038769294 0.022787299 -0.00815905 -0.04573532 0.11847075 0.056473106 -0.032677636 -0.09026294 -0.007387729 0.08661716 0.018218977 0.025960661 -0.09005014 0.08029618 -0.0902157 0.10330522 -0.13084596 -0.076278485 0.02371586 -0.04590722 -0.06667236 -0.037308373 0.08622896 -0.11242156 -0.017324246 -0.11131792 0.033060312 0.082179345 -0.09257568 0.043068446 0.038775936 -0.009570332 0.094199896 -0.113133386 0.032508682 -0.073323816 0.0857933 0.045617387 0.01750761 0.014608165 0.09263193 0.17293641 0.092581175 0.06629724 -0.10655433 0.08284074 -0.11040278 -0.082258105 -0.09417477 0.0796414 0.06232149 -0.021221898 0.021909662 0.047372628 -0.13403557 0.020956226 0.14210969 0.058267027 -0.05613989 0.02555326 -0.04627692 0.09879443 -0.115198344 0.016721755 -0.09347024 0.12136537 -0.018267501 0.054306664 0.03926294 -0.07906126 -0.025722636 0.11855793 0.06901172 0.100726694 0.1087612 -0.06845303 0.063564025 -0.10740994 -0.07527435 0.10196258 -0.031682245 0.06967318 -0.031628225 0.100249164 0.07550462 -0.059092715 0.001289601 0.031786133 0.052936837 0.14328015 0.057640646 0.095957965 -0.058829863 -0.0036223147 -0.06847893 -0.08926173 -0.06840388 -0.10555365 0.053333063 -0.08092442 -0.096381545 0.085739985 -0.04177463 0.124222495 -0.045678582 -0.0953474 0.06070179 0.021950599 -0.02602431 0.07065782 0.14926037 0.050659932 -0.014147309 0.05891166 0.04199645 0.051645145 0.0075828093 0.06564055 0.07322552 0.025144573 -0.13351116 -0.09495864 0.12475567 -0.06905409 -0.12836786 -0.07127432 -0.039778408 0.10114359 -0.040846657 0.011195036 0.028209118 -0.08650682 0.07139406 -0.0007580323 -0.12766261 -0.10616323 -0.007958619 0.023238158 0.10891833 0.05440277 0.0804267 -0.09605388 0.0861937 -0.016169554 -0.027595593 0.04358741 -0.012050982 -0.004646524 -0.038956217 -0.054223813 0.06909483 0.0020715802
0.03078533 -0.0038987754 -0.032029416 0.0040840637 0.12234835 0.08832647 -0.024243167 -0.060940795 -0.019497672 0.03214589 0.08915457 -0.036066957 -0.006401524 0.03142474 -0.0030669128 -0.051826682 -0.11254978 -0.11689831 -0.00053159136 0.18662237 0.056829028 -0.10294785 0.08823287 0.10207448 -0.03990411 -0.14011951 0.14604154 0.063593686 -0.0330127 -0.07055723 -0.09912919 -0.033478953 -0.0073420973 -0.07621787 0.041996595 -0.08774582 -0.11503442 -0.062744975 -0.04839088 0.055135544 -0.109360434 -0.07006642 -0.09072069 0.15182748 -0.062968224 0.018287838 0.09637814 0.035111595 -0.06917908 0.08088713 0.037037708 -0.071463935 -0.05112092 0.018868519 -0.090489164 -0.14654075 -0.09061211 0.080534086 -0.044288013 -0.04876991 0.10479686 0.09645651 -0.099240154 -0.059893478 -0.05744214 0.15235828 0.11817667 0.0901995 0.13347913 0.0001184594 -0.109466046 0.046800084 0.071077935 0.03903227 -0.04656843 0.05121917 -0.0050617894 -0.07836724 0.068322726 0.08058537 -0.097909726 -0.00022484368 0.12839189 0.2291969 -0.10349874 -0.08436592 -0.021643836 0.043980036 0.009460031 -0.091281645 0.039590485 -0.007802466 -0.07709768 -0.018485457 0.047834504 -0.102547675 0.08143014 0.07631945 -0.10635211 -0.14216079 -0.06050734 0.021216659 0.05767308 0.11112377 0.1033582 -0.013152241 -0.058103755 0.074073926 0.050075743 0.13084944 0.09727698 0.06207445 -0.07108614 -0.0038395813 -0.03800994 -0.059581883 -0.060062658 0.07233863 -0.025567878 -0.027949253 -0.052628834 -0.06612764 -0.033901386 -0.09639109 0.058104217 0.060826287 0.017314052 0.116873585 0.06923182 0.011387072 -0.07891329 0.043482684 -0.055260114 -0.09727036 0.109316565 0.17306359 0.04718279 0.082572326 -0.10527082 -0.09105935 0.073618636 0.09231864 -0.1509715 -0.06164686 -0.029701572 0.13340802 0.03291988 -0.0044076433 0.0030021437 -0.002894539 0.024804877 -0.06046387 -0.14997846 -0.060198307 0.07507047 -0.07061907 0.10944981 0.04250343 0.120982684 -0.064674616 0.058694504 0.06044878 -0.056252312 -0.17884503 0.002718061 0.13257079 0.036539048 -0.06098684 0.026196029 0.12520574 0.116747834 0.11680068 -0.0423075 -0.0052513136 0.105986826 0.074077316 -0.11796809 0.08602481 -0.0736692 0.010458718 -0.06859495 -0.03832137 0.0033626168 0.049841087 -0.08959067 0.026726736 -0.0817507 0.16502221 0.085532226 -0.059673816 0.008585304 0.040600855 0.05268055 0.003758305 0.095646 -0.03847152 0.13757385 -0.087057315 -0.012871342 -0.096673995 0.016384222 -0.05571568 -0.1206227 -0.14811055 0.015255357 0.0217749 0.117590696 0.14048812 0.04096485 -0.036319893 0.017947787 0.10358186 -0.048153304 0.088362694 -0.09331684 0.007417249 0.11186481 -0.01729424 -0.040796548 -0.02125906 0.14736913 0.0094967 -0.06798697 -0.0404514 -0.11643422 -0.049658976 -0.008533747 0.039714087 0.09207081 -0.102366045 0.19047928 -0.0722699 0.07912159 -0.05974098 0.007663591 -0.023801254 -0.01849199 -0.019989155 -0.05025456 -0.055874806 -0.0030182293 0.03608442 -0.028639538 -0.032119237 -0.042793877 0.027492452 0.038560018 0.0733014 0.12814777 -0.06422334 -0.022468703 0.048936106 -0.07453459 -0.03788976 -0.017795151 0.081796885 0.01831041
0.07977866 0.10458038 -0.030507172 -0.1139784 -0.06669605 -0.006380749 0.06569723 0.0998551 -0.08416675 -0.044280782 0.14692332 -0.050677255 -0.0077952966 -0.10653399 0.08568975 0.057071064 0.02495199 0.08331163 0.0849739 -0.013344966 0.040334478 0.073373415 0.078783564 -0.051950764 0.10220474 0.039848268 -0.059680402 -0.002852032 0.059504442 -0.051333662 -0.14022714 0.05424216 0.00844788 -0.044454455 0.035379414 0.037112627 -0.16399343 0.10342784 0.1013822 0.024493612 -0.16382894 0.091533616 0.14109185 0.0985891 0.104179285 -0.074650705 0.047995403 0.14268593 -0.049707346 -0.08201249 -0.035710413 -0.0440211 -0.07713202 0.04594071 -0.07955122 0.002934846 0.05538427 0.0040288195 0.041885 -0.06994582 -0.014949267 0.0036829403 0.09045991 -0.102907 -0.04860235 0.11499424 -0.05953421 -0.16218159 -0.043764267 0.14137864 0.079624444 0.0066917217 -0.05395821 -0.11232151 0.05738188 0.14546834 0.05149734 0.007920113 -0.062848225 0.07742948 0.032058433 0.019208608 -0.027137013 -0.03945876 0.11113392 -0.062267773 -0.042489007 0.001377661 0.04289115 -0.064177774 -0.122287795 -0.0499544 0.008147381 -0.10728557 -0.14959133 -0.11865438 -0.043692857 0.040862 -0.1265638 -0.17199801 -0.029961688 -0.010628536 0.10144096 0.09530598 0.14776284 0.09204343 -0.12501796 -0.067614645 0.15402183 -0.14058077 -0.05550234 -0.015255039 0.022745788 0.016242163 -0.09035422 -0.0070647867 0.038941152 -0.09897196 -0.055413656 0.0244387 -0.1284341 -0.08820197 0.13901205 0.1511984 0.13618848 0.12679209 0.07331198 0.08837133 -0.08426115 0.0721556 -0.03406816 0.105274476 0.0995667 0.0879882 0.07987458 0.13888253 0.03345805 -0.1264922 0.054201588 0.05083105 -0.05423035 0.014857854 0.045154635 -0.05665166 -0.08205874 0.06340665 -0.0804143 -0.10309502 -0.06204036 -0.03184598 -0.09619117 -0.038031053 -0.1070163 -0.08223792 -0.07689595 0.13230848 -0.04388525 -0.014517772 0.11987552 0.11283336 0.057092976 -0.15913525 -0.01689989 -0.008322442 -0.041392528 -0.060984626 -0.12755089 -0.08348807 0.039428074 -0.024842178 -0.07721608 0.042120796 0.1301268 0.14539327 0.13257417 0.080052994 0.026884772 0.058422484 -0.15985392 0.0056618215 -0.03837498 -0.066641785 0.08929805 0.045433454 0.109126374 -0.056690253 -0.019056873 0.07170376 -0.016381923 -0.010150429 -0.12739277 0.03138271 0.112024896 -0.054341745 -0.09082904 -0.06747008 0.060752552 -0.06486479 -0.0888677 0.1309892 -0.019693647 0.100512736 0.022367217 -0.033815835 0.1404423 0.11233861 -0.0029151593 0.0002039171 -0.14684422 0.06793782 -0.067569196 0.09848838 0.10972839 0.13784492 -0.019045558 0.0819386 0.014735421 -0.025614293 0.018376958 -0.014669802 0.102540635 0.0473196 -0.18699579 0.08347287 -0.051510826 0.007928701 -0.006626067 0.00027016344 0.106557325 -0.07161051 0.061779015 0.09480849 0.07507944 -0.08657808 0.081381194 -0.14138967 -0.11624923 -0.07617255 -0.04793169 0.045050938 0.06888451 -0.11982796 0.08890833 0.057874516 -0.053376753 0.009037256 -0.08339027 -0.02899984 -0.0014675611 -0.004049211 0.03254718 -0.09089267 -0.04146482 -0.052432634 0.105525844 -0.10868622 0.0062683984
0.067332275 -0.0048168534 0.04040713 -0.107076414 0.014839572 0.06973006 -0.054658853 0.12900288 -0.07493765 0.07251965 -0.02067926 0.06408824 -0.012859516 0.027656712 0.12853755 0.116366185 -0.12377679 0.01773767 0.007571524 -0.10499363 0.027685294 0.066360444 0.10608259 0.021793706 0.02191716 -0.091732435 -0.13903548 -0.11016264 0.11794642 -0.047509458 0.11319014 0.115448184 -0.12084085 0.014375836 0.027959932 0.08054848 -0.03747351 -0.1255979 0.028159447 -0.026736673 -0.036757894 0.12652251 -0.027618716 -0.04601026 0.1557424 0.028853685 0.1387302 0.11611106 0.05613399 0.08027375 -0.0602598 0.093667835 0.005510359 0.05893608 0.018828519 0.12925714 0.021317355 -0.07936346 -0.020731343 0.12537706 0.0069206324 0.1176798 0.16103779 -0.088617355 -0.10941096 0.08712528 0.07228467 -0.055018067 0.047537856 0.10433313 0.052897584 -0.034917735 -0.0014108716 0.016707705 -0.07807108 0.0267745 0.07802754 0.11270246 0.05753567 -0.08009628 -0.034338675 0.043239415 -0.085619524 0.08930679 -0.039053872 0.06433772 0.10137671 0.023938617 0.064799234 0.03427384 0.038810015 0.016871069 -0.08003918 0.004341795 0.08421741 -0.0118849045 -0.17782868 0.11847694 0.009958916 -0.08275245 -0.108032756 0.11677771 0.14146307 -0.02781129 0.009444703 0.014976689 0.0035778107 0.07134981 0.046475977 0.15779321 0.08185488 -0.07456154 0.0026934594 0.10582311 0.109335184 -0.053707782 -0.091314584 -0.040421087 -0.07748753 -0.044674464 0.08795629 -0.120564595 0.010032097 0.04026897 -0.102449276 0.055044014 -0.022437949 -0.047704346 -0.12388281 0.057872944 0.15453349 -0.034825087 0.06751512 -0.0638488 0.08302677 -0.019458141 -0.0616505 0.11887994 0.045342043 0.09231346 -0.006394617 0.13184763 0.0029074047 0.032423083 -0.028948395 -0.07849349 0.103129774 0.017545631 -0.08062173 0.029221661 0.010469764 -0.013486807 -0.00066477753 0.07779797 -0.06536125 0.06500368 -0.083326355 -0.15880872 -0.09658533 -0.10938491 -0.0025358344 -0.0698825 -0.015668832 0.11133686 0.11414993 -0.014121623 -0.044435438 -0.06479842 -0.030139524 0.057587113 -0.041852284 0.025098698 0.11194241 -0.07580029 -0.03752304 0.107488915 -0.043649286 0.030452352 0.15327376 0.022767598 0.10897046 -0.04883889 -0.0767499 -0.0133725675 0.14360328 0.037655003 0.092723206 0.06190828 -0.05572471 -0.08262022 0.13955453 -7.4933865e-05 0.08608735 0.07775291 0.116850995 0.02364679 -0.044192575 0.009339349 0.0447054 0.16053666 0.10150071 0.031250194 -0.030408526 -0.11306058 -0.112842634 -0.088832565 -0.0039338376 -0.033666447 0.03959798 -0.04704319 0.08062115 0.08268249 -0.028276581 0.13118918 -0.042259526 -0.04529402 0.055150267 -0.112545155 0.04436134 -0.05037666 0.09328502 0.06962225 0.15562423 0.036206126 -0.07833283 -0.08331275 -0.07000823 0.011791897 0.014946446 -0.054050464 0.13226096 -0.010881256 0.024236036 -0.089526795 -0.071966015 -0.03439626 0.030614138 0.014277313 -0.17468563 -0.18650201 -0.0830114 0.15444982 -0.06655046 -0.061043978 -0.04746184 -0.0989859 -0.00054470496 0.12183489 0.011344116 -0.08376499 0.03177967 -0.07576441 0.014661401 -0.11450532 -0.14345676 -0.09885884 0.02810565
-0.06555778 -0.11297548 -0.13321464 -0.12569588 0.029191427 0.09114275 -0.025092734 0.0756791 0.054217953 0.07167297 -0.048820116 0.030799514 -0.10677269 -0.11311947 0.15428558 0.024095591 0.061133064 -0.027359813 0.12150501 -0.08566711 0.03984592 0.042787082 0.0046310863 0.09179925 -0.039514612 0.095511466 -0.032236576 -0.01834002 0.006168908 0.137852 -0.007562646 0.089117184 0.0054477537 0.044578727 0.013331845 0.018018333 0.06981665 0.13370198 0.069588594 -0.013412835 0.15419059 0.09559225 0.12808435 0.10110456 0.16886947 -0.04132855 0.022432536 -0.018377809 -0.056749776 0.04940859 -0.063232124 0.047316864 0.065226465 -0.03828512 -0.024643365 0.073123984 -0.03166856 -0.053222258 0.03152207 0.0031732547 0.051960107 -0.078353226 -0.03987405 -0.08713913 -0.003471581 -0.050567485 0.039916135 -0.03384368 0.07813495 -0.051350404 0.14304712 -0.031384666 0.020648412 -0.030691065 0.070341274 0.15304707 -0.017279651 -0.0523136 -0.017202318 -0.10065413 -0.118599765 -0.074703 0.084799685 -0.04489787 -0.024718897 -0.09817155 -0.09990106 0.0479769 0.035333786 0.02102497 0.054248955 -0.07753821 -0.08558795 0.13002025 0.16270976 0.06275371 0.04491097 0.093855694 -0.032157168 0.13659136 -0.086097114 0.09175099 -0.005662866 0.06487121 -0.07801592 -0.06561964 0.04592515 -0.08739776 0.048723675 -0.0660987 -0.01835307 0.1627834 0.09609167 -0.031237414 0.03519952 -0.08043544 -0.08093457 0.10885516 0.06223022 -0.064606495 0.10516449 0.04827556 -0.019654388 0.019198172 -0.014648231 -0.13590103 -0.05750059 0.00048206846 0.055421595 0.036126297 0.0028922898 -0.058524538 -0.0074057993 0.0068718395 0.047439974 -0.017891284 0.094467156 -0.05822545 -0.0059721144 -0.062054984 0.014134488 -0.04786338 -0.08186675 -0.009529097 0.062083554 -0.09699214 0.027834812 -0.13737147 -0.004930349 -0.062820435 0.056972906 0.048055325 -0.0009959658 0.063203484 0.033334877 -0.009382858 0.03490326 -0.034838904 -0.025571704 0.047544286 0.065027885 -0.046301242 -0.0548243 -0.027331207 0.08883951 -0.009975193 0.111041985 0.1193041 -0.026369141 0.0719076 0.043657728 -0.0582498 0.05177714 -0.07796291 0.06708461 -0.05431394 -0.045205224 -0.09293092 -0.06919077 -0.0152795315 -0.035969414 0.03881763 0.13503414 -0.0078100124 0.14121374 0.05323536 -0.005176721 -0.03712079 -0.10632406 -0.02020964 0.09825041 -0.10728884 -0.071561895 0.05117262 -0.0912057 -0.04301477 -0.005775386 -0.1373791 0.050637215 0.007303588 -0.036456592 -0.037445482 0.091313764 0.11268938 0.058298375 -0.07002325 0.0018031374 -0.12111926 -0.0006468438 -0.079385445 0.11525575 0.081460275 -0.108854696 0.019917015 -0.041548893 0.08187879 0.06402142 0.0201061 0.067740664 -0.044795956 -0.10625628 0.053918704 0.13662744 -0.045852505 0.11466633 -0.023103269 0.101505384 0.115054615 0.07777765 -0.105042 -0.019103462 -0.05077322 -0.047192954 0.013475438 0.027341219 -0.005399569 0.03193829 0.073948495 0.04418619 -0.1399061 -0.087659754 -0.031772 -0.096110165 -0.02171985 -0.100200914 -0.080770895 -0.12057268 0.12504266 -0.032579284 0.139889 0.03263228 0.012811754 -0.047542587 -0.02744771 -0.072716646 -0.06913654 0.00031408953
0.14619309 0.01851888 -0.0682588 0.025892328 -0.046398498 -0.021270955 0.030944452 -0.13133204 -0.09772771 0.08586537 -0.05036068 0.06240737 0.052729692 -0.067995995 -0.040554088 0.06304357 -0.05612758 0.09985642 0.020793403 -0.16490318 -0.02425792 -0.019214189 0.12732111 -0.13588627 0.031183846 0.098268375 0.075780444 -0.13358313 0.12909137 -0.03202888 0.15197597 -0.06949025 -0.030540619 -0.15913574 -0.10626138 -0.08707196 -0.00019959491 -0.12541406 -0.061539944 -0.060903203 0.047758717 0.12559125 -0.0031964276 0.0023328885 0.010435485 0.035354566 0.148553 0.09868199 0.027957244 -0.017133862 -0.08489781 0.11658066 -0.09956144 -0.056368366 -0.033280585 0.043196484 -0.082499504 -0.006331049 0.05156896 -0.02025152 0.029816028 0.062816195 0.10282891 0.0410639 -0.077885106 -0.13537973 -0.18901366 -0.13855238 -0.11984199 0.000110734465 0.01842128 -0.06676132 -0.015542878 0.09541197 -0.11465113 -0.029516224 -0.05906474 0.11828508 -0.03192261 -0.026177099 0.11659886 0.10236946 0.09099067 0.08855746 -0.0912545 -0.0650364 -0.004449272 -0.0886841 -0.05721173 0.111706674 0.04081025 0.004830479 0.08440478 0.055826277 0.03290849 0.14149316 -0.09977682 0.062230308 0.15407906 0.11496812 0.011105337 -0.054139398 0.062163558 -0.059439424 0.009854594 0.099335775 0.09144468 -0.06684097 0.052797183 0.010030803 0.03877309 -0.10674043 -0.07028819 -0.094122306 -0.021244088 0.030290108 0.12222669 -0.048139993 0.0469619 -0.13247947 0.0011657331 -0.050517067 0.10991449 0.088942 -0.0616644 -0.07312515 0.014140719 0.108479224 -0.06124539 -0.0046946695 0.13629015 -0.025191052 -0.0037601488 0.15297742 0.10780112 0.06728427 -0.035983842 0.16141106 0.06994314 0.10029903 -0.092858665 0.03036852 -0.088974476 -0.044233058 0.07525622 0.08404847 -0.07033221 -0.09623882 0.09890142 -0.010428045 0.00078549364 -0.090271905 0.100659445 -0.014658958 -0.012092722 0.06564773 0.09703167 0.14430659 -0.06718355 0.031946607 -0.01000346 0.05419359 0.027519679 -0.01193128 0.044993684 -0.07329116 -0.02452342 -0.08759866 -0.02857412 -0.072634235 -0.0072459998 0.009532658 0.04488103 0.031133372 0.04154198 -0.08614376 -0.039059717 0.16983064 -0.0055123335 0.09895776 -0.0797045 0.057250634 0.07674855 -0.020073142 0.0023336676 -0.007985162 0.09962416 0.051544648 -0.118223906 0.14248851 0.00269098 -0.00024114072 -0.04698998 -0.04306246 -0.022118524 -0.016360758 -0.04650292 0.120724365 0.06290756 -0.12197422 0.051079202 0.086095184 -0.0053434297 0.08683786 0.06929976 0.12064719 0.11212576 -0.033609446 -0.0034478356 0.07059568 0.13946056 0.024766376 -0.06456726 0.042914443 0.10061289 -0.12867087 -0.036439367 -0.026490081 -0.008314202 0.0872214 0.017788501 0.01610544 -0.022982366 0.018001042 0.09936826 -0.06821802 0.13884866 -0.112538494 0.074011624 0.0054716 -0.063767865 0.016133483 -0.008346627 0.016978439 -0.06881148 0.02441618 0.043392375 0.060547635 -0.10438831 -0.038130127 0.107731245 -0.05044432 -0.135198 0.03572544 0.0010484697 -0.041594714 0.12179613 -0.0738459 -0.06002095 0.105128564 -0.013601088 0.14109416 0.06514437 0.07098488 -0.13615249 0.065905005 0.012112467
-0.034827977 -0.11788018 0.08422702 -0.033833425 -0.16470826 0.050809216 0.03216347 0.015606627 -0.044665102 0.09789705 0.15810956 0.027248366 0.102766134 0.058874592 0.11159415 0.08622576 -0.10236442 -0.045310516 -0.11284245 0.09723881 0.08140795 0.040744852 -0.07978386 -0.05683501 0.00729229 0.11866527 -0.086890444 -0.10826387 0.002633496 0.06513333 -0.024623798 -0.07633688 -0.038391642 -0.09631914 0.067775965 0.1016524 -0.09994088 -0.07492777 -0.044794276 -0.004196838 0.081884384 -0.039862838 -0.0531791 -0.09874241 0.1106337 0.13981436 0.08210926 -0.024451649 -0.055628445 -0.10692393 0.025741631 -0.12812263 -0.14039125 0.01881233 0.12210601 -0.06688478 -0.0062999744 -0.06398418 -0.07168493 0.045522325 0.115001366 0.08158947 0.11417367 0.13903736 -0.015551231 0.10328499 0.1519819 -0.06313143 0.12174021 -0.034927458 0.13498272 -0.10639373 0.019919597 -0.13433227 0.111731276 0.047918815 0.010116372 0.09562421 -0.0955027 0.015568485 0.09589563 -0.040116105 -0.12147062 0.054846026 -0.051024243 -0.13283472 -0.0021966978 -0.061768197 -0.023060348 -0.00987482 0.15279894 0.14387351 0.01763442 -0.04736194 0.040492747 0.041993897 0.038562436 0.08366681 -0.07527788 0.08580147 0.18845992 -0.106644124 0.043968122 -0.08207582 -0.089206316 -0.13404842 0.08985736 0.08910923 -0.171404 0.08696931 -0.036680426 0.09902707 0.08426908 0.11494244 0.00982961 0.09412531 -0.05178762 -0.09850577 0.044426024 -0.04180126 0.1387254 -0.0047173817 -0.114342995 -0.030314986 0.0797318 0.02667435 0.04552178 -0.09242829 0.06220713 0.030203797 0.06023121 0.0015824537 0.013524646 -0.06841168 0.06819824 -0.055558957 -0.048860636 0.08118776 0.025354901 0.13444161 0.034427043 0.119938985 0.05734052 -0.11484077 -0.17193972 0.057547666 -0.05859683 0.087942995 0.12742415 -0.023733938 -0.11426133 -0.08580923 0.06599943 0.039541297 -0.033210844 0.08417766 0.040840607 0.005966426 -0.067519136 -0.1228135 -0.113564454 -0.07834079 -0.08151957 -0.07173063 0.05648614 -0.0332953 0.08681816 0.06146456 -0.007429095 -0.040379122 -0.09709033 -0.03869288 0.030328913 -0.11102477 -0.072514065 -0.070605144 0.025606673 0.030211732 0.015666237 0.030979302 0.096158296 -0.04214835 0.059905495 -0.05138086 0.14576167 -0.05210253 -0.008081653 -0.04848763 -0.024351632 0.00343659 0.08736389 0.110680304 0.007917018 0.010705419 -0.039271582 0.066440076 -0.07497688 0.08912872 -0.14030144 0.059787896 -0.032852776 0.10904669 0.03710225 0.04090627 -0.012199164 0.058281068 0.01588115 -0.034419853 0.04093803 0.10206464 -0.06339604 -0.078645535 -0.01913896 -0.0919919 0.104089536 -0.009818263 0.07752347 -0.12718771 -0.08429718 0.1291736 -0.12726843 0.0060873004 -0.08045713 0.114103906 0.025281407 -0.10315763 0.04097282 0.08182138 -0.0033608521 -0.042709533 0.036092397 0.091673195 -0.10985609 0.025735792 -0.059903596 0.0989205 0.028214987 0.10258061 0.003791465 0.030741047 0.121889055 -0.106239244 -0.062355574 0.03178991 -0.052702352 0.08708695 0.008463116 0.09025196 -0.13871853 -0.07712471 -0.005056088 -0.028474024 -0.10379557 -0.017307887 -0.088084236 -0.11759366 0.0045559094
0.04800351 -0.0663271 -0.0097688595 -0.09589547 0.003257945 -0.06743307 0.05851194 0.011738756 0.09512959 0.12596336 -0.0694213 0.017626537 0.088873655 0.09387841 -0.060470067 0.029465219 0.028495336 0.015452269 0.0027856482 -0.049451124 0.012972957 0.05143794 0.09172794 0.030332325 0.052432578 0.026955342 -0.014130385 -0.0543605 -0.008150952 0.09982639 0.018657308 -0.010811307 -0.10945506 0.012797892 0.052795846 0.05873433 -0.11389163 -0.066526115 0.02049202 0.11223132 0.13053259 -0.1317432 -0.111919686 -0.12773363 0.07121971 0.080676824 -0.083036266 -0.16015817 0.023624286 0.0059832316 -0.07487527 0.03394315 0.075882435 0.012439195 -0.094635986 0.034518607 0.06302516 0.07581278 -0.10943732 0.12710981 -0.06309015 0.07753802 -0.033802867 0.05824413 -0.11392617 0.10101249 0.13265909 0.110012464 0.10414443 0.076049626 -0.08205112 0.11469285 -0.082047045 -0.1389445 0.016504494 -0.16301413 -0.05364422 -0.0080303205 0.0049953302 -0.102207616 0.09806549 0.1241711 -0.090725735 0.022540698 -0.021302974 0.045108423 0.024381839 -0.10691687 0.04400938 -0.108924784 -0.09067897 0.086717635 -0.11827999 -0.016525622 0.022284817 -0.11072409 -0.038324993 0.14013721 0.123052776 0.018824285 -0.052812047 0.030689474 -0.048158742 -0.003061512 0.062128227 -0.09459968 0.055118043 0.09188026 -0.055703305 0.011104316 0.09331085 -0.0720671 0.09889314 -0.009752329 0.15395458 0.15002787 -0.08180052 -0.13027535 -0.058875285 0.034171633 0.06913504 -0.11916445 -0.08621766 -0.13344274 -0.07478316 -0.039366342 -0.09710522 -0.00011852136 -0.04278788 0.113176905 -0.012126173 -0.16774109 0.1297173 0.035831533 -0.02932148 -0.09350804 0.1001283 -0.025435198 -0.053908374 -0.0010232766 0.055327054 0.09668646 0.019214487 0.054234497 -0.111906834 0.13520466 0.14937086 0.021065572 -0.12258135 -0.010857301 -0.0066240616 -0.0084245475 -0.014443835 0.07076529 -0.059865065 -0.023783874 0.06789715 -0.0899358 -0.11759994 -0.0117079485 0.061804622 0.029451353 -0.061152723 -0.051685143 -0.089834936 -0.043642152 0.039229114 -0.058716826 0.1318679 -0.068211034 0.024808198 0.083645314 0.047527198 -0.08299779 -0.026256513 -0.077649444 -0.07101263 0.09831885 -0.080856234 -0.012351686 -0.10419127 -0.04108011 0.056457724 0.124556825 -0.02649155 -0.015264123 0.11646785 0.13038549 0.048565384 0.014458252 0.013932453 0.08696102 0.14592016 0.011434555 0.1525828 0.0682977 0.0352104 -0.03174189 -0.073741466 0.09630264 -0.1264647 -0.12629548 0.00047531436 -0.02747803 -0.07828964 -0.084170684 -0.10112834 -0.16916329 -0.09692782 0.11601739 0.028390199 0.038497448 0.076310165 0.05131832 0.008924458 0.16820636 -0.12087744 0.058831785 -0.05489263 0.003930078 0.024668686 -0.008508097 -0.06068996 -0.014088494 -0.029691298 0.021407751 -0.02578484 0.018093148 -0.06495032 -0.049368035 0.041254096 -0.092307515 0.11074449 0.02486268 0.14922069 0.085811645 0.092201605 0.11171184 -0.085750714 -0.14386486 -0.018080585 -0.07294236 0.1551607 0.10806071 -0.05666645 -0.0457875 -0.030104019 0.007928302 0.045906086 0.0017823013 0.0574986 -0.14084616 -0.095753655 0.082350634 -0.12255911 -0.0077003245 0.014443252
0.0658962 0.074988626 0.018863106 -0.015936587 0.087463126 0.06626671 -0.051290713 -0.05255399 0.01174749 0.041610576 -0.014633815 0.010308778 -0.0169239 0.124116465 -0.079429865 -0.12096277 0.09821664 0.0895426 -0.032934777 -0.14621134 -0.033166572 0.05726263 -0.03448562 0.010538855 0.024778085 -0.0071992483 -0.08549519 0.04361654 -0.046771728 -0.051785078 -0.07811517 -0.017758828 -0.01768041 0.031878304 -0.03638568 -0.01778651 -0.07547223 0.08783562 0.051120434 -0.050868314 -0.017517548 0.021982197 0.111303255 0.050105147 -0.09661493 -0.11732589 -0.0900988 -0.10898909 0.09630781 -0.0003104037 -0.04215021 -0.10687712 -0.040275358 0.02719864 -0.111432225 0.10143468 0.059665006 -0.094026625 0.12199901 0.056088082 0.05693157 -0.0072957724 0.10225433 0.10106102 -0.038369857 -0.09181662 -0.052999653 -0.13037209 0.010013694 0.083387 0.078483745 0.08809616 0.011320966 0.018531622 -0.09991674 -0.068057284 -0.17453954 0.086860225 -0.104127444 -0.049934555 -0.121974826 0.105353765 0.10936631 0.09086748 0.080822855 -0.010989214 0.062189132 0.054646686 0.019960955 0.07993446 0.033794284 -0.068814814 0.10167554 0.018706577 0.11683185 0.023152137 0.044505443 0.011436731 0.084975764 0.18919629 -0.12975603 -0.037664827 0.093540885 0.09709716 0.06675687 0.03466856 -0.08579292 -0.032700762 0.13299468 0.0889228 -0.09051828 -0.029657055 0.024505181 0.034485485 0.07983154 0.08640344 -0.057016492 -0.14718767 -0.032311004 -0.038344454 -0.11226259 0.062259063 0.065546855 0.14326943 -0.17295848 -0.16055807 -0.0020486899 0.08562118 -0.10238402 -0.030937312 0.022619877 0.09194254 0.13228612 0.022258367 0.00045927783 -0.045055456 0.08319946 0.020306649 0.12990607 0.032940004 0.12012445 0.062760316 -0.015206794 0.0010826065 0.110861294 0.09172584 0.02758364 -0.021262528 0.026469586 0.07543928 -0.006511278 0.060708426 0.07785954 0.06618592 -0.06973769 0.012620208 -0.1883386 -0.057527117 -0.15823077 -0.09710605 -0.005262307 0.116899624 -0.009220723 0.1296339 -0.05984641 -0.03823106 0.027681058 0.014154711 0.008884015 -0.018332839 -0.07483261 -0.13701752 0.005208224 0.0029848795 0.123769075 0.018839525 -0.04510014 0.04441494 0.075866535 -0.11302247 -0.12211007 0.03803226 -0.009310228 0.102296054 -0.079750426 0.080501705 -0.03257415 0.104495846 0.052232765 0.10527078 0.16162091 0.0033066252 -0.042854793 0.055441823 -0.033926517 -0.0899358 -0.0029003182 0.096351326 0.12638517 -0.005524411 -0.04812483 -0.07778214 -0.03173969 -0.13794982 -0.062737316 -0.0881862 -0.008636718 0.07722282 0.059714694 -0.08840705 -0.02375185 0.13269895 -0.008480464 0.04853398 0.007699316 -0.14368162 -0.10248539 -0.020090895 0.12296579 -0.005899364 -0.01937707 0.02200747 0.07966962 0.025104357 0.1231153 -0.071237184 -0.011312539 0.08973098 0.09506822 0.14759983 0.0028308968 0.013313244 0.059080485 -0.040455155 0.038138766 -0.10499558 -0.06057005 -0.030301698 -0.120792836 -0.1586316 0.03324202 -0.013659328 0.0920012 -0.058470808 0.09116763 -0.043213565 -0.0716344 0.058613677 0.048437968 0.055227734 0.0027854051 0.024970789 0.057218198 -0.11495205 -0.1907226 -0.03088749 0.00550764
-0.021982102 0.024048831 -0.010693438 0.07198942 0.009809617 0.058089018 0.09874656 -0.09731259 0.10617128 0.042058617 -0.08586596 0.032018825 0.13077118 0.12860852 0.09893086 -0.008418809 -0.07677256 0.10058593 -0.02641594 0.10854633 -0.051033046 -0.0921558 -0.11817561 0.011169206 -0.07498718 0.0019132348 -0.003119139 -0.0024313822 -0.049442194 0.0103078475 0.045327388 0.08141897 -0.0606942 -0.0144952005 -0.07207827 -0.12424842 0.059779596 -0.023864802 0.09055618 -0.052305866 0.040769253 0.06588305 0.021191314 0.023229383 -0.0036278905 -0.047028746 0.03157126 -0.05962713 -0.05013847 -0.04043793 0.063134566 0.025706736 -0.009461397 -0.08267261 -0.08834683 -0.056067713 -0.061415814 0.10320552 -0.1130239 -0.010576358 0.030826105 -0.04083013 0.08079494 0.08931423 -0.0554258 -0.118785396 -0.07614853 -0.18571918 0.061094504 -0.04709039 0.08391126 -0.047528405 0.14904095 -0.09029912 -0.047383208 0.00016924896 0.008996108 0.08409229 -0.022996956 0.017510103 0.06400102 0.11746121 -0.02369948 -0.022338375 -0.08304353 0.00046848494 -0.057812523 -0.023736702 0.15782344 0.008010003 0.025907641 -0.117625006 0.0046467544 -0.0865744 -0.07080824 -0.009782341 -0.016945275 0.12538144 0.089612484 -0.026087277 0.11112994 0.11170633 0.00023349759 0.14718637 0.050567195 0.1479982 -0.012052585 -0.074461006 0.08992315 0.023779674 0.06351921 0.04580639 0.09321479 -0.040155686 0.051051233 0.048176114 0.082575776 -0.0063677616 0.024451487 -0.038106848 -0.069682695 0.008037418 0.0953078 -0.06745404 -0.024657723 -0.002177591 0.026388029 -0.010567895 0.032213252 0.14019153 0.05655012 0.04218802 -0.02819133 -0.11911776 0.026769256 -0.08319739 0.072046734 0.10117582 0.12491323 0.08323484 0.045266006 -0.04725086 0.014570017 0.05107179 -0.008602744 -0.14327997 -0.0036171237 -0.13720444 -0.043750647 0.06132473 -0.07061834 -0.032950193 0.0058789905 -0.0896573 -0.028703885 0.0903797 0.02939822 0.0055673975 0.12097621 0.064186014 0.0826572 -0.09522206 0.038079273 -0.054597594 0.060431585 -0.08593229 -0.12288006 -0.05775942 -0.05411498 0.051909063 -0.038943492 -0.084003694 0.084724165 -0.08051921 0.0715332 0.06266359 0.13553654 -0.008512765 -0.068668336 0.018952617 -0.019798689 0.024461063 -0.042242505 -0.080589265 0.117628165 -0.06775028 -0.01263411 0.071201175 0.06017194 -0.03010845 -0.10865595 -0.077525824 -0.13808362 -0.12968807 -0.0017854081 -0.019405948 -0.0747861 0.057883427 -0.0253712 0.11824916 0.054101307 0.0906267 -0.045820516 0.015723046 -0.0032682314 0.025080137 0.121346824 0.07465225 0.030590143 -0.08646392 0.11781242 -0.060546055 0.058035944 -0.11687613 0.055265665 0.05781007 -0.05075923 0.14785315 0.044598635 -0.063657224 -0.015040044 0.102128394 -0.023568574 -0.0062772725 0.10369579 -0.06877246 0.06593657 0.119330674 -0.10369858 -0.0689222 0.15009019 -0.070171274 0.078393616 0.10526179 -0.07531227 0.03905282 0.023865407 -0.09164145 -0.099510185 -0.11289313 0.067578025 -0.046557944 0.06285317 -0.120638356 -0.021304369 -0.073543735 -0.07551389 0.05306467 -0.025304127 0.04135963 -0.07141083 0.02064364 -0.16405338 -0.10161263 -0.11434426 0.1363557 0.000121860416
0.04537 0.12229555 0.10617881 -0.12947093 0.030730939 0.0024963885 -0.08570086 0.07601865 0.05730696 0.13517886 0.0034094502 0.053859785 -0.1180994 -0.019003337 -0.012191803 0.07703813 -0.1004936 0.011308943 0.063690774 0.10795374 -0.010495321 0.0632567 -0.12265975 0.024128938 -0.048687052 0.012948918 0.0071522365 -0.075768664 -0.08499526 -0.10096853 -0.0052782455 0.003715075 0.1312145 -0.059584714 -0.10057511 -0.037544787 -0.012748988 0.008265678 0.07711115 0.014081393 -0.14377129 0.13032837 0.029392833 -0.113759294 0.0052827923 0.0002946086 0.01215421 0.05444041 0.106336154 0.071812496 0.09888079 0.077241026 -0.10761967 -0.1047186 -0.11844926 0.12641269 0.067789845 0.06578521 0.07456425 -0.04792427 0.0083420705 0.08992561 0.12582055 0.06645822 -0.099539466 0.12085989 0.072844364 -0.07676297 0.064035386 0.027224334 -0.030119326 0.027751626 -0.009830959 0.031514738 0.12421209 -0.027644183 0.0052163755 0.050293755 0.065621436 0.0141416965 -0.17555793 0.011614617 -0.060258366 -0.01174721 -0.06865996 0.025537208 -0.03901289 -0.007740465 0.07492965 -0.072131336 -0.06252269 -0.092074856 -0.019744657 -0.13252844 0.054558713 0.071296215 -0.11273609 -0.040100243 0.035517607 -0.06727321 -0.08053712 -0.006588234 0.1036219 -0.031197509 0.017013017 -0.11263066 0.051260576 0.11472298 -0.124214984 -0.09881619 0.14452894 -0.094681606 0.044349674 0.096861176 -0.019659285 -0.079036936 -0.08932396 -0.0218162 0.024396906 0.02992052 -0.09094782 0.019145764 0.004865681 -0.075466044 -0.073588066 -0.088361934 -0.014196627 0.08883255 -0.085647516 -0.02953074 -0.006669446 -0.07171789 -0.11923332 -0.013449246 0.0017234745 -0.018718826 -0.082371294 -0.20083545 0.10682067 -0.03672761 -0.046473205 0.057381514 -0.03312151 0.03526932 0.011087264 -0.010928922 -0.08269627 -0.122896254 -0.015603339 0.023815118 0.060184617 -0.05233443 -0.01980381 -0.03636529 0.10062772 0.029943185 -0.022071209 -0.10672975 -0.076831274 0.08442822 0.02693555 -0.0975798 0.069092005 -0.005960521 0.04358897 0.06869713 -0.052316986 0.08929673 -0.013840533 0.054462988 -0.04649733 0.035327546 0.0065097143 -0.05108808 -0.0017953131 -0.06889072 -0.09472029 -0.07511492 0.07120985 -0.10141764 0.07513398 -0.06260268 0.12921245 0.07763209 0.023412049 0.118868135 0.06065667 -0.052410405 0.034385417 -0.011670306 -0.008340181 -0.07088712 -0.08413541 0.07899496 0.054672495 -0.10583175 -0.09498413 0.06845032 -0.06936693 -0.07722278 0.11518594 0.0053939465 -0.11728707 -0.09206962 -0.053355094 0.11454247 -0.09290278 0.06921254 -0.03959057 0.03184545 0.12683628 -0.03898416 0.025525017 0.020051531 -0.1381645 0.015242794 -0.14716358 0.039164968 0.12137318 0.078321055 0.07855528 0.05557332 0.052486707 0.10308032 -0.08576866 0.120005995 -0.024088979 -0.06741036 -0.11016235 0.09575349 -0.05153485 0.024877714 0.07714445 0.09847218 -0.061751384 0.08831353 -0.07582578 0.022218272 -0.006651727 0.0767145 -0.09858365 -0.079869285 0.048011255 -0.1650877 0.13519451 0.09823106 0.031409875 0.112125315 0.03284107 0.103208065 -0.0008375216 0.10446286 0.13616051 -0.04731808 -0.0823228 -0.06467622 0.0017914439
-0.062657796 -0.043364324 -0.033829577 0.056278516 0.124403976 0.074908264 -0.027920442 -0.00619615 -0.028978584 -0.022806898 -0.08227375 0.07900818 0.107198805 0.10012547 -0.0047740615 0.0065027187 -0.05812818 0.062288947 -0.08270773 0.10550767 0.040159594 0.017034667 -0.013956406 0.051655028 0.031032844 0.08922311 0.08224072 5.7214056e-06 -0.025377605 -0.037251752 0.10335878 -0.024060166 -0.11090716 -0.087933674 0.04465405 0.046508193 -0.0893308 0.10023684 0.036310498 0.12656824 0.03929715 -0.087467715 0.020321807 -0.025292099 0.10407718 0.11862952 -0.098691024 0.009951373 -0.015506856 0.04338931 0.036656544 0.07245196 -0.12594128 0.081253424 -0.038491163 -0.10553791 -0.06974497 0.10564069 -0.12555452 -0.06532596 -0.07442849 0.07604419 -0.067569464 0.12285582 -0.027078666 -0.023434667 0.09544769 -0.0141386185 -0.025854502 0.022775559 -0.011182401 -0.014375665 -0.06759782 -0.09456381 -0.04022998 -0.042225745 -0.0049576233 -0.08730906 -0.11028616 0.002803438 0.09869546 -0.016309611 0.1307598 -0.066065684 0.019780867 0.1295462 -0.02399117 0.05315216 -0.017490204 -0.051329065 0.06868925 -0.03299261 0.10224883 0.047468867 -0.045793314 0.12911095 -0.11724755 -0.00093364075 -0.046538625 -0.04537917 -0.09000861 -0.03290149 0.06607519 0.0995752 0.050387505 -0.040609535 -0.0013105446 -0.10243565 -0.041550875 -0.025014987 -0.06601813 0.10091893 -0.09197403 -0.10012528 -0.030169845 -0.007912208 -0.07676984 -0.025416758 -0.032234658 -0.07814495 0.13226967 0.107331 -0.007530384 -0.11276148 -0.014873129 -0.026590575 -0.123546846 -0.012587843 0.056647435 -0.02254259 0.05980612 0.030346971 -0.023169255 -0.07170352 0.07703667 -0.060806047 0.0870874 -0.0676452 -0.06863717 0.07725096 0.047778074 -0.023357924 -0.03984201 0.016662486 -0.04384559 -0.036103588 -0.04257566 -0.09160716 -0.06325713 -0.00019792074 0.070843294 0.07989138 0.12912609 0.052612726 0.016068693 -0.10604921 0.12693302 -0.10085702 0.06465333 -0.034598563 -0.12065915 0.11720901 0.06889691 0.09740134 0.052365202 -0.025490046 -0.09081591 -0.10195568 -0.021503206 -0.10264585 -0.026933294 -0.053200472 -0.08184199 0.05316072 0.12582088 -0.08445075 -0.010960725 -0.042883087 -0.11005873 0.07315483 0.030872103 -0.028057782 0.069186926 0.06837698 -0.104078464 0.061380528 -0.07677009 -0.09262034 -0.114404984 -0.0022688517 -0.0023916508 0.0098215025 0.009326627 -0.046785004 -0.1251666 0.056234524 -0.043333065 0.029086888 0.055105582 -0.1078917 0.002677822 -0.03349378 -0.005229761 -0.018459516 -0.11083721 -0.09604467 0.060618673 0.0028077438 0.0399971 -0.04355036 0.050247483 0.02913925 -0.08513237 -0.07867541 0.10342055 -0.0831835 -0.054827426 0.028863205 -0.023707079 -0.038963664 0.067225955 -0.056290105 -0.113232 0.086050056 -0.114706084 0.11598118 0.07492911 0.12231089 0.024303565 0.035291206 0.050539274 -0.094702594 0.012450154 0.09307138 0.08931341 0.0634049 -0.011969295 -0.022649812 -0.082913816 -0.055179738 0.028912403 0.072527 0.01316589 0.012091052 -0.056876197 0.092935376 -0.05059366 -0.049456526 0.026976485 -0.04496269 0.055116385 0.06971042 -0.109453626 0.057465438 -0.065223664 -0.055743 0.012333475
-0.1042672 -0.03811766 0.0829757 -0.08582092 -0.07900765 0.044182584 -0.059853524 0.045335937 -0.08381212 -0.11239337 0.054772757 0.031968072 -0.0055153132 0.0379863 -0.057670906 0.08290884 -0.09988427 -0.006800159 0.12107885 0.097273536 -0.0578254 0.02663891 -0.072256066 -0.14307313 -0.050253607 -0.0017037296 0.16792792 -0.08313535 0.029978707 0.08877786 -0.018808266 0.041603334 -0.103187636 -0.11852826 0.12621367 -0.1139286 0.08120537 -0.04519257 -0.038809832 0.09641966 -0.12199534 -0.06215514 0.0165543 0.09723794 -0.1060215 -0.033451874 0.07706793 0.12839502 -0.034297712 -0.079827435 0.0011475806 0.012180999 -0.0979329 0.040889744 -0.02041521 -0.052373856 -0.11978356 -0.13424143 0.047755122 -0.013215612 -0.078476 0.057760164 0.072948895 0.11305412 0.02456775 0.0515032 0.04153845 0.057004355 -0.039850127 0.0831827 0.027265266 0.025411764 -0.051276155 0.055806473 0.080489315 -0.06802996 0.07249064 0.05157086 0.023214974 -0.08511719 0.07926413 -0.038135514 0.0848469 -0.04797971 -0.036646962 -0.030961828 -0.017475901 -0.14330044 0.09163118 0.09533168 -0.1102616 -0.15370764 -0.049573403 -0.10033468 -0.012531913 -0.09433349 0.048031047 0.08526389 0.047457304 -0.080512464 -0.046950523 -0.12500438 -0.058811225 0.106113635 0.16522047 0.09651854 -0.010385043 -0.12827158 0.24147253 0.037389234 -0.07172521 -0.0025246511 -0.03836198 0.049464222 -0.018702362 -0.0012966371 0.10137903 -0.08261792 -0.09516208 0.049922727 0.04852131 0.10125348 0.12455405 0.09341061 -0.13645056 -0.041850224 -0.008177526 -0.026846927 -0.0018240504 -0.079202496 -0.03576363 0.0475788 0.076052316 0.04291205 0.085522406 0.023114506 0.07225299 0.06959626 -0.16081436 0.07851072 0.17788696 -0.028243352 -0.03171051 -0.07529784 0.025723955 -0.013948133 -0.0872267 0.04952631 -0.096674725 0.018431854 -0.16066901 -0.11597156 -0.095045514 -0.12183726 -0.036969654 0.077972785 0.09469377 0.11421714 -0.027679669 0.06978906 0.055719 0.058194272 -0.06365107 -0.10686096 0.0065085697 0.09722294 -0.17165276 0.05922916 0.010773274 -0.006523289 -0.12131831 0.10625885 -0.039633308 0.083591476 -0.082646266 0.009893343 -0.05566826 0.049451984 -0.14402372 -0.1504446 -0.058714636 0.012261521 -0.07101753 -0.0216498 -0.1878915 0.086885735 0.063583456 0.14111301 0.123352095 -0.07035662 -0.09393069 0.0865 0.026850546 0.013030221 -0.13750775 -0.059441753 0.110433266 -0.06984184 -0.09634592 -0.09329392 -0.08544031 -0.023803433 0.04437907 0.045247957 -0.07377946 0.08433008 0.05328225 0.014184975 0.1459906 -0.0064372746 -0.01846835 -0.022374868 0.09445874 0.01110574 0.1082472 -0.05376447 0.045176297 0.16857581 -0.12971644 -0.09760759 0.057586193 0.117742114 0.069728784 0.022389494 -0.04217866 0.081379086 -0.014335104 0.06244096 0.0037065956 -0.089424156 0.08917659 -0.03300665 0.0061826347 0.042187355 -0.093691416 -0.027572991 0.032719538 -0.086869545 -0.087705694 0.0027150263 0.041231737 -0.042710137 -0.036280505 0.07290298 0.12547316 0.14550719 0.16886139 0.15267882 0.04995836 -0.06970043 0.07985221 0.02644465 -0.07570141 0.016200896 0.12980402 0.1096668 0.0017615906
-0.09308436 0.0685273 -0.02791648 0.008094929 0.03345962 0.01994298 0.085981645 0.13276528 -0.12371038 -0.016152045 -0.09776488 -0.044069838 -0.046243317 -0.089147724 -0.0035623298 -0.057559483 -0.044669393 -0.056441236 0.0033997428 0.09862268 0.079995506 -0.035625994 -0.045759983 -0.114176854 0.08760022 0.08209455 -0.06933949 0.06417025 0.07168005 -0.043361977 -0.029066583 -0.10928651 -0.15109336 -0.04221499 0.010080615 0.12944378 -0.07814554 0.06090317 0.029004624 0.10048992 -0.20515941 -0.13084921 -0.044599265 0.05472178 -0.09985172 -0.007072573 -0.0058101215 -0.097788125 -0.101861976 0.052601166 0.020856079 -0.014437483 -0.065587066 -0.06829335 -0.123247854 0.09725259 0.09854515 0.05782311 0.010344132 -0.14786744 0.06852166 0.04121243 -0.0690382 0.06593971 0.050162554 -0.017546028 -0.011088752 0.061011627 0.12056191 -0.077784106 -0.050142203 -0.005128553 -0.050094787 0.076393835 -0.15102921 -0.12401697 -0.117253095 -0.06783165 -0.063345574 0.10560535 -0.02217432 0.116699494 0.085673735 0.10944 -0.087988004 -0.027861478 -0.12260929 0.10232033 -0.035665903 -0.060321975 -0.11310415 -0.14685811 0.022276744 -0.084183306 -0.0044207154 0.044974748 -0.059275873 0.122440696 -0.038698703 0.06325024 0.10856698 0.061672926 -0.046700086 -0.12056942 0.14365007 0.031554546 0.016952194 0.084875345 0.04614803 -0.042994987 -0.13411207 0.02025673 -0.067371204 -0.012537606 -0.0039534993 0.09529813 0.051810462 0.06870305 -0.003785139 0.06523614 -0.08828774 -0.11207413 0.10996552 -0.08083646 -0.09491658 0.12221396 0.047420375 -0.08739176 0.04068704 0.06735469 0.08871967 0.09928441 -0.046942472 0.007753469 0.04835848 0.038308896 0.074164525 -0.0670203 -0.014839268 -0.07181738 -0.0127069 -0.07069072 0.014042606 -0.07137364 -0.09895727 0.038767945 0.087516 0.04960995 -0.053791784 -0.076452956 0.074342795 -0.0408332 0.01898474 -0.014813931 -0.017627269 0.04117258 -0.06128923 0.071073815 0.05647257 0.017579202 -0.021751493 0.08465859 -0.048535522 -0.18805611 0.0030287937 -0.030023534 -0.18151294 -0.12776838 -0.10248568 0.08221587 0.011096219 0.087095216 0.042266194 0.123260014 0.025134198 0.14185019 0.0015333637 -0.0932745 0.06455941 -0.1538803 0.048396133 -0.020829411 -0.06901587 -0.08320867 0.008308449 -0.008428472 0.04080137 0.009137367 -0.09259587 0.124714725 0.05831533 0.12334424 -0.024451831 -0.08072054 -0.0824234 -0.061928384 0.021145303 -0.05310339 -0.02992817 -0.13360977 0.044284698 0.11563606 -0.037438143 -0.1510651 0.056611978 0.042113885 0.1087223 0.09938934 0.06592676 0.13806838 -0.06300415 0.087796815 0.09034658 -0.007841856 -0.025632707 0.06376554 0.06008003 0.018519456 -0.080225736 -0.12835647 0.09913419 -0.090320125 0.0027876778 -0.091043696 0.08570358 -0.11543434 -0.023960479 0.022221442 -0.060939882 0.12765877 0.1592203 -0.09311443 0.079112135 -0.011833477 0.08662212 -0.17363708 0.091583885 0.07973479 0.08708678 0.08658934 0.13766575 0.06645907 -0.016856426 -0.011781541 -0.038658883 0.08289494 0.031663712 -0.15410744 0.054120522 0.07483429 -0.15730442 0.088304035 -0.012411932 0.06443851 0.13942261 -0.004777776 0.013934732
0.021657776 -0.11419224 -0.10324525 0.14051986 0.08328136 -0.034426253 -0.083847344 -0.037166826 -0.06998289 -0.02132159 0.0016005952 0.13953236 -0.05332851 0.0914898 0.040583156 0.008553016 -0.0885917 0.017295437 0.06870874 0.07414991 0.005682168 0.021823859 0.09970941 -0.091599755 -0.023478441 0.1598651 0.099169336 -0.036024753 0.011334161 -0.10151103 -0.092814855 -0.010054137 0.03627437 -0.06937334 -0.0018854582 0.13743146 -0.07108916 -0.1434348 0.092055544 0.029485729 0.029606778 -0.0375181 0.046698485 -0.17301291 -0.06519619 0.08158999 -0.16305606 -0.057537653 -0.07482906 0.13242428 -0.0015239667 -0.04712658 -0.03982369 -0.07275422 0.10611718 -0.014245963 -0.060100403 -0.11426174 0.06858808 -0.038707554 0.0659039 0.086091556 -0.10918792 -0.083677925 0.00048874266 0.004576777 0.15882498 0.21849293 0.02301397 -0.090408534 -0.011498 0.057444304 0.0703972 -0.068649426 0.062451325 -0.10886181 -0.0695207 -0.051102635 0.050518747 -0.060777634 0.02547 -0.005644603 -0.108068615 -0.02299699 -0.042033322 0.042053632 0.03353125 -0.07162029 0.15500787 -0.005628779 -0.15225899 0.08589859 0.10728633 -0.13205202 -0.0835982 -0.12072164 0.047243055 0.12206333 0.033367075 0.053145032 0.07339328 0.049449086 -0.01721479 -0.08508209 -0.036229156 0.020802896 0.11346818 0.03756463 0.058249086 0.02573649 -0.0049538626 0.010512125 0.077864386 -0.070601545 0.065843694 -0.015530787 -0.11080027 -0.12204781 -0.05581679 -0.10171276 -0.0762089 0.05994499 0.112663694 -0.100299895 0.09075875 0.1390611 0.007894058 -0.09930476 0.037826333 0.031866096 -0.17672591 -0.07629186 0.13110027 -0.0008204697 -0.03757444 0.09886391 0.036396474 -0.027897816 0.054693654 0.08138372 -0.11402358 -0.10483879 0.02047135 0.08617642 0.0971406 -0.004778574 0.06512443 0.07719003 0.014754266 -0.02820875 -0.019749613 0.06721223 0.064179055 0.015687417 0.055421904 0.02291756 0.12530683 -0.021494923 0.017943803 -0.065010026 0.024791813 0.14611077 0.1219255 0.0703198 -0.0513259 -0.06759984 -0.01057994 -0.0039453655 0.055481967 -0.03938647 -0.06712988 -0.03816661 -0.101397224 0.043317363 0.065517224 -0.07530601 -0.050997242 -0.10407685 -0.052926186 0.13364509 -0.111255445 0.059138726 -0.010814132 0.05437702 0.04914384 -0.074225895 -0.058648996 -0.023880843 0.1102601 0.050699115 -0.18548839 -0.035162043 -0.054772668 0.08000847 -0.04347209 0.0056848293 -0.13857017 -0.09730253 -0.008120949 0.023261206 -0.14101852 -0.10268983 0.03374102 0.087040916 0.09698216 0.0768339 0.06881404 -0.1419863 0.12706289 0.097568795 0.07268669 -0.009718038 0.028814692 -0.009971803 -0.113894455 -0.07807993 0.15406886 0.03542316 -0.045262944 0.020292416 -0.05043572 0.116926916 -0.01499231 0.115145445 0.11346501 -0.010122202 -0.15250252 0.08863913 -0.023878707 0.073860675 0.004082748 0.04598074 0.11095486 0.05838405 0.1348582 -0.02082461 -0.04373987 0.10771303 0.12698048 0.07537609 0.026071046 -0.0647022 0.13512163 0.022671506 -0.06801589 0.03835505 -0.048496053 -0.020241326 0.046354353 -0.025471622 -0.024107723 -0.01787316 -0.015358582 0.059231758 0.16995381 -0.03767998 0.0045039398
-0.07727824 -0.06422895 -0.10690882 0.026210709 -0.07077411 0.053502742 0.007400641 -0.098342635 0.08355967 0.13295482 0.06300736 0.117628045 -0.08772632 0.046840154 -0.077222005 0.00970803 0.13613743 0.034117933 -0.116849944 -0.123519726 -0.10194451 0.13120285 -0.0075651803 -0.075543515 0.017630734 -0.061479103 0.062898204 -0.0012171868 -0.032321703 -0.094914354 0.039131384 -0.09107081 0.09548072 0.09646926 0.01894109 0.2163579 0.0017262714 -0.06687412 -0.015169444 0.08753661 0.11812803 0.057374943 0.102098145 -0.11002449 0.10484759 0.11566978 -0.036485802 0.13418452 0.05132301 -0.07254086 0.0186238 0.021812733 -0.002023106 0.028728971 0.0016188403 -0.013527503 0.014492187 -0.06701621 0.111759715 -0.031956293 0.08614499 -0.04435952 -0.03218237 0.053063538 -0.14577179 0.042649772 -0.10187162 0.12239789 0.0872195 -0.08668557 0.044924606 0.08543667 0.077393144 -0.10962738 0.031777557 -0.11679345 0.048790563 0.08218249 0.067198105 0.01921483 0.091410324 -0.013456265 -0.18118976 -0.14507857 0.038517416 -0.0028550203 0.09890002 -0.06288596 -0.123358995 -0.082817174 -0.08790122 0.13528708 -0.048013285 0.012328336 0.12048533 0.032485012 0.1100508 0.014223174 -0.06415244 0.0023162006 0.028291935 0.050867457 -0.09978518 0.021280413 -0.067483954 0.09278889 0.06912965 -0.028040916 -0.16277696 0.02319271 0.037674535 0.027729534 0.07552348 -0.06516951 0.1498793 -0.048387825 0.115438476 0.06434833 -0.065329865 -0.038717948 0.1454643 0.11559622 0.006221144 -0.023905775 0.14740776 0.059957724 0.09393121 -0.04709329 0.12612706 0.0062345266 -0.14217827 -0.09771886 0.07937766 -0.019333515 -0.10925849 -0.12773989 0.09288333 0.018156594 -0.1202871 0.17943698 -0.00087272667 0.027744934 -0.02321921 0.05560594 0.05055498 -0.039435953 -0.0010519248 0.03982187 0.1459864 0.11871739 0.0072614816 -0.079626456 0.099137716 -0.105832905 -0.10363374 0.012269041 0.074145034 -0.07005948 -0.104037434 0.10121764 0.011415468 -0.030469587 0.07070114 0.19918975 -0.05725223 -0.050803598 -0.06778215 -0.012150409 -0.011721115 -0.07167827 -0.022695202 -0.11986864 -0.08854308 -0.0922752 -0.011647986 -0.055401426 0.1151178 0.09562852 -0.108214594 0.14077467 0.0057030204 0.0438367 -0.05725087 0.1025089 -0.03204263 -0.012600296 0.08843371 0.077092655 -0.118291914 -0.012216975 0.039686915 -0.10300231 0.019200707 -0.07343122 -0.07598663 -0.060402658 -0.09996226 0.04224747 0.10038606 0.016918952 0.015698347 -0.08420525 0.14420618 0.0035196876 0.07400531 0.09880999 0.1121 -0.001145967 0.043548398 0.14122716 -0.016157223 -0.024540236 0.086838916 0.10412179 -0.058455534 -0.09086523 -0.07810786 -0.02863999 -0.06087842 -0.06855903 -0.150642 -0.016625667 0.07473154 0.06968846 0.007931913 -0.19702238 -0.15461421 -0.14070164 -0.046160888 -0.041056175 0.036151167 -0.071026064 -0.070875876 0.07719885 0.098845266 0.12653778 -0.02083947 -0.046767287 -0.03534112 -0.058337275 -0.075997904 0.0010068918 0.09766548 0.054808475 -0.16716649 0.008872377 -0.09655716 -0.09691894 0.07283903 -0.037118547 -0.063114695 0.020991918 -0.004200569 -0.07475711 -0.09666111 -0.0137884505 0.025376273
-0.108219005 -0.08649926 -0.05422762 0.0510127 -0.10839851 0.061649404 0.09543162 0.021980245 0.070944056 0.10710952 -0.047645353 -0.09976506 -0.113179795 -0.008876166 0.047896046 -0.0604736 -0.12433603 0.05356677 0.043829817 -0.027833905 -0.07737433 -0.08660755 0.0025325327 -0.037012514 0.0055846106 -0.06492462 0.07686512 -0.057077125 -0.09846265 0.083904386 -0.0025319871 -0.034427658 -0.04570381 0.11125109 -0.12816654 0.043519944 -0.097822815 -0.015889054 0.007571643 -0.09262435 0.10051825 -0.00067754334 -0.12264143 0.00043513867 0.116465814 -0.14085385 0.1054761 0.082677506 0.03262434 0.09832076 -0.005477549 -0.046512235 0.12247952 0.10681998 0.13784139 -0.039867707 0.020859858 -0.10445845 0.081514135 0.045214545 -0.07615636 0.0033752364 -0.06260187 0.013669431 0.07931446 -0.009809038 -0.08417914 0.10346176 0.0070403367 0.029818071 -0.04455144 -0.07929651 -0.08810681 0.070173495 0.11669187 -0.07712223 0.058170505 0.07779559 -0.0742334 -0.104570754 -0.10473852 -0.040730406 0.10574774 -0.11802811 0.058160596 0.013554807 -0.06397834 0.0020116249 0.052614003 -0.11583697 -0.081075765 0.0062648617 0.10728045 -0.008922403 -0.01136275 0.09435733 0.06008999 -0.01511474 0.048460815 -0.09363562 -0.053212143 -0.1150218 0.12279988 -0.1236945 -0.14610198 -0.13220374 0.012576029 -0.11516975 0.051476847 -0.03980032 -0.0018917574 0.10526222 -0.08495871 0.054627866 -0.054448474 -0.08781471 -0.09440337 0.09268416 -0.01952001 -0.12998569 0.0437707 0.076552406 -0.005007585 -0.025717765 -0.071201615 0.02551241 0.051565938 -0.11288123 -0.07141033 0.047930423 -0.09984722 -0.13078374 -0.070101015 -0.03601865 0.04294475 -0.04109197 -0.09168481 -0.10966481 -0.03021498 -0.10098087 0.030201437 0.11768812 -0.004065277 -0.08322583 0.08649255 -0.05847588 -0.11790177 0.015932953 -0.12276518 -0.11799944 0.04738424 0.059976768 -0.040243804 0.12950091 0.017620824 -0.0156414 0.09370069 0.08114627 0.03377769 0.03546204 -0.06844236 0.08649013 0.027108276 0.032248273 -0.0195566 -0.013103111 0.054451026 -0.006842665 0.08136261 -0.06040363 0.00872509 -0.15918426 -0.09648442 -0.014505194 -0.04292863 0.08643287 0.00850736 0.100477666 -0.11008335 -0.03279024 0.11677948 0.079130836 0.009318769 0.110773444 0.0045883143 -0.09644852 -0.01354056 -0.11965117 -0.099197604 -0.13923499 -0.025541611 -0.12122871 -0.035083063 0.0787186 0.09998826 -0.12790617 0.011913539 0.017154766 0.06681216 0.0024844953 -0.0022396494 -0.03668984 -0.102213554 0.12972945 -0.06433322 -0.0186724 0.019503746 -0.13039948 -0.035936113 -0.03526438 0.0040137623 0.01713447 -0.043672543 0.064982206 -0.090649046 0.03401069 -0.11284975 -0.0916756 -0.066873394 0.044540107 0.08554824 0.08445173 0.061238114 -0.06332219 -0.08596461 0.0072913915 0.11367239 0.06662974 -0.06656332 0.08876408 -0.017566692 0.10745657 -0.069658026 0.09349401 -0.06920166 0.121696316 0.013173758 0.049511343 0.020815121 -0.0014732094 0.036137365 -0.14600998 -0.018707199 -0.06305079 0.06502136 -0.12495121 0.08230322 0.12807749 -0.0035094619 0.06495858 0.08061081 0.061387833 -0.007273769 0.052897032 0.088297985 -0.03254456 -0.01987356
0.08409796 0.09552229 -0.14837074 0.04426145 0.10759577 0.033914164 -0.010605173 -0.01846445 0.0037325928 0.1264261 0.011019158 -0.052610952 -0.050326157 0.059635766 -0.08666189 0.06621838 0.11522835 0.10451081 -0.10769255 0.05824163 0.0050751935 -0.060062118 0.08838704 -0.06638676 0.054564923 0.12110531 0.116947345 0.13371268 0.09874267 -0.08290184 0.057939135 0.028856035 0.10932647 -0.03516429 -0.06620771 0.025837641 -0.0359284 0.10985845 0.07220278 0.16272245 -0.01580817 0.025875494 0.114976965 -0.1610555 -0.08131359 0.10557615 -0.033308998 0.08235588 0.09624386 0.059341848 0.041115493 -0.03259285 -0.014753616 -0.07579833 -0.01240853 0.09668838 -0.058235858 -0.064037204 -0.06706161 -0.070364945 0.13426909 0.01732829 -0.045353442 -0.07697009 -0.07048934 0.08928493 0.10655674 0.1428873 0.11541459 0.010394866 -0.089191675 0.019047312 0.022497458 -0.098057225 0.01897382 -0.11689885 0.114764035 -0.0037322938 -0.08232303 -0.05106647 0.056714658 0.102222614 -0.087702185 -0.06707123 -0.08476795 0.080687724 -0.05992976 0.0068267668 0.07029493 -0.024097385 -0.02958474 0.01907876 -0.13072154 -0.008540604 -0.060919642 -0.089966476 -0.035389584 0.0746798 -0.12559159 -0.063703366 -0.085517995 0.021024603 -0.068502426 -0.023856755 -0.08004656 -0.046029247 -0.09514339 -0.095175855 -0.04979958 0.05979565 0.024476899 -0.10267063 0.09531562 0.13914496 0.13583237 0.14416622 0.041392263 0.13974456 0.02850921 -0.15104426 -0.0686302 -0.08582842 0.036852837 0.009530601 0.06831623 0.014790758 -0.11756269 -0.08488415 -0.0330387 0.103016846 -0.16905001 -0.040562727 -0.052237734 -0.0018792293 -0.029857766 0.03509056 -0.020109788 0.056273147 0.010942143 -0.09108272 0.09445862 -0.0137723535 0.11336304 -0.031014519 -0.055422697 0.067549974 0.025719795 0.024648169 -0.0031747094 0.100985326 -0.03684305 0.02333542 0.14026502 -0.07556839 -0.0046172496 -0.17758735 0.112597674 0.12018214 -0.032737695 0.07299336 0.0077626207 0.07804054 0.15495367 0.05611838 0.056725062 -0.08194836 0.09936537 0.07218631 -0.00080564385 -0.073223 0.12921725 -0.088382155 0.00033412385 0.11797732 -0.08365064 -0.06315074 0.06771739 0.03285338 -0.1487606 0.1269895 -0.073609166 -0.08218199 -0.09585344 -0.0814101 0.033840954 0.05323819 -0.030481856 0.005502532 -0.002564109 -0.11358541 -0.13745433 -0.060533356 -0.13818538 -0.062851325 0.0031271921 -0.11247976 0.016894732 0.00030832834 0.08538585 -0.13719803 0.023650505 0.05348927 0.0098876385 -0.07077174 0.1595673 0.08379525 0.011429598 0.04755403 -0.05020662 0.122792475 0.079478234 -0.10799398 -0.06957054 0.04188046 -0.115601376 -0.08200832 0.03994964 -0.013519608 0.0590856 0.12820724 -0.07082236 0.021600468 0.1248472 0.042678595 0.022301083 -0.011411836 -0.151924 0.07908421 0.019883366 -0.12851691 0.04516363 -0.058151595 0.052406687 0.029322017 0.05125368 -0.029563816 0.0012595371 0.14365554 0.13286516 0.02265038 -0.14317986 0.07871946 -0.077653304 -0.03832787 -0.052158803 -0.0019078157 -0.10284764 -0.0045297863 0.1006871 0.07733549 -0.119658165 -0.061090812 -0.02930389 0.051639862 0.0029676724 0.056290995 0.0097639505
0.10726264 -0.009724981 0.107383735 -0.021391572 -0.053087737 0.09089614 0.11812959 0.053856786 0.007698492 -0.15162335 -0.06620942 0.11191022 -0.058531042 0.049086995 -0.019122437 -0.06982349 -0.10372991 0.0035856394 0.053745434 0.019531619 -0.048080802 -0.10070022 0.0880698 -0.03938972 -0.08889661 -0.059287187 0.10799584 0.1138387 0.051693592 0.059130203 -0.065956645 -0.089801036 0.010677681 -0.015031375 0.0393739 -0.14127094 0.12465602 0.02751328 0.045516733 -0.11206871 -0.06388096 -0.011530818 -0.06099704 -0.0699592 -0.071624815 0.07973443 -0.09479855 0.03369101 -0.029212158 0.047302596 -0.035676554 -0.08889657 0.08947811 0.008530768 0.058673456 -0.02771868 0.124280736 0.014223239 0.0077723176 -0.06787792 0.095282115 0.02963554 -0.13596776 0.07176221 0.11089349 0.053217422 0.18012878 0.073655896 0.037791852 0.04681737 0.012039943 -0.0060973563 0.09280068 0.0046258927 -0.08547553 0.047373705 0.10014627 -0.018963246 0.105321065 -0.08387721 -0.10658398 -0.002896037 0.09751348 0.01584839 -0.076180756 0.031629466 0.06485673 -0.003957237 -0.041693978 -0.11709028 -0.028204795 0.0774183 0.010905324 -0.10263066 -0.14319691 -0.0022278554 -0.032377902 0.04924563 0.05819044 -0.19438468 -0.10718508 -0.018354466 0.059527047 -0.014665333 -0.09288196 -0.094411194 0.11101795 0.07645477 0.120335914 -0.127458 -0.08445101 0.004278491 0.053424347 0.06911129 0.10871137 -0.01188228 0.07393545 -0.043297943 -0.063521795 0.031946793 0.09221482 0.16076745 -0.08175856 0.013715904 -0.0073665758 0.088291965 0.13139442 -0.019457364 -0.028128184 -0.08995181 -0.032589477 -0.097057894 0.034093004 -0.12047222 -0.005641111 0.1220961 -0.08333313 0.062036384 -0.13021888 0.0613842 0.08563375 -0.10913109 0.020776162 0.0051249894 0.12147699 -0.012879209 -0.020699684 0.07601599 -0.14043845 0.08560952 0.055271946 0.032134764 -0.04116306 0.071703844 0.11932076 0.07471547 0.090015255 -0.08556061 -0.055246275 0.11319517 0.15062448 0.002487137 0.084987074 -0.12229297 -0.1662775 0.08297321 -0.14793153 -0.054123096 0.007707944 -0.059695 0.0272209 0.02981326 0.068780884 0.08081042 -0.013076627 -0.046465147 0.07746893 0.024866972 -0.17815192 0.008952214 -0.058415823 -0.047760677 0.032955546 0.09283413 0.054599706 -0.062349074 -0.13430712 0.15816207 0.10654412 0.05758158 -0.08801878 0.046568286 0.035424978 0.05072085 0.013091374 -0.012945781 0.071921326 -0.061198186 0.014385374 -0.002309687 0.11049941 -0.11868373 -0.12812302 -0.004948153 0.025623197 0.035538998 -0.08208316 0.017271414 0.025068898 -0.068893686 -0.018234579 -0.024231171 -0.13869147 0.095749214 0.06376651 0.09868402 0.09109174 0.13065371 -0.15231317 0.004056766 -0.043992195 0.07951544 -0.10458966 0.07132536 -0.06597758 0.09079692 -0.0184876 0.07953604 -0.07886188 -0.09383003 -0.0382172 0.122649334 0.062071614 -0.10022565 0.012473242 0.07228282 -0.12631592 -0.05430309 -0.05926464 -0.014749975 0.0056600175 -0.09922261 -0.047910217 0.07784206 0.09632696 0.113411136 -0.070332944 -0.08945171 -0.055702772 0.050682858 0.035324935 0.14867501 0.11431043 -0.04473853 0.09207614 0.14884749 0.0010868225
0.056388468 -0.048128054 0.05476813 -0.019056937 -0.09511596 -0.015004422 0.08161673 -0.07986612 -0.08897598 0.023460481 -0.12220457 -0.06253009 0.054367997 0.07005841 -0.07578614 0.096390516 -0.042807147 -0.050267413 0.030533422 0.031178493 0.07025133 -0.05631979 0.073544756 -0.086917065 0.023679527 0.04037679 0.0085876575 0.04023671 0.11309466 0.0002377657 -0.12004935 0.06567513 0.10477666 0.111044206 0.011760958 0.0008856361 0.03990393 -0.08487231 0.07021647 0.051043592 0.059220187 0.06093393 0.069300495 -0.098315775 -0.08236114 0.0980967 -0.042670753 0.01951035 0.11062295 0.09838541 0.06958841 0.0070218374 -0.0625222 0.014643929 -0.032838464 -0.045815878 -0.03800963 -0.00023735515 0.12148784 0.053953085 -0.12031786 0.08274275 0.12328976 0.06252606 -0.0909675 0.051244363 -0.06566466 -0.0845586 -0.1170246 -0.011011625 0.07225683 0.08612119 -0.10281174 -0.035464533 -0.079710156 0.09051591 0.040538453 -0.090197064 -0.010823663 -0.07645443 -0.017265974 -0.041329775 0.060083702 0.12803103 -0.114808 -0.069550715 0.056930944 0.05219208 -0.12404711 0.083765335 -0.0129227545 0.04193415 0.00060539675 0.0010656085 -0.081605785 -0.0033671397 -0.019568032 0.11225841 0.049753092 -0.05502608 0.10636712 -0.033396464 0.08273051 -0.030885145 -0.09182265 -0.019946823 0.0048654513 0.025242666 -0.07025715 -0.0021157372 -0.10343326 -0.08604651 -0.008011102 0.061002936 0.020989897 -0.09160298 -0.11391539 0.017959269 -0.03505147 0.033674616 -0.07780239 -0.08444243 0.00092984154 0.051906917 0.06583503 0.10858857 0.037586603 0.023867948 -0.020202026 -0.05695623 0.074087724 -0.0770383 0.05450247 -0.10406007 -0.012786817 0.03479369 0.024243874 -0.08759956 -0.0046453187 -0.083171844 -0.064854 -0.0852439 -0.09916274 0.093396425 0.05383122 -0.057723578 0.009278191 0.08014034 0.112681605 -0.123102725 -0.10311585 0.09788989 0.032973267 -0.010789725 -0.0022304943 -0.11096295 -0.08111861 0.042083662 -0.06060919 -0.03546182 -0.032574728 -0.11060971 -0.042575534 -0.105115935 -0.09468155 0.011990952 0.029260129 -0.11746362 0.06575235 0.014845094 -0.10601153 0.12584911 -0.042379834 0.1137208 0.07191129 -0.06417066 -0.09074831 -0.069662064 -0.005720263 -0.11364375 -0.04370249 0.10104711 -0.0356616 -0.0645356 -0.11360823 -0.08962474 0.08735195 0.006437887 -0.091799006 -0.01836544 0.04529823 -0.015794365 0.09970652 -0.08879883 -0.050327387 -0.08728308 0.08501152 0.014344425 -0.09651722 0.0853863 0.059960432 0.05843907 -0.008350388 0.00092705945 0.10179257 0.10491964 -0.1241044 -0.06165893 0.042929344 0.109401226 0.089742206 -0.035845034 0.07735186 -0.048152003 -0.075768046 0.12724884 -0.058184907 0.0962619 0.10554955 0.08687601 -0.02844817 -0.12103973 -0.04090996 -0.1006179 0.0666001 -0.012046734 -0.11364958 0.057846833 0.041107703 0.004269508 -0.096710876 -0.07400524 0.104611784 0.059241068 0.05993393 -0.02539812 0.04480602 -0.07370023 0.019903637 0.08028515 0.055923376 0.12214148 -0.0634721 -0.02238698 0.035431407 -0.04245363 0.085514225 -0.09206431 0.12003864 -0.10330982 0.071325555 0.032545768 -0.12082504 0.1077111 -0.101726785 -0.050918467 0.009647381
0.039373975 -0.1681311 -0.05716525 0.0617667 -0.037886906 -0.06073129 -0.14777236 0.07682622 0.05800013 0.05291498 -0.04718888 0.077345446 -0.10655375 -0.13124232 0.03963927 0.12735613 -0.08376854 -0.11849134 -0.09043299 -0.026782278 0.10518998 0.14911771 -0.028236287 -0.07107701 0.13829333 0.0022475186 0.094340876 -0.06201298 0.051740687 -0.07654281 0.0743244 -0.00942024 -0.16277947 0.06985307 -0.009634026 0.1532671 -0.13106768 0.015075209 -0.053292073 -0.05846738 0.0544239 0.013370135 0.082793415 0.08523322 -0.09493058 0.023316089 0.09522528 -0.03645696 -0.080991246 0.04875517 -0.07681181 0.013874021 -0.07473621 -0.0365836 0.04835336 0.0205072 0.089548 -0.07280704 0.05147349 0.08279322 0.075933784 0.010195945 0.009867607 -0.075032994 -0.050709408 -0.045635015 -0.0756433 0.10879946 0.09311057 0.10760354 -0.14485605 0.087292224 -0.038075324 0.07773719 0.01269776 0.07116865 -0.08994106 0.07606464 0.037775025 -0.03184307 0.15076843 -0.0030106872 0.049481694 -0.08722272 -0.114350155 0.043149523 0.08319655 -0.06855458 -0.023480758 0.08798824 -0.11696151 -0.010133342 0.0027951556 -0.031546492 0.051328663 0.04662329 0.15677284 0.08159674 0.12141762 -0.12455387 -0.10496253 0.07307616 -0.019473827 -0.010964893 -0.04242838 0.030789679 -0.056850247 -0.09193787 0.13172208 -0.09406878 0.05490331 0.08521628 0.021696705 -0.067271166 -0.074287795 0.027688554 0.019403595 0.106489465 -0.09725888 -0.112947434 0.094159365 0.023916448 0.05478467 -0.027784256 -0.007835329 -0.043701664 -0.06889552 -0.04793896 -0.021691011 0.12439214 -0.11681883 0.009689923 -0.015294193 0.08678492 0.08991752 0.06043117 0.15987019 0.060061518 -0.09670088 0.057322927 0.11541256 0.07845781 0.041720323 0.12733027 -0.13796034 0.03503811 0.11045742 -0.08624875 0.057159044 0.08484112 0.018790513 -0.001652101 -0.093035825 -0.023999756 0.09149421 -0.14392318 0.13888761 0.010270808 0.0955858 -0.025394445 -0.12360957 -0.08131604 0.097546585 0.058631234 -0.08706588 0.11453609 -0.08897177 0.109915055 0.113394715 -0.054948516 -0.08802797 -0.10706647 0.026022835 0.071469955 0.10455357 0.087387234 -0.08293533 0.054945633 0.03989153 0.029204577 0.06271773 0.11560031 0.02332491 0.07729961 -0.04529447 0.10998917 -0.09302167 0.07370136 0.10572995 -0.04882419 0.07472744 -0.010514592 0.038640402 -0.07333268 -0.013474589 -0.076463394 0.016099654 0.057850808 0.014384131 -0.049455266 -0.038988713 -0.008677831 -0.0253321 0.116034254 0.12778647 0.043029238 0.027150927 0.028469954 -0.041584 0.036440868 -0.07839993 0.08116666 -0.076218024 0.0783204 0.010342425 -0.102990754 0.055239692 -0.0072584427 -0.11047681 -0.14656563 0.07586414 -0.046208188 0.0673902 -0.011062449 0.0037493177 -0.030857543 -0.017553113 0.013791513 0.03309221 -0.058972437 0.03565742 -0.027996808 -0.0670478 -0.11961961 0.0047822003 -0.064726874 -0.09799927 0.055664096 -0.021566877 0.055289842 -0.007250253 0.002792681 -0.053730775 0.05360659 -0.08595177 0.07408142 -0.0021353718 0.10611241 0.09828828 -0.08667625 -0.06336479 0.04979379 -0.015762016 -0.05158423 0.10274153 0.013684016 0.01206565
-0.021238498 -0.14993282 -0.14075255 0.12660535 0.08542046 0.102864236 -0.113934115 -0.07951113 -0.072210886 -0.011485254 0.018881844 -0.016577585 0.14611217 -0.08366383 0.10207766 -0.05113182 -0.05160863 0.036092523 -0.07840845 -0.035438847 0.011355571 0.08855479 0.07408146 0.010338996 0.15646216 0.19131912 -0.03522011 0.08875687 -0.019669179 0.105232604 0.089426115 0.102598704 0.086944945 0.059331276 -0.0010813323 0.045368645 0.07315599 -0.0669079 -0.0015321551 0.13877517 -0.06702702 0.06400154 -0.12525281 -0.1537845 -0.059770834 0.16129147 0.08239893 0.048023485 0.05305747 0.009964467 -0.041501626 0.06308279 0.13315552 -0.07530115 -0.082758605 0.0069833426 0.0017314774 -0.12684411 0.10016747 -0.04605192 -0.08533911 -0.0098237395 0.068395406 -0.16226716 0.06930925 -0.04022363 -0.108305536 -0.039316777 0.10395961 -0.1198555 0.1357414 -0.0025008114 0.07225843 0.077541396 0.043789167 -0.05286625 -0.015301541 0.051873118 -0.093887076 0.034366712 -0.023774687 0.03480919 -0.12263286 -0.044384558 -0.08170941 0.120809026 -0.09261747 0.074062414 0.11511284 -0.030948913 -0.028718317 0.066071555 0.009103948 0.01378644 -0.12913449 0.11207114 0.1460765 0.06172337 -0.046238963 -0.028177066 0.16609132 0.07178897 -0.08224243 -0.04413226 -0.031989936 0.058645263 0.0044979127 -0.1542889 -0.105635926 -0.06357016 -0.054130398 0.03878641 0.096208714 0.05780048 0.040788542 0.06638141 -0.052161112 0.074229866 0.09886751 0.08122388 0.028517475 0.034779616 -0.012747764 0.0063135056 -0.06338107 0.012807089 -0.052771933 0.07683067 0.10439226 0.12219611 0.14652787 0.003085527 -0.006810098 0.01123729 -0.124752246 -0.026470026 0.03883691 -0.049042407 0.011728318 0.07923009 -0.06303436 -0.07150949 0.036076587 0.025876492 -0.05969893 -0.012841842 -0.08573362 -0.058286555 0.09428576 0.090508126 -0.057744093 0.17636809 0.17753589 0.06271421 0.09877921 -0.02659805 -0.0897315 -0.074800365 0.051006634 0.11143759 0.102115914 0.02023195 0.106883585 0.18887688 -0.01710027 0.032670546 0.056688976 0.12182986 -0.02653387 0.10404946 0.04557041 -0.08985015 -0.05564626 -0.12865403 -0.0926314 0.0038731317 -0.025575515 0.08083153 0.14499725 -0.04269422 -0.051489387 0.09971201 0.04608617 -0.060808312 -0.11069231 -0.03751971 -0.03285123 -0.060484942 0.11859319 -0.034426004 -0.06604639 0.04561362 -0.02113995 0.04528684 -0.10276866 0.06709507 -0.08574108 -0.045753125 0.003219169 0.009170981 0.017061885 -0.0791133 0.099968925 -0.0765774 -0.06445479 0.09230802 0.012091942 -0.014630822 -0.0138020655 0.051075246 -0.096485436 -0.046189763 0.1205508 -0.038734153 -0.008501701 -0.11974912 -0.04338185 0.020620693 -0.015823027 0.022224221 0.064810395 0.009039687 -0.111266054 0.09001248 0.107332334 0.10646604 -0.033653952 -0.06668083 -0.008479331 0.07635394 -0.09120606 -0.015752807 0.14007355 -0.055719957 -0.120718725 0.05992025 0.102080345 0.09150947 0.12020578 0.019883202 -0.1076931 -0.014708111 -0.07612577 0.028415348 0.022602338 -0.08236235 -0.08389129 0.10422895 -0.05273638 0.041109357 0.12223207 0.07791917 -0.14541209 0.13750364 0.15229157 0.09136855 0.009527717
