-0.089943476 0.049708646 -0.100462146 0.12168346 0.15747464 -0.10537757 -0.04119979 -0.12602286 -0.09387366 0.100714326 -0.039073672 -0.11912362 -0.1617483 -0.1798703 -0.034784906 -0.05727828 -0.022911275 0.0018905762 -0.17549622 0.0071617626 -0.052518453 0.07296394 0.15106727 0.02560088 -0.033464663 -0.011940117 -0.008878504 0.10904697 0.089584805 -0.0718767 -0.1469905 0.021703893 0.1461707 0.100761384 0.034032557 -0.17997433 -0.046980698 0.004096841 0.0864062 0.05610542 -0.08088239 -0.14030823 0.010413042 0.04604191 0.061028138 0.08776116 0.03543163 0.046049587 -0.015827252 0.04327702 -0.01088457 0.036702156 0.020852953 -0.07219263 -0.0023988276 0.14487563 -0.020293431 0.08101113 -0.036119077 -0.0756794 -0.008872276 0.119291484 0.02922305 -0.006576709 0.031620007 0.110980466 -0.0491332 0.080967955 0.17366612 0.1334874 -0.04013448 0.05337143 -0.124552414 0.0064746193 -0.02281297 0.047555737 0.07208631 0.02144877 0.020968879 0.10125772 -0.09579565 -0.17516512 -0.13449018 0.046265464 0.08588473 -0.045456022 -0.15951978 -0.24825384 -0.22620364 0.0017915848 -0.06088028 -0.03682775 0.083047494 -0.06727975 -0.18099244 0.021101104 0.07121633 0.1912619 0.08997076 -0.05005041 0.0610713 -0.06817353 0.12665513 0.009551263 0.07990034 -0.09890491 -0.07512642 0.07301417 0.010342931 0.045980442 -0.06785102 -0.07108413 0.04347268 0.03580769 0.15221359 -0.13395476 -0.10914336 -0.0016759741 0.012594686 0.016635971 -0.11085959 0.07568544 -0.1165519 -0.11782994 0.018604662 -0.027202632 -0.022271771 -0.03127609 -0.09359496 0.031290784 -0.08300855 -0.036894903 -0.063882336 -0.15316887 -0.102295384 0.03460156 -0.20022555 -0.11401736 -0.11684802 -0.14676861 0.021478962 0.009452986 -0.040884588 0.017658088 -0.13450582 0.1425362 0.20691472 0.12637964 0.16778156 -0.01732879 -0.012182784
0.08339946 0.09628206 0.1244098 -0.032157645 0.05277719 -0.04881914 0.060246732 0.041730057 -0.055231396 -0.12080984 0.03783392 0.03941331 0.05924747 0.07499996 -0.09091297 -0.004263953 -0.01623914 0.03896205 -0.0015460163 -0.025843257 0.01811679 -0.04251729 0.0013582107 0.05453538 0.060086105 0.024384178 -0.17529184 -0.0350665 0.045089256 -0.155341 0.015687758 -0.097413816 -0.12708522 -0.1392297 -0.14359422 0.09085686 0.10875808 0.0018482343 -0.112382464 -0.0056214524 0.085315086 0.030988269 0.1613795 -0.013496138 0.067916125 0.11791148 0.11049442 0.0075936336 0.14104383 0.04581112 0.06927698 -0.14344491 0.009915662 0.078779824 -0.03230136 0.12524182 -0.025534708 -0.036989868 0.11571568 0.08251545 -0.12022999 0.016203193 -0.105369754 -0.015599639 -0.030387234 -0.053325143 -0.19188848 0.0011969588 -0.18029854 0.007957525 0.01136505 0.038393572 0.04226729 -0.024376392 0.040071398 -0.055556305 0.034999926 0.1883094 0.025159203 0.048612695 -0.07539824 -0.11809145 0.13271518 -0.03393771 -0.003997853 -0.020327315 -0.1310988 -0.06058728 -0.0011411471 -0.028526697 0.028352542 -0.1020318 0.014793841 0.035834074 -0.021697408 -0.003495248 0.027333912 -0.13674325 0.05488995 0.0091618085 0.023969246 -0.06316654 -0.005117328 0.016898511 -0.03687251 0.12856327 0.080262735 0.07449314 -0.0020512715 -0.020193348 -0.0823976 0.050619867 -0.06257465 0.051030606 -0.12293054 -0.11251014 0.030826405 0.038497247 0.07761338 -0.037063707 -0.11046958 0.020618765 -0.106410846 0.04679174 -0.01316879 0.02993818 0.13303268 0.0008450507 0.04975201 0.00980794 -0.05229104 -0.08412607 0.1093091 0.12898906 0.108532414 -0.09394706 -0.11949908 -0.15919985 -0.0012972192 0.032047372 0.06863026 0.02846469 -0.15469295 -0.035690084 -0.124955155 0.06292521 -0.052517004 -0.02190155 -0.13336024 0.04464356 -0.029672364
-0.044887442 0.063623145 0.07048363 -0.025806377 0.08894477 0.10394236 0.111126766 0.18400438 0.1317404 0.07671872 -0.02091392 -0.08635729 0.0019106033 -0.13892941 -0.15715013 -0.007202468 0.03862252 -0.167682 -0.01359564 -0.08059005 -0.044466194 -0.04091502 0.05476015 -0.02315423 -0.0023978448 -0.034956083 -0.08950477 -0.08966791 0.01175618 -0.012971245 0.08910209 -0.050840624 0.03436963 -0.053354345 0.046940986 -0.15352769 -0.063605286 -0.054499634 -0.138755 -0.13638996 -0.17134117 -0.21778795 -0.040141422 0.01622712 -0.0012950167 -0.13722043 0.037748773 0.13456583 -0.014746889 0.0020529807 -0.089647226 -0.026657162 -0.25091562 -0.18925978 -0.13624543 -0.058846667 0.11073372 -0.037684824 0.0024655038 0.16071606 0.13317351 0.23384023 0.25329107 0.24083498 0.19857514 0.05675579 0.08212155 0.05726934 0.0718153 -0.0011588606 -0.021538384 -0.15137748 -0.12886049 -0.23223028 -0.15186538 0.0029017122 -0.07088133 0.07252945 0.08202694 0.061909538 0.13859361 0.1361533 0.13066989 0.06944927 0.08218584 -0.08657518 -0.09153096 -0.07459802 0.0654379 -0.0039921193 -0.006344196 -0.027046245 0.14232594 0.063378446 0.0009792123 0.018323235 0.11150559 -0.04044397 -0.01761791 0.106774285 0.04346632 0.0657097 0.08967157 0.101529606 0.039371043 -0.052894752 0.008313615 0.08894883 -0.042022467 0.027908333 -0.075683154 -0.012122048 0.06786367 0.00033255504 0.16866896 -0.100561544 -0.076789066 -0.05113714 -0.015986888 -0.105609864 -0.11383291 -0.10583985 -0.18393537 -0.08329057 -0.13934751 -0.11598832 -0.014810092 0.059796926 -0.054830946 -0.041698705 0.11709818 0.004640939 0.028914385 0.1213671 0.010457044 -0.09384494 -0.12507579 -0.06446915 0.026065791 -0.097338684 0.043319687 -0.1391066 0.057476785 0.06635826 0.009490217 0.069622025 -0.051759824 0.10555438 0.12034438 0.14106324 0.024865977
-0.021747507 0.11695535 0.069899924 0.01634055 0.04795853 0.105100386 -0.07371812 -0.017315168 -0.08298106 -0.11091789 0.09660175 0.04570109 -0.03556967 0.095766224 0.09527513 -0.017978407 -0.08520269 -0.0228771 0.094195135 0.022498513 0.10273354 -0.06766376 -0.07418042 -0.016984103 0.07252532 0.061550092 0.0145069845 0.030424997 -0.09102601 -0.1310082 -0.042093813 -0.015054566 -0.09845089 -0.17217115 0.012605383 -0.10871563 -0.06461447 0.04406751 -0.111310884 0.040119294 -0.09592486 -0.06498309 0.04609633 -0.010081424 0.020363392 0.054579865 -0.030924983 0.09079193 -0.05348113 0.13546851 0.08940163 0.17510754 0.056117944 -0.11201079 -0.00580196 0.096075006 -0.007929679 0.10674742 -0.11004629 0.058627833 -0.022794837 -0.021211727 0.037826702 -0.1344149 -0.06702976 -0.03683015 0.09594163 0.037387673 0.016961444 0.09836486 -0.05067215 0.083707236 0.036764916 0.043414705 0.082249455 0.042076822 -0.005529561 -0.05696921 -0.11712643 -0.03544263 -0.019829158 0.020510264 0.0035408745 -0.051701758 -0.049161293 -0.00094475935 0.079191856 -0.058743507 0.068241365 -0.0035101173 0.1172055 -0.057012875 -0.0074703977 -0.042014662 0.0079420125 0.10306516 -0.09713048 -0.05458064 -0.008754218 -0.01969505 0.014847018 0.15184002 -0.039865214 -0.0066433167 -0.022532256 0.029504197 -0.01760155 -0.10264784 -0.08077498 -0.15266791 -0.088325396 -0.039748184 -0.04679671 -0.14473578 0.015403661 -0.006203806 -0.07955974 0.046232585 -0.06295879 -0.0063213976 -0.09058513 0.0022179373 -0.044014454 0.085814014 0.0012099468 -0.08876961 -0.0988329 -0.17249906 -0.13921858 0.0078327 -0.14248781 -0.1403387 0.031052386 0.0252793 0.07428947 0.0075020753 0.11033697 -0.012917595 -0.017249674 0.1500535 0.08548657 -0.008209992 0.11378206 0.09197145 0.030270893 -0.049799908 -0.09213882 -0.060549032 0.10297316 0.07284938 0.031010494
0.0075670313 0.057325296 0.08300126 0.036537822 0.112249956 0.030441035 -0.028317776 -0.02850983 0.1751449 0.1707395 -0.14126009 -0.07708966 0.04734003 -0.07985909 0.06345268 -0.081756 -0.0827064 -0.113564834 -0.11991919 -0.0962843 -0.12308412 0.05576323 -0.022597995 -0.006012558 -0.06364671 -0.050849304 -0.074759424 -0.10344187 -0.056966867 0.017017072 0.07785984 -0.055620365 -0.076534964 -0.20570049 -0.09253603 -0.12829024 -0.1567133 -0.038762048 -0.09663069 -0.09508476 -0.10733031 -0.10392327 -0.032169107 0.017755292 -0.118630245 0.055877693 0.040427238 -0.025425453 0.018863965 0.022622405 0.06908084 -0.031734582 -0.091163814 -0.00578362 -0.113578916 0.04476241 0.1687635 0.08395367 0.07967811 -0.14863083 0.043655995 0.08876173 0.10585051 0.16377662 -0.12681413 -0.113556355 -0.08781141 -0.0901254 -0.032876577 -0.015835898 -0.030557282 -0.075639665 -0.15599355 0.042812258 0.0491394 0.06879182 0.010335394 0.034450065 0.16081063 0.10010819 0.022993755 0.11823099 0.047044728 0.15910286 0.014592525 0.0955321 -0.017164622 -0.103499345 -0.06803995 0.12214464 0.053977367 0.013514481 0.026163975 -0.000112384776 -0.097398326 -0.035024267 0.14472932 0.03363947 -0.061338168 -0.050300784 -0.1105877 -0.042772558 -0.095985964 0.05189327 -0.1394122 0.006208403 0.08237284 0.04272397 0.07056358 -0.027508628 -0.044174228 0.1078966 0.16086157 0.14152843 0.14746235 -0.03680089 0.0153507665 0.08211961 0.1045319 0.14048323 -0.034004178 -0.054709177 -0.07406768 0.08850026 0.015664404 0.04087981 -0.08953343 0.0014700845 -0.033980444 0.08489891 0.021266751 0.13199483 0.107568294 0.09340916 0.053482816 0.07775023 0.02969516 -0.060701832 -0.09364123 0.101719454 -0.01772492 -0.03245421 0.0007756047 -0.09831017 -0.0039320462 0.098739445 0.0875419 0.02887836 -0.04974673 -0.06356154 -0.013989195
-0.058899764 0.0132392105 -0.015230629 -0.06337444 0.023281379 0.051004075 0.04150455 -0.058755245 -0.008712668 0.05464468 -0.08158195 -0.035290312 -0.064348325 -0.022637669 0.06446383 -0.020267755 -0.0036396403 -0.17425975 -0.04366879 0.15874146 -0.08575799 0.021187562 -0.05308293 0.006807818 0.13792434 -0.06033048 0.040769156 -0.09367122 0.026848568 -0.08816175 -0.026834069 -0.01838723 -0.050735325 0.0832947 0.10341374 -0.059682157 0.051856708 0.049590494 0.1242398 -0.1267336 -0.045811795 0.0035081482 0.178254 0.11369998 -0.13473098 -0.052046243 0.047225386 0.20751216 0.08065257 -0.06787661 -0.086689904 0.11129041 -0.061201364 0.002110901 -0.17049803 0.010093806 0.12569615 -0.010553995 -0.02271277 -0.18996458 -0.072344646 -0.049932856 0.0041863425 -0.023886543 -0.26471472 0.20201062 0.08177747 -0.1785894 -0.15938193 -0.18109201 -0.01834815 -0.07771402 -0.09602293 -0.015638169 -0.003043367 0.08288739 0.050387792 0.0664942 0.09115063 0.03563698 0.04265879 0.13234721 0.04877453 0.041153967 0.09061002 0.10171839 -0.051057406 -0.0875863 -0.004384821 -0.07818925 -0.0946273 -0.012264706 -0.16464524 -0.11964451 0.065233566 0.052932773 -0.03676537 -0.018114941 -0.02453745 0.06365011 0.025331248 -0.108760014 -0.07624242 -0.06638467 0.0024351752 -0.011234219 -0.009364748 0.04104236 0.062235985 0.05382971 0.049929455 -0.09662038 0.068915255 0.03431911 -0.048466902 -0.01119676 0.067929864 0.08902108 -0.05994936 0.0961352 -0.04973653 -0.107325904 -0.072110504 0.020786097 0.112720035 -0.09631167 0.014547286 -0.028849633 0.059561297 0.11512634 -0.0130878 -0.06292431 -0.0050975094 0.1017155 0.052987035 0.08385282 0.058082897 -0.05261373 0.043698248 -0.1275149 -0.1282951 -0.14200123 -0.11672891 -0.10921457 -0.22878419 -0.05145707 0.043486267 -0.04000884 -0.08746457 -0.048340466 -0.020032903
0.010475644 -0.17112066 -0.017039755 -0.048891008 0.05686713 -0.0010213434 0.00594595 -0.0028111439 0.08032228 0.12124101 -0.06946546 -0.039503656 0.084016256 0.04437618 0.10154382 -0.11070593 0.07129941 0.16311583 0.09202447 0.07870939 -0.02132059 -0.013598085 0.08449712 -0.013054701 0.037695084 -0.13915522 0.003632397 0.1229456 0.19043301 -0.05895499 0.015348913 0.13081458 0.19525495 0.087897286 -0.13325764 0.09705923 0.22771968 0.22779208 -0.0046494454 -0.19473529 0.10339825 0.07950758 0.1293115 -0.15156803 -0.030812087 0.19454685 0.13185142 0.112049036 -0.087563135 -0.050522845 -0.07582434 -0.05336915 -0.06036106 -0.20985195 -0.021957109 0.031012014 -0.048059892 -0.23717442 -0.21734218 -0.010803899 -0.051504225 -0.15304346 -0.30908644 -0.0074553974 0.12920433 0.018288612 -0.10659531 -0.2423308 -0.0706374 -0.113713205 -0.16707219 -0.16223416 -0.061480988 0.080882944 0.056169234 -0.0020571721 -0.14826547 -0.08056785 -0.054918382 0.057461414 0.069405586 -0.033147264 0.07473353 0.021655302 -0.0860251 -0.0013659052 -0.09053983 -0.031428892 -0.13537164 -0.0106840115 0.057934318 -0.09118797 -0.15405445 0.006902982 0.14704642 -0.0033250584 -0.1392638 -0.0019799266 0.025822278 0.038130715 -0.06553097 -0.10638634 0.00021175737 -0.033249814 -0.0727848 -0.054603085 -0.009862057 0.023693584 -0.07909034 0.06535027 -0.05656606 -0.063321374 -0.041305322 -0.029231895 0.0775041 -0.026156567 0.08379688 0.0559835 0.12248371 -0.08559834 0.027779939 0.08629579 0.036523506 -0.021854289 -0.03349989 -0.07496419 0.027546631 -0.013667875 -0.011488602 -0.067774124 0.061462164 -0.024384517 0.060915366 0.0034623218 -0.048769172 0.0751199 -0.008479185 -0.04663623 -0.049294956 -0.16254906 0.11729936 -0.0923411 -0.15598083 -0.14966096 -0.044301793 -0.057653878 -0.20903951 -0.21422546 -0.14819437 0.01672029 0.0090965815
0.1321182 -0.038051534 0.046741124 0.03860934 0.00068342016 -0.07463598 0.049952887 0.081455186 0.16334312 -0.01039095 0.0054523544 -0.06585572 0.07558954 5.308952e-05 0.19545531 -0.0004503585 -0.060099747 -0.12672666 0.023268513 -0.0048473636 0.030542217 0.09428276 -0.021014163 0.01888707 -0.15393046 -0.011802098 0.032024443 -0.06679283 0.07208513 -0.02903713 0.026353782 0.029539013 -0.014951519 -0.06449282 0.008548204 0.057990868 0.07369681 -0.047225107 -0.10574943 -0.05945551 -0.104374245 -0.14613399 -0.11440403 -0.15001932 -0.16214037 -0.007898976 -0.15411034 -0.028608166 -0.008050285 -0.13769913 -0.05444767 0.005206549 -0.07899264 0.003679208 -0.052337464 -0.0887323 0.01567035 0.009256515 -0.083796576 0.06890089 -0.088627845 -0.045088496 0.1855514 0.1093299 0.10871153 -0.01634773 -0.066056155 0.082582474 0.082187444 0.09580665 0.06659422 -0.1875791 0.00783713 0.09075465 0.1224835 -0.091878615 0.06734068 0.08274352 -0.020376457 -0.11104965 -0.11353406 -0.12781574 0.023813471 0.15678428 0.06848919 -0.081514314 -0.046355337 0.11832091 0.15028362 0.14238715 -0.061740506 0.04905997 -0.029324912 -0.06604266 0.014767561 -0.0032723122 0.01916685 0.05997972 0.06343851 0.031551495 -0.013394433 -0.024646679 -0.07542846 -0.102411576 -0.029874865 -0.0973583 0.11212988 0.04394203 0.030809492 -0.05014249 -0.049011804 0.033410482 0.043682907 0.08168844 0.08479943 0.053408947 0.014173338 0.050800923 0.16952823 0.07868684 0.050308067 -0.02351629 -0.058505137 0.026625948 -0.042349406 -0.010713749 -0.03910689 -0.068755455 -0.016086325 -0.093048766 -0.1426331 0.049594887 -0.040994454 0.00900511 -0.049732223 -0.026251715 -0.027664527 0.108041435 0.07000369 0.19984739 -0.14730966 -0.12016501 0.026793031 -0.008670723 0.077396035 -0.04741264 0.03988792 0.0404907 0.10994624 0.00844603 -0.01490372
0.13741028 -0.084084176 -0.1424548 -0.04328979 -0.036778904 0.034980647 -0.03137434 -0.11170761 -0.09775633 0.04688824 0.10950851 -0.008072633 -0.10143054 -0.0864049 -0.038830258 0.061604995 -0.055758685 -0.15989253 0.032012537 0.05940191 0.036163695 -0.051780827 -0.035706144 0.019345585 0.037616316 -0.054071344 -0.008011666 0.02037053 0.09537056 0.12488134 0.029145878 -0.08076468 -0.028581906 0.15476115 0.07543862 0.0006232857 0.043199446 0.107824765 0.121877 -0.049969163 -0.09486908 -0.08789095 -0.0019704157 0.17696166 -0.0034819525 -0.002235707 0.08283159 0.17752005 0.18570118 -0.056858342 -0.066728525 -0.07173671 -0.044628773 -0.11799593 -0.053241856 -0.060337447 -0.11665122 -0.2176301 0.004420953 -0.18770938 -0.11682716 -0.0608909 -0.12781952 -0.1533368 -0.13857678 -0.005285689 0.08648098 -0.074071825 -0.10876144 -0.065391995 0.025424598 -0.080694705 -0.09007521 -0.004533313 -0.019370116 0.14676353 -0.026544364 -0.15169035 -0.17261991 -0.011785272 0.11926309 0.015585897 -0.10219985 0.03249962 -0.008932486 -0.00024400093 0.08306639 0.021272367 -0.07620933 -0.060627453 -0.002742102 0.118040286 0.033288796 -0.076924436 -0.05267238 -0.061482888 0.056918185 -0.1193754 -0.05428913 -0.10152273 0.057568233 -0.16446829 -0.03813388 -0.060740776 -0.006192957 0.12980469 0.027126985 -0.1185915 0.013300294 -0.04716689 0.10596423 -0.010635074 -0.0935531 -0.013064794 0.065934695 0.11464502 0.10318536 -0.041199345 0.11202035 -0.08676746 -0.015364382 0.05029712 0.036050566 0.08633793 -0.070214905 0.11777592 0.028657492 -0.15898702 -0.010651678 -0.059964158 0.012367606 0.038076926 -0.1490559 0.02030412 -0.030716175 -0.05750489 0.037542652 0.08526011 0.09821766 -0.05341127 -0.0217639 -0.050717942 0.101060316 -0.05138861 -0.14474209 0.0064228354 0.11868249 -0.027023893 -0.08876587 -0.10290416 0.006373035
0.01054238 -0.13267359 0.025719617 0.07397033 -0.12613435 0.028647883 0.099891864 -0.0018608039 0.05345821 0.049372993 0.042086013 0.1075502 0.12382109 0.13382351 0.021989333 0.04141043 -0.15452519 -0.012863632 0.023434808 0.014117519 -0.0107162865 -0.016370254 -0.069252744 -0.14643855 -0.0630611 -0.07946365 0.029453818 0.0514346 0.052467242 -0.0009280278 0.09449068 0.061264325 -0.105869025 -0.025020761 0.019010993 -0.08699721 -0.16769356 -0.03989203 -0.1106206 -0.019185076 -0.14350708 0.013943357 -0.04377587 -0.07743828 -0.16895021 -0.16012846 -0.1101755 -0.030555494 -0.2004945 -0.19425349 -0.10703336 -0.13175642 -0.15046343 0.044765882 0.019286785 -0.123249546 -0.106585585 -0.120188855 0.041848704 0.0852975 0.12708929 -0.054309294 0.026697408 -0.0745759 0.004279997 0.24407572 0.19045283 0.13032502 0.14841664 0.08355742 0.022676425 0.07920556 0.013512904 -0.0027592273 0.056730926 -0.005272107 -0.09422168 0.0072136046 -0.01479346 0.07090007 0.0052672494 -0.0029226893 0.10478905 0.058292437 -0.03140418 0.079009436 -0.012866366 0.080647714 0.16544378 0.14650783 -0.16716433 -0.06517318 -0.0036416093 0.07790894 -0.047520503 -0.10002458 -0.06163544 0.02565848 -0.10455739 0.007009984 -0.024694683 0.0037037483 0.025493337 0.06568911 0.03331384 0.068212554 -0.064873755 -0.073548235 -0.048268784 -0.0042777034 -0.06427592 0.00042825297 -0.047418326 0.11025934 -0.017858474 0.08394807 0.10155753 0.12595426 -0.006542922 -0.031721238 -0.09347817 -0.10259563 0.041925106 -0.0038812682 -0.037794612 -0.13560447 0.041583117 -0.07960499 0.100247584 0.1037751 0.08977263 0.08170258 -0.11742631 0.017021934 -0.08800162 0.037784237 0.09413545 0.17109825 0.15714942 0.1545786 -0.09436776 -0.1054303 -0.046018783 0.051786132 -0.0029286735 2.5197107e-05 -0.0856935 -0.057578843 -0.028825892 -0.0919504 0.0065238457
0.06062027 0.080564275 0.10291646 -0.03512377 -0.08144678 0.02479225 -0.0631283 -0.041331325 -0.12101891 -0.03155351 -0.025517493 -0.0472937 -0.18976495 -0.12748787 -0.031264592 0.036001243 -0.0045823487 0.13286123 -0.058580887 -0.0011269762 0.025700921 -0.04433895 0.17574634 -0.00016373786 0.028549634 0.2044866 0.15178637 0.0020535039 -0.024587851 -0.023185419 0.1072345 -0.059174005 -0.041807834 -0.23385638 -0.07150179 -0.11945773 -0.17970812 -0.20119376 -0.201425 -0.15813863 -0.17210951 -0.21878004 -0.15810406 -0.13250138 -0.173098 -0.08541191 -0.005293086 -0.1410124 -0.107188545 -0.052554525 0.050682813 -0.028670773 0.23339307 0.071502686 0.0063322624 0.091974854 0.1663081 0.19110413 0.10950212 0.107544534 0.14623564 0.1340617 0.16345847 0.107886046 0.026973067 0.08210295 -0.101894386 0.013407515 -0.06139318 -0.028223328 0.10583105 0.04877344 0.14082871 -0.01884415 -0.22708414 -0.07596325 0.0875084 -0.08022732 0.059257876 0.06048122 0.0540497 -0.08822542 -0.17912975 -0.087196514 -0.17586416 -0.11708762 -0.077661686 -0.019007456 -0.12981774 -0.19425002 0.09446923 0.07905332 0.16583858 0.107894845 -0.041057184 0.049052 -0.039798938 0.19664322 0.09140519 0.06659711 0.10079192 0.14242825 0.037812453 0.0013545982 -0.09126139 -0.09173776 0.0041962806 0.10525737 -0.085195795 -0.0263416 -0.08590163 0.021579042 -0.090495005 0.0011595695 -0.15503876 -0.0031351724 -0.034986503 -0.036399197 -0.23670633 -0.09550707 0.044332534 0.098396726 0.039505765 0.052241307 -0.14269455 0.059193373 -0.08238502 0.10086187 0.016563524 0.0010744758 0.046584092 0.027381785 -0.08527903 -0.07062627 -0.004430814 -0.16134371 -0.16537702 0.018931055 -0.16317831 -0.13984706 -0.052769527 0.15458913 0.0935464 0.058937684 -0.023289474 0.022783183 0.076110505 0.14454882 0.07346786 0.1277451 0.008831461
-0.003718385 -0.08509317 0.023867624 -0.082867146 0.0668318 0.017444411 0.05362892 -0.00091763446 -0.016606929 -0.045481984 -0.10934068 -0.11188032 -0.07742814 -0.02343925 0.075517155 -0.1007424 0.01826935 -0.155286 0.043246076 0.0024845672 0.029062938 -0.09592237 -0.08415621 -0.07328863 -0.0013753519 -0.06106909 0.0131972255 0.10915053 0.11470184 0.10222369 -0.06419244 0.013414997 0.14494228 -0.010055035 -0.07108075 -0.0868921 -0.014925338 0.023079759 0.16794035 0.008467531 0.030894807 -0.008357833 0.0375541 0.10925516 -0.1716424 -0.09440655 -0.034165077 -0.09652945 -0.12135226 -0.027297296 0.07133202 -0.021601105 0.046879627 -0.036808096 -0.031534094 0.09251287 0.051653385 0.05892917 0.0961855 -0.03837743 0.06829659 0.08224686 -0.09557624 -0.07995436 0.12803097 0.12398727 0.06758364 0.1128489 0.12556972 0.09809175 -0.09984871 -0.038990162 -0.07670462 0.02636115 0.21289657 0.092456326 -0.09402625 -0.12043782 0.025554014 -0.049145877 0.13082162 0.044062685 0.09320235 0.005057611 0.09629165 0.107821606 0.046938922 -0.09980004 0.025889996 0.106629275 -0.06452196 -0.2461174 -0.2824531 -0.11224993 -0.029504811 -0.07549762 -0.03972644 -0.19677635 -0.026200915 0.020916943 0.06096199 0.08457235 -0.057443067 0.0026284468 -0.010174669 -0.019318245 -0.03189186 -0.024687245 0.032676358 0.1447036 0.08806758 -0.043836653 0.08331381 0.038763463 0.095181584 -0.1146334 -0.12527043 0.010390825 -0.10063793 -0.040737025 0.027393522 0.011780954 -0.05916022 -0.10651918 -0.16889793 -0.060634997 0.041339118 -0.09091726 0.0322843 -0.057396177 0.03456313 0.104900494 -0.084368706 0.04427997 -0.082275294 0.089222774 0.05479628 -0.08084579 0.021123862 0.12894243 -0.009365311 -0.1266218 -0.1101672 -0.16288052 -0.13584298 -0.042466797 0.04670223 -0.068951294 0.017020814 0.07314457 0.048828848
-0.048004434 -0.09951712 -0.048557464 -0.046309717 -0.14508098 0.07920066 -0.07254679 -0.094643794 -0.100367725 -0.0047628367 0.13078503 0.16029683 0.02022405 0.13704337 0.11902812 0.08185177 0.1680214 0.035777513 0.08844401 0.058846753 -0.04616335 0.07187127 0.04709394 0.021986619 0.0066421363 0.043713618 -0.14151761 0.011106066 -0.008079434 0.0662731 -0.09235198 0.010005044 -0.09787726 -0.10166005 0.04724728 0.03126512 0.055624176 -0.14902464 -0.06675488 -0.020276986 0.14025702 -0.06646733 -0.10560668 -0.09980221 -0.055266693 0.06286017 -0.10526886 -0.031255856 0.0672301 -0.052159186 -0.1427123 -0.02582164 0.087406 0.019086333 0.060277738 0.03619834 0.023891786 -0.06538319 -0.032598455 0.012468528 -0.011487588 -0.15557307 -0.11111646 -0.023501528 -0.13089061 0.06636516 0.013207985 -0.024270333 0.06344377 -0.11342456 0.030705683 -0.028642574 0.058330353 0.13932736 0.087618604 -0.09762402 -0.15038498 -0.04711821 0.029508768 -0.029349098 -0.0792877 -0.018536836 0.051820543 -0.15004207 0.0050605675 0.14383918 -0.038303338 0.11859537 0.020929037 0.07686013 -0.008466205 0.07058475 0.093242005 0.11975423 0.15200911 -0.11771988 -0.020912025 -0.1266821 -0.09145056 -0.056843575 0.03947019 0.037565876 -0.0699715 -0.08885935 -0.00013952109 0.052988093 -0.08288831 -0.16569288 -0.12792732 -0.088762954 0.04396307 -0.005265639 -0.10446258 -0.09637937 -0.12089121 0.066249095 0.115707226 0.020317823 0.091030955 -0.056585502 0.11465495 -0.071576595 0.007950025 -0.07214378 0.103497915 -0.12954241 -0.020991562 -0.039318383 -0.13411112 0.070931464 -0.13518076 -0.008701455 -0.036708113 -0.0813385 0.019871565 -0.0374267 0.14373708 -0.040938348 0.11054459 -0.0056167473 0.020451862 0.06810168 0.060393922 0.024623755 0.021013036 0.052331842 -0.13281687 -0.08844207 -0.15168902 -0.11319737 0.02438439
0.064706475 -0.02942415 0.049774002 0.1578694 0.011001152 -0.0258029 -0.042275343 -0.059570644 0.020651909 0.025968794 0.012442022 -0.12909304 0.075745724 0.055050053 -0.07709074 0.005195641 -0.123477176 -0.06049358 0.10323003 0.06334477 -0.041057438 0.04318098 0.075471774 -0.021301094 -0.0060201176 -0.01606886 -0.048773196 0.016288137 0.0807152 0.02990143 -0.004480102 0.13970345 -0.019179858 0.01332651 0.13772288 -0.07007826 0.02948846 0.12183158 -0.03761411 -0.1492728 0.07606962 0.116982795 0.03615394 0.024817893 -0.036341432 0.09817217 0.0058507314 0.085939996 -0.04931451 -0.14221229 0.056389637 0.14528349 -0.045113884 -0.0031498794 -0.17664331 -0.036722515 0.044418786 -0.035100985 -0.2133998 -0.10980483 -0.15984866 -0.09561204 -0.13849886 -0.20991306 0.013636189 0.09969935 -0.13734695 -0.121526286 -0.11246529 -0.03358038 -0.00386084 -0.07747011 -0.015263325 -0.06393898 0.1049482 0.021190198 -0.14480594 -0.07760743 0.022218367 0.10350309 -0.09416612 -0.04653801 -0.015729154 0.040987622 -0.0040307576 0.01877286 -0.043742202 -0.0823458 -0.12626006 0.053193055 0.0010290463 -0.020277675 -0.09992626 -0.025149785 0.029151997 -0.0150812855 -0.03871982 -0.18869315 -0.0035007496 0.19635993 -0.019048179 0.16944084 0.107731394 0.067730285 -0.08902303 -0.061020512 0.1130298 -0.015496258 0.017785206 0.045711692 -0.03642172 -0.02111611 5.0737028e-05 0.08559328 -0.04795323 0.108142816 -0.020972602 0.11300098 0.114837125 -0.036961205 -0.06916239 -0.077191025 0.02753629 0.13308316 0.051688205 -0.012529757 -0.11631412 -0.12647752 0.09988538 0.06350762 -0.0320448 -0.1491465 -0.2273067 0.013195738 0.098749645 0.08597997 -0.037243538 -0.09529216 -0.04772158 0.01660559 0.080024935 -0.009534948 -0.084502295 -0.22348364 -0.1106827 -0.06246911 -0.114060394 -0.27787083 -0.06293004 0.06954724 0.017446589
0.072671905 0.13981467 0.07479289 0.08811697 -0.1346084 0.00772622 0.038572714 0.057652008 0.11525596 -0.1414138 -0.013325804 -0.07956916 -0.008713981 0.13823815 -0.031140508 0.017994763 0.03142232 0.0799186 0.013814385 -0.12181063 -0.007261969 -0.096143894 0.04581887 -0.027088534 -0.07216002 -0.037395567 -0.09814434 -0.1939031 -0.11733087 0.11018006 0.09414849 -0.006113815 -0.14522153 0.069405556 0.13634257 0.066296525 0.1321435 -0.032116525 -0.039221168 0.165527 -0.08070489 0.017225258 0.11687072 0.06618595 0.22193937 0.049353037 0.10412696 0.046939403 0.08268118 0.08837949 -0.10971838 0.008984644 -0.05607257 -0.095279895 -0.14421818 0.0320135 -0.17695381 -0.2726408 -0.09531305 -0.15906386 -0.20061679 -0.053073224 -0.09534344 -0.06200982 -0.2086527 0.05821796 0.08977835 0.0009413843 -0.13513437 -0.17791589 0.074674815 0.07913721 -0.087111376 -0.08506467 -0.1003756 0.089873545 0.0697938 0.09170699 0.012908218 -0.14488043 -0.020941984 -0.055527296 0.03196974 0.014981742 -0.09233196 0.11689632 0.003998849 -0.06436131 0.044162743 -0.1435201 -0.020867454 -0.033389486 -0.0011050501 0.029862605 0.0066273645 0.045295954 0.083222836 -0.07915983 -0.0012751287 -0.10630584 0.115745656 0.08864532 0.034606792 -0.15697122 0.002409893 -0.046739567 -0.016805602 0.011692483 -0.11382873 0.018564845 -0.052494325 0.10650341 -0.024990285 -0.09506816 -0.034347914 -0.08531999 0.057042863 0.15756294 0.06805628 -0.058644284 0.1171374 0.026430612 0.05586353 -0.07159267 -0.089799546 0.019467553 0.05815845 0.16612299 0.07864589 -0.13566476 -0.09595919 -0.05867161 0.038788214 0.117216885 -0.098046206 0.1114371 0.042232007 -0.08623335 -0.11947257 0.0053245476 0.1155019 0.029913008 0.015212481 -0.1005638 -0.12006092 0.06654462 -0.0029461442 -0.09116846 -0.05635806 -0.082674004 0.016228719
-0.012680093 -0.089494504 0.07391719 -0.059877943 -0.059478622 0.10096688 -0.118902124 -0.09488721 0.06699631 0.12536089 0.045289647 -0.014667743 0.0959762 0.052758094 -0.0046792217 -0.022254486 0.15676574 0.09741776 0.014455848 -0.060459837 -0.13497044 -0.10702359 0.023628784 -0.020943452 -0.12130161 0.06252052 -0.04851724 0.047648594 0.022022845 0.063191816 -0.13883169 -0.07267122 -0.11733059 0.03715551 0.08746145 -0.11107238 -0.14125991 0.052060038 -0.060651116 -0.09439042 -0.1033296 -0.04687023 -0.101809196 -0.053726133 -0.023303678 0.058548804 0.01640396 -0.061038695 -0.08967618 -0.11542881 -0.01104827 0.008571236 0.103083186 0.03502714 0.060865458 -0.10049 -0.012878957 0.20680308 0.14167164 -0.040225543 -0.017900513 0.0038809218 -0.051109336 0.0067254077 -0.10039806 0.06011244 -0.076323606 -0.037694495 0.047845934 -0.016035885 -0.008074431 -0.028526574 0.20086633 0.13914011 0.05414185 -0.0013067129 0.012330084 -0.13192676 -0.039302953 -0.10587699 0.040401403 -0.0030990657 -0.102948695 0.09215369 0.12583171 0.05371838 0.18091013 0.04026216 0.0040943194 0.08742052 0.06377578 0.15243189 0.15859814 0.047633577 -0.01952103 0.12699048 -0.008320356 -0.07753515 -0.039506532 -0.09423248 -0.087268636 -0.12226878 -0.033058364 -0.0763832 -0.050485156 -0.0055408278 -0.08346834 0.025883846 0.0051558353 0.06825344 0.03977036 -0.02312869 0.048900202 -0.04239977 -0.071746044 0.12320422 0.004549244 0.061615296 0.027056262 -0.081023104 0.12658697 0.120402046 0.15287696 0.12648956 0.047681563 -0.04761321 -0.090191096 -0.09221425 -0.041590657 0.03724925 0.07663838 0.08471727 -0.020991992 0.11150262 0.030253232 0.07367269 0.11113773 0.05618016 0.17883758 0.08739578 0.17669548 0.17595518 0.21213971 0.18573813 -0.06961747 0.11073661 0.17584608 0.11761632 0.04531839 -0.16715778 -0.029907875
